{"learner":{"attributes":{"scikit_learn":"{\"_estimator_type\": \"regressor\"}"},"feature_names":["pocet_kusov","d","l","plocha_prierezu","plocha_plasta","material_NEREZ","material_OCEĽ","material_PLAST","akost_1.0037","akost_1.0038","akost_1.0039","akost_1.0044","akost_1.0045","akost_1.0117","akost_1.0308","akost_1.0425","akost_1.0460","akost_1.0503","akost_1.0570","akost_1.0576","akost_1.0577","akost_1.0710","akost_1.0715","akost_1.0718","akost_1.0762","akost_1.1141","akost_1.1191","akost_1.1213","akost_1.2343","akost_1.2367","akost_1.2379","akost_1.2510","akost_1.2738","akost_1.2842","akost_1.3243","akost_1.3247","akost_1.3343","akost_1.3505","akost_1.4005","akost_1.4021","akost_1.4034","akost_1.4057","akost_1.4104","akost_1.4112","akost_1.4125","akost_1.4301","akost_1.4305","akost_1.4306","akost_1.4307","akost_1.4401","akost_1.4404","akost_1.4405","akost_1.4410","akost_1.4418","akost_1.4435","akost_1.4462","akost_1.4571","akost_1.5060","akost_1.5752","akost_1.6323","akost_1.658","akost_1.6580","akost_1.6773","akost_1.7131","akost_1.7225","akost_1.7227","akost_1.8515","akost_2.0371","akost_2.0401","akost_2.0402","akost_2.0975","akost_2.1020","akost_2.1090","akost_2.1285","akost_2.5083","akost_3.1255","akost_3.1325","akost_3.1355","akost_3.1645","akost_3.215","akost_3.2315","akost_3.3206","akost_3.3207","akost_3.3211","akost_3.3547","akost_3.4365","akost_3.5312","akost_CW724R","akost_EPDM","akost_NAN","akost_PA","akost_PC","akost_PE-HD","akost_PE-UHMW","akost_PEEK","akost_PET-G","akost_POM","akost_PP","akost_PVC","akost_TOOLOX44","narocnost_2","narocnost_3","narocnost_4","narocnost_5"],"feature_types":["float","float","int","float","float","i","i","i","i","i","i","i","i","i","i","i","i","i","i","i","i","i","i","i","i","i","i","i","i","i","i","i","i","i","i","i","i","i","i","i","i","i","i","i","i","i","i","i","i","i","i","i","i","i","i","i","i","i","i","i","i","i","i","i","i","i","i","i","i","i","i","i","i","i","i","i","i","i","i","i","i","i","i","i","i","i","i","i","i","i","i","i","i","i","i","i","i","i","i","i","i","i","i","i"],"gradient_booster":{"model":{"cats":{"enc":[],"feature_segments":[],"sorted_idx":[]},"gbtree_model_param":{"num_parallel_tree":"1","num_trees":"500"},"iteration_indptr":[0,1,2,3,4,5,6,7,8,9,10,11,12,13,14,15,16,17,18,19,20,21,22,23,24,25,26,27,28,29,30,31,32,33,34,35,36,37,38,39,40,41,42,43,44,45,46,47,48,49,50,51,52,53,54,55,56,57,58,59,60,61,62,63,64,65,66,67,68,69,70,71,72,73,74,75,76,77,78,79,80,81,82,83,84,85,86,87,88,89,90,91,92,93,94,95,96,97,98,99,100,101,102,103,104,105,106,107,108,109,110,111,112,113,114,115,116,117,118,119,120,121,122,123,124,125,126,127,128,129,130,131,132,133,134,135,136,137,138,139,140,141,142,143,144,145,146,147,148,149,150,151,152,153,154,155,156,157,158,159,160,161,162,163,164,165,166,167,168,169,170,171,172,173,174,175,176,177,178,179,180,181,182,183,184,185,186,187,188,189,190,191,192,193,194,195,196,197,198,199,200,201,202,203,204,205,206,207,208,209,210,211,212,213,214,215,216,217,218,219,220,221,222,223,224,225,226,227,228,229,230,231,232,233,234,235,236,237,238,239,240,241,242,243,244,245,246,247,248,249,250,251,252,253,254,255,256,257,258,259,260,261,262,263,264,265,266,267,268,269,270,271,272,273,274,275,276,277,278,279,280,281,282,283,284,285,286,287,288,289,290,291,292,293,294,295,296,297,298,299,300,301,302,303,304,305,306,307,308,309,310,311,312,313,314,315,316,317,318,319,320,321,322,323,324,325,326,327,328,329,330,331,332,333,334,335,336,337,338,339,340,341,342,343,344,345,346,347,348,349,350,351,352,353,354,355,356,357,358,359,360,361,362,363,364,365,366,367,368,369,370,371,372,373,374,375,376,377,378,379,380,381,382,383,384,385,386,387,388,389,390,391,392,393,394,395,396,397,398,399,400,401,402,403,404,405,406,407,408,409,410,411,412,413,414,415,416,417,418,419,420,421,422,423,424,425,426,427,428,429,430,431,432,433,434,435,436,437,438,439,440,441,442,443,444,445,446,447,448,449,450,451,452,453,454,455,456,457,458,459,460,461,462,463,464,465,466,467,468,469,470,471,472,473,474,475,476,477,478,479,480,481,482,483,484,485,486,487,488,489,490,491,492,493,494,495,496,497,498,499,500],"tree_info":[0,0,0,0,0,0,0,0,0,0,0,0,0,0,0,0,0,0,0,0,0,0,0,0,0,0,0,0,0,0,0,0,0,0,0,0,0,0,0,0,0,0,0,0,0,0,0,0,0,0,0,0,0,0,0,0,0,0,0,0,0,0,0,0,0,0,0,0,0,0,0,0,0,0,0,0,0,0,0,0,0,0,0,0,0,0,0,0,0,0,0,0,0,0,0,0,0,0,0,0,0,0,0,0,0,0,0,0,0,0,0,0,0,0,0,0,0,0,0,0,0,0,0,0,0,0,0,0,0,0,0,0,0,0,0,0,0,0,0,0,0,0,0,0,0,0,0,0,0,0,0,0,0,0,0,0,0,0,0,0,0,0,0,0,0,0,0,0,0,0,0,0,0,0,0,0,0,0,0,0,0,0,0,0,0,0,0,0,0,0,0,0,0,0,0,0,0,0,0,0,0,0,0,0,0,0,0,0,0,0,0,0,0,0,0,0,0,0,0,0,0,0,0,0,0,0,0,0,0,0,0,0,0,0,0,0,0,0,0,0,0,0,0,0,0,0,0,0,0,0,0,0,0,0,0,0,0,0,0,0,0,0,0,0,0,0,0,0,0,0,0,0,0,0,0,0,0,0,0,0,0,0,0,0,0,0,0,0,0,0,0,0,0,0,0,0,0,0,0,0,0,0,0,0,0,0,0,0,0,0,0,0,0,0,0,0,0,0,0,0,0,0,0,0,0,0,0,0,0,0,0,0,0,0,0,0,0,0,0,0,0,0,0,0,0,0,0,0,0,0,0,0,0,0,0,0,0,0,0,0,0,0,0,0,0,0,0,0,0,0,0,0,0,0,0,0,0,0,0,0,0,0,0,0,0,0,0,0,0,0,0,0,0,0,0,0,0,0,0,0,0,0,0,0,0,0,0,0,0,0,0,0,0,0,0,0,0,0,0,0,0,0,0,0,0,0,0,0,0,0,0,0,0,0,0,0,0,0,0,0,0,0,0,0,0,0,0,0,0,0,0,0,0,0,0,0,0,0,0,0,0,0,0,0,0,0,0,0,0,0,0,0,0,0,0,0,0,0,0,0,0,0,0,0,0,0,0,0,0,0,0,0,0,0,0,0,0,0,0,0],"trees":[{"base_weights":[4.8274163E-2,1.1598934E0,-1.0261451E0,1.6162336E0,3.7517935E-1,-9.0570785E-2,-1.4835244E0,1.6300403E0,-0E0,-4.97621E-2,7.0191413E-1,-3.5753846E-1,1.991901E-1,-1.5192199E0,-0E0,-0E0,4.9298886E-2,-2.7267814E-3,-0E0,2.209311E-2,-0E0,-1.1895682E-2,-0E0,7.848324E-3,-0E0,-4.7002137E-2,-0E0],"categories":[],"categories_nodes":[],"categories_segments":[],"categories_sizes":[],"default_left":[0,0,0,0,0,0,0,0,0,0,0,0,0,0,0,0,0,0,0,0,0,0,0,0,0,0,0],"id":0,"left_children":[1,3,5,7,9,11,13,15,-1,17,19,21,23,25,-1,-1,-1,-1,-1,-1,-1,-1,-1,-1,-1,-1,-1],"loss_changes":[8.1913446E2,9.672592E1,1.3302155E2,3.8292847E0,2.670646E1,1.2778225E1,7.9602356E0,3.3640747E0,0E0,3.3308822E-1,2.1049423E0,1.8595362E0,1.2467291E0,7.420532E0,0E0,0E0,0E0,0E0,0E0,0E0,0E0,0E0,0E0,0E0,0E0,0E0,0E0],"parents":[2147483647,0,0,1,1,2,2,3,3,4,4,5,5,6,6,7,7,9,9,10,10,11,11,12,12,13,13],"right_children":[2,4,6,8,10,12,14,16,-1,18,20,22,24,26,-1,-1,-1,-1,-1,-1,-1,-1,-1,-1,-1,-1,-1],"split_conditions":[2.3025851E0,1.3862944E0,3.8066626E0,1E0,7.1816807E3,1.0367256E4,1E0,7E0,-0E0,5.5E1,4E2,1E0,2.8E2,2.8274334E4,-0E0,-0E0,4.9298886E-2,-2.7267814E-3,-0E0,2.209311E-2,-0E0,-1.1895682E-2,-0E0,7.848324E-3,-0E0,-4.7002137E-2,-0E0],"split_indices":[0,0,0,14,4,4,64,1,0,2,2,102,2,4,0,0,0,0,0,0,0,0,0,0,0,0,0],"split_type":[0,0,0,0,0,0,0,0,0,0,0,0,0,0,0,0,0,0,0,0,0,0,0,0,0,0,0],"sum_hessian":[6.55E2,3.25E2,3.3E2,1.89E2,1.36E2,1.2E2,2.1E2,1.87E2,2E0,5.4E1,8.2E1,7.5E1,4.5E1,2.03E2,7E0,2E0,1.85E2,4.6E1,8E0,7.7E1,5E0,7E1,5E0,3.8E1,7E0,1.93E2,1E1],"tree_param":{"num_deleted":"0","num_feature":"104","num_nodes":"27","size_leaf_vector":"1"}},{"base_weights":[-1.2533793E-2,-9.363289E-1,7.4887705E-1,-1.0761667E0,-0E0,2.7500263E-1,1.1990935E0,-1.1537523E0,1.616556E-1,-0E0,2.758022E-3,3.8057145E-1,-5.680602E-2,1.2355523E0,-0E0,-3.5013232E-2,-0E0,-0E0,5.4143425E-3,-1.9876147E-3,-0E0,-0E0,1.928146E-2,-0E0,-6.201935E-3,3.746933E-2,-0E0],"categories":[],"categories_nodes":[],"categories_segments":[],"categories_sizes":[],"default_left":[0,0,0,0,0,0,0,0,0,0,0,0,0,0,0,0,0,0,0,0,0,0,0,0,0,0,0],"id":1,"left_children":[1,3,5,7,9,11,13,15,17,19,-1,21,23,25,-1,-1,-1,-1,-1,-1,-1,-1,-1,-1,-1,-1,-1],"loss_changes":[4.7062628E2,4.4422607E1,6.0278824E1,3.666443E1,2.2820057E-1,1.0060249E1,4.5813293E0,6.758911E0,1.1554307E-1,1.6241409E-1,0E0,1.8853827E1,1.2256243E0,3.9438171E0,0E0,0E0,0E0,0E0,0E0,0E0,0E0,0E0,0E0,0E0,0E0,0E0,0E0],"parents":[2147483647,0,0,1,1,2,2,3,3,4,4,5,5,6,6,7,7,8,8,9,9,11,11,12,12,13,13],"right_children":[2,4,6,8,10,12,14,16,18,20,-1,22,24,26,-1,-1,-1,-1,-1,-1,-1,-1,-1,-1,-1,-1,-1],"split_conditions":[7.8539814E3,8E1,7E1,1E0,2E1,1E0,1E0,1E0,2.3E1,1E0,2.758022E-3,1E0,1.272345E4,1E0,-0E0,-3.5013232E-2,-0E0,-0E0,5.4143425E-3,-1.9876147E-3,-0E0,-0E0,1.928146E-2,-0E0,-6.201935E-3,3.746933E-2,-0E0],"split_indices":[4,2,1,33,1,20,64,27,2,63,0,6,4,10,0,0,0,0,0,0,0,0,0,0,0,0,0],"split_type":[0,0,0,0,0,0,0,0,0,0,0,0,0,0,0,0,0,0,0,0,0,0,0,0,0,0,0],"sum_hessian":[6.37E2,2.91E2,3.46E2,2.55E2,3.6E1,1.89E2,1.57E2,2.47E2,8E0,2.4E1,1.2E1,1.6E2,2.9E1,1.5E2,7E0,2.46E2,1E0,1E0,7E0,2.2E1,2E0,6.8E1,9.2E1,1.2E1,1.7E1,1.49E2,1E0],"tree_param":{"num_deleted":"0","num_feature":"104","num_nodes":"27","size_leaf_vector":"1"}},{"base_weights":[-0E0,1.0223399E0,-9.7753924E-1,1.2924601E0,1.0065734E-1,-1.4123614E-1,-1.3896394E0,3.5656983E-1,1.4503311E0,-0E0,3.5295948E-1,-3.294907E-1,1.9481114E-1,-1.4817928E0,-0E0,1.5109523E-2,-0E0,4.3960776E-2,-0E0,-8.8380516E-4,-0E0,1.2542019E-2,-0E0,-1.126191E-2,-0E0,7.4286633E-3,-0E0,-4.4952746E-2,-0E0],"categories":[],"categories_nodes":[],"categories_segments":[],"categories_sizes":[],"default_left":[0,0,0,0,0,0,0,0,0,0,0,0,0,0,0,0,0,0,0,0,0,0,0,0,0,0,0,0,0],"id":2,"left_children":[1,3,5,7,9,11,13,15,17,19,21,23,25,27,-1,-1,-1,-1,-1,-1,-1,-1,-1,-1,-1,-1,-1,-1,-1],"loss_changes":[6.7276355E2,6.9311066E1,1.0267609E2,1.4429596E1,5.2360935E0,1.0643954E1,2.554367E1,4.419593E0,4.468933E0,4.2527184E-2,1.4613123E0,2.2264452E0,9.433925E-1,5.720276E0,0E0,0E0,0E0,0E0,0E0,0E0,0E0,0E0,0E0,0E0,0E0,0E0,0E0,0E0,0E0],"parents":[2147483647,0,0,1,1,2,2,3,3,4,4,5,5,6,6,7,7,8,8,9,9,10,10,11,11,12,12,13,13],"right_children":[2,4,6,8,10,12,14,16,18,20,22,24,26,28,-1,-1,-1,-1,-1,-1,-1,-1,-1,-1,-1,-1,-1,-1,-1],"split_conditions":[2.3978953E0,1.7917595E0,3.8066626E0,7.0685835E3,8.63938E3,1.7592918E4,2.8274334E4,2.6E1,1E0,5E1,1E0,8E1,1E0,1E0,-0E0,1.5109523E-2,-0E0,4.3960776E-2,-0E0,-8.8380516E-4,-0E0,1.2542019E-2,-0E0,-1.126191E-2,-0E0,7.4286633E-3,-0E0,-4.4952746E-2,-0E0],"split_indices":[0,0,0,4,4,4,4,1,94,2,20,1,56,60,0,0,0,0,0,0,0,0,0,0,0,0,0,0,0],"split_type":[0,0,0,0,0,0,0,0,0,0,0,0,0,0,0,0,0,0,0,0,0,0,0,0,0,0,0,0,0],"sum_hessian":[6.43E2,3.16E2,3.27E2,2.33E2,8.3E1,1.21E2,2.06E2,4.8E1,1.85E2,4.8E1,3.5E1,9.3E1,2.8E1,1.91E2,1.5E1,3.4E1,1.4E1,1.83E2,2E0,3.4E1,1.4E1,2.9E1,6E0,8.4E1,9E0,2.7E1,1E0,1.89E2,2E0],"tree_param":{"num_deleted":"0","num_feature":"104","num_nodes":"29","size_leaf_vector":"1"}},{"base_weights":[7.3442594E-3,1.0309557E0,-9.498557E-1,-0E0,1.3198321E0,-1.7894326E-1,-1.362209E0,1.2294189E-1,-5.635777E-2,1.5159993E0,4.763053E-1,-3.682881E-1,9.779833E-2,-1.4466494E0,-0E0,7.846242E-3,-0E0,-2.7159166E-3,-0E0,4.589554E-2,-0E0,-0E0,1.5274649E-2,-1.2429002E-2,-0E0,-0E0,5.291E-3,-4.365112E-2,-0E0],"categories":[],"categories_nodes":[],"categories_segments":[],"categories_sizes":[],"default_left":[0,0,0,0,0,0,0,0,0,0,0,0,0,0,0,0,0,0,0,0,0,0,0,0,0,0,0,0,0],"id":3,"left_children":[1,3,5,7,9,11,13,15,17,19,21,23,25,27,-1,-1,-1,-1,-1,-1,-1,-1,-1,-1,-1,-1,-1,-1,-1],"loss_changes":[6.718042E2,1.0033133E2,9.52753E1,6.8530375E-1,1.6584167E1,1.0354528E1,1.8458008E1,1.461868E0,3.5003793E-1,3.6729126E0,1.2612E0,1.4498749E0,6.966192E-1,2.8237E0,0E0,0E0,0E0,0E0,0E0,0E0,0E0,0E0,0E0,0E0,0E0,0E0,0E0,0E0,0E0],"parents":[2147483647,0,0,1,1,2,2,3,3,4,4,5,5,6,6,7,7,8,8,9,9,10,10,11,11,12,12,13,13],"right_children":[2,4,6,8,10,12,14,16,18,20,22,24,26,28,-1,-1,-1,-1,-1,-1,-1,-1,-1,-1,-1,-1,-1,-1,-1],"split_conditions":[2.3025851E0,7.0685835E3,3.8918202E0,1.3862944E0,1.609438E0,6E1,2.8274334E4,1E0,1E0,1E0,1.8E1,1E0,1.69646E4,1E0,-0E0,7.846242E-3,-0E0,-2.7159166E-3,-0E0,4.589554E-2,-0E0,-0E0,1.5274649E-2,-1.2429002E-2,-0E0,-0E0,5.291E-3,-4.365112E-2,-0E0],"split_indices":[0,4,0,0,0,1,4,5,102,14,1,102,4,61,0,0,0,0,0,0,0,0,0,0,0,0,0,0,0],"split_type":[0,0,0,0,0,0,0,0,0,0,0,0,0,0,0,0,0,0,0,0,0,0,0,0,0,0,0,0,0],"sum_hessian":[6.55E2,3.2E2,3.35E2,7.3E1,2.47E2,1.31E2,2.04E2,1.5E1,5.8E1,1.83E2,6.4E1,9.2E1,3.9E1,1.88E2,1.6E1,1.3E1,2E0,5.6E1,2E0,1.81E2,2E0,5E0,5.9E1,7.8E1,1.4E1,1.5E1,2.4E1,1.87E2,1E0],"tree_param":{"num_deleted":"0","num_feature":"104","num_nodes":"29","size_leaf_vector":"1"}},{"base_weights":[-0E0,1.0000013E0,-1.0105914E0,1.376201E0,3.582002E-1,-1.7426524E-1,-1.3814062E0,1.4006022E0,-0E0,-0E0,6.142624E-1,-3.2671544E-1,5.6732476E-2,-1.4249783E0,-0E0,4.3071207E-2,-0E0,-1.941002E-3,-0E0,1.9631214E-2,-0E0,-1.0996536E-2,-0E0,-0E0,5.111369E-3,-4.5084592E-2,-3.8264706E-3],"categories":[],"categories_nodes":[],"categories_segments":[],"categories_sizes":[],"default_left":[0,0,0,0,0,0,0,0,0,0,0,0,0,0,0,0,0,0,0,0,0,0,0,0,0,0,0],"id":4,"left_children":[1,3,5,7,9,11,13,15,-1,17,19,21,23,25,-1,-1,-1,-1,-1,-1,-1,-1,-1,-1,-1,-1,-1],"loss_changes":[7.0243286E2,6.227057E1,9.21763E1,1.1928589E1,1.8470518E1,7.0511436E0,1.4277283E1,5.883087E0,0E0,2.3442152E-1,3.9058342E0,1.2045994E0,7.002235E-1,6.9064026E0,0E0,0E0,0E0,0E0,0E0,0E0,0E0,0E0,0E0,0E0,0E0,0E0,0E0],"parents":[2147483647,0,0,1,1,2,2,3,3,4,4,5,5,6,6,7,7,9,9,10,10,11,11,12,12,13,13],"right_children":[2,4,6,8,10,12,14,16,-1,18,20,22,24,26,-1,-1,-1,-1,-1,-1,-1,-1,-1,-1,-1,-1,-1],"split_conditions":[2.3978953E0,1.3862944E0,3.8066626E0,1E0,5E1,2.8274333E3,4.5E2,3E2,-0E0,3.3183071E3,1E0,1.52E2,6.5E1,3.3183071E3,-0E0,4.3071207E-2,-0E0,-1.941002E-3,-0E0,1.9631214E-2,-0E0,-1.0996536E-2,-0E0,-0E0,5.111369E-3,-4.5084592E-2,-3.8264706E-3],"split_indices":[0,0,0,52,2,3,2,2,0,3,8,2,2,3,0,0,0,0,0,0,0,0,0,0,0,0,0],"split_type":[0,0,0,0,0,0,0,0,0,0,0,0,0,0,0,0,0,0,0,0,0,0,0,0,0,0,0],"sum_hessian":[6.65E2,3.31E2,3.34E2,1.9E2,1.41E2,1.16E2,2.18E2,1.89E2,1E0,5.4E1,8.7E1,8.7E1,2.9E1,2.11E2,7E0,1.82E2,7E0,4.1E1,1.3E1,8.4E1,3E0,7.5E1,1.2E1,1.5E1,1.4E1,1.91E2,2E1],"tree_param":{"num_deleted":"0","num_feature":"104","num_nodes":"27","size_leaf_vector":"1"}},{"base_weights":[-0E0,9.788048E-1,-9.4377565E-1,8.630013E-2,1.2308803E0,-1.8416862E-1,-1.3066565E0,3.436117E-1,-5.5865243E-2,-0E0,1.2528564E0,-3.746297E-1,8.35589E-2,-1.3794492E0,-0E0,-0E0,1.5258423E-2,-3.0982047E-3,-0E0,4.040221E-2,8.708747E-3,-1.1654593E-2,-0E0,-0E0,7.3438627E-3,-4.171159E-2,-0E0],"categories":[],"categories_nodes":[],"categories_segments":[],"categories_sizes":[],"default_left":[0,0,0,0,0,0,0,0,0,0,0,0,0,0,0,0,0,0,0,0,0,0,0,0,0,0,0],"id":5,"left_children":[1,3,5,7,9,11,13,15,17,-1,19,21,23,25,-1,-1,-1,-1,-1,-1,-1,-1,-1,-1,-1,-1,-1],"loss_changes":[6.4372437E2,6.436188E1,8.286966E1,6.1748285E0,4.6098633E0,9.936956E0,2.0625305E1,3.100225E0,2.945065E-1,0E0,3.7222595E0,9.276562E-1,1.6074677E0,4.701233E0,0E0,0E0,0E0,0E0,0E0,0E0,0E0,0E0,0E0,0E0,0E0,0E0,0E0],"parents":[2147483647,0,0,1,1,2,2,3,3,4,4,5,5,6,6,7,7,8,8,10,10,11,11,12,12,13,13],"right_children":[2,4,6,8,10,12,14,16,18,-1,20,22,24,26,-1,-1,-1,-1,-1,-1,-1,-1,-1,-1,-1,-1,-1],"split_conditions":[2.3978953E0,7.0685835E3,3.8066626E0,2.6E1,1.8E1,5.5E1,2.8274334E4,1E0,1E0,-0E0,1E0,1E0,1E2,1E0,-0E0,-0E0,1.5258423E-2,-3.0982047E-3,-0E0,4.040221E-2,8.708747E-3,-1.1654593E-2,-0E0,-0E0,7.3438627E-3,-4.171159E-2,-0E0],"split_indices":[0,4,0,1,1,1,4,6,101,0,20,58,2,30,0,0,0,0,0,0,0,0,0,0,0,0,0],"split_type":[0,0,0,0,0,0,0,0,0,0,0,0,0,0,0,0,0,0,0,0,0,0,0,0,0,0,0],"sum_hessian":[6.67E2,3.25E2,3.42E2,8.3E1,2.42E2,1.25E2,2.17E2,4.2E1,4.1E1,6E0,2.36E2,8.7E1,3.8E1,2.04E2,1.3E1,1.9E1,2.3E1,2.9E1,1.2E1,2.02E2,3.4E1,8.6E1,1E0,2E1,1.8E1,2.03E2,1E0],"tree_param":{"num_deleted":"0","num_feature":"104","num_nodes":"27","size_leaf_vector":"1"}},{"base_weights":[1.1373213E-2,-8.2664555E-1,7.33644E-1,-8.913408E-1,-0E0,2.689486E-1,1.2992789E0,-9.2595184E-1,-0E0,-2.0241506E-2,5.6643796E-4,4.213864E-1,-2.3913042E-1,2.5850275E-1,1.4422864E0,-2.90483E-2,-0E0,-4.260923E-3,-0E0,1.6625848E-2,-0E0,-0E0,-1.42877465E-2,8.925975E-3,-0E0,4.3587115E-2,-0E0],"categories":[],"categories_nodes":[],"categories_segments":[],"categories_sizes":[],"default_left":[0,0,0,0,0,0,0,0,0,0,0,0,0,0,0,0,0,0,0,0,0,0,0,0,0,0,0],"id":6,"left_children":[1,3,5,7,9,11,13,15,-1,17,-1,19,21,23,25,-1,-1,-1,-1,-1,-1,-1,-1,-1,-1,-1,-1],"loss_changes":[4.1509875E2,1.6515335E1,8.05177E1,1.4810959E1,2.059754E-2,2.0938044E1,4.1688538E0,5.1158447E0,0E0,5.315529E-1,0E0,7.888317E0,5.0224147E0,6.0078263E-1,1.8237915E0,0E0,0E0,0E0,0E0,0E0,0E0,0E0,0E0,0E0,0E0,0E0,0E0],"parents":[2147483647,0,0,1,1,2,2,3,3,4,4,5,5,6,6,7,7,9,9,11,11,12,12,13,13,14,14],"right_children":[2,4,6,8,10,12,14,16,-1,18,-1,20,22,24,26,-1,-1,-1,-1,-1,-1,-1,-1,-1,-1,-1,-1],"split_conditions":[7.775442E3,9E1,8.1E1,1E0,1E0,1E0,4.5E1,6.5E1,-0E0,2E1,5.6643796E-4,1E0,1.272345E4,1E0,1E0,-2.90483E-2,-0E0,-4.260923E-3,-0E0,1.6625848E-2,-0E0,-0E0,-1.42877465E-2,8.925975E-3,-0E0,4.3587115E-2,-0E0],"split_indices":[4,2,1,33,63,20,2,1,0,1,0,5,4,64,62,0,0,0,0,0,0,0,0,0,0,0,0],"split_type":[0,0,0,0,0,0,0,0,0,0,0,0,0,0,0,0,0,0,0,0,0,0,0,0,0,0,0],"sum_hessian":[6.57E2,2.98E2,3.59E2,2.75E2,2.3E1,2.17E2,1.42E2,2.71E2,4E0,1.7E1,6E0,1.81E2,3.6E1,2.9E1,1.13E2,2.52E2,1.9E1,1.2E1,5E0,1.24E2,5.7E1,1.6E1,2E1,2.5E1,4E0,1.12E2,1E0],"tree_param":{"num_deleted":"0","num_feature":"104","num_nodes":"27","size_leaf_vector":"1"}},{"base_weights":[-0E0,9.2368895E-1,-8.9632875E-1,1.2923561E0,3.0615464E-1,-2.667897E-1,-1.3371196E0,-0E0,1.312251E0,-0E0,5.5981195E-1,-5.194504E-1,4.2230166E-2,-1.362938E0,-0E0,3.9705463E-2,-0E0,1.7235726E-2,-0E0,-1.6134204E-2,-0E0,-0E0,4.405982E-3,-4.2125706E-2,-0E0],"categories":[],"categories_nodes":[],"categories_segments":[],"categories_sizes":[],"default_left":[0,0,0,0,0,0,0,0,0,0,0,0,0,0,0,0,0,0,0,0,0,0,0,0,0],"id":7,"left_children":[1,3,5,7,9,11,13,-1,15,-1,17,19,21,23,-1,-1,-1,-1,-1,-1,-1,-1,-1,-1,-1],"loss_changes":[5.702279E2,5.7544647E1,8.0051025E1,3.320221E0,1.3550867E1,1.7576088E1,8.160339E0,0E0,2.2268677E0,0E0,1.1552105E0,1.8455753E0,8.333131E-1,8.342804E0,0E0,0E0,0E0,0E0,0E0,0E0,0E0,0E0,0E0,0E0,0E0],"parents":[2147483647,0,0,1,1,2,2,3,3,4,4,5,5,6,6,8,8,10,10,11,11,12,12,13,13],"right_children":[2,4,6,8,10,12,14,-1,16,-1,18,20,22,24,-1,-1,-1,-1,-1,-1,-1,-1,-1,-1,-1],"split_conditions":[2.3978953E0,1.3862944E0,4.2904596E0,1E1,8.4823E3,7.1816807E3,1E0,-0E0,5.026548E5,-0E0,1E0,1E0,1.7592918E4,1E0,-0E0,3.9705463E-2,-0E0,1.7235726E-2,-0E0,-1.6134204E-2,-0E0,-0E0,4.405982E-3,-4.2125706E-2,-0E0],"split_indices":[0,0,0,1,4,4,60,0,4,0,94,24,4,64,0,0,0,0,0,0,0,0,0,0,0],"split_type":[0,0,0,0,0,0,0,0,0,0,0,0,0,0,0,0,0,0,0,0,0,0,0,0,0],"sum_hessian":[6.59E2,3.2E2,3.39E2,1.82E2,1.38E2,1.57E2,1.82E2,4E0,1.78E2,6.4E1,7.4E1,9.5E1,6.2E1,1.79E2,3E0,1.76E2,2E0,7.3E1,1E0,9.4E1,1E0,3.2E1,3E1,1.72E2,7E0],"tree_param":{"num_deleted":"0","num_feature":"104","num_nodes":"25","size_leaf_vector":"1"}},{"base_weights":[-0E0,9.2403114E-1,-8.690845E-1,1.1455758E0,2.086009E-2,-1.4922741E-1,-1.1658832E0,1.164222E0,-0E0,-0E0,2.3243943E-1,-3.344839E-1,8.382299E-2,-1.1824336E0,-0E0,-0E0,3.551661E-2,-3.8244974E-4,-0E0,8.440698E-3,-0E0,-1.1561219E-2,-0E0,-0E0,6.8726633E-3,-3.7696175E-2,-3.362749E-3],"categories":[],"categories_nodes":[],"categories_segments":[],"categories_sizes":[],"default_left":[0,0,0,0,0,0,0,0,0,0,0,0,0,0,0,0,0,0,0,0,0,0,0,0,0,0,0],"id":8,"left_children":[1,3,5,7,9,11,13,15,-1,17,19,21,23,25,-1,-1,-1,-1,-1,-1,-1,-1,-1,-1,-1,-1,-1],"loss_changes":[5.48947E2,5.594046E1,6.2929718E1,9.670258E0,2.231322E0,7.995307E0,6.6091614E0,7.5700073E0,0E0,8.77607E-3,7.389591E-1,2.5524817E0,1.3280988E0,5.9746704E0,0E0,0E0,0E0,0E0,0E0,0E0,0E0,0E0,0E0,0E0,0E0,0E0,0E0],"parents":[2147483647,0,0,1,1,2,2,3,3,4,4,5,5,6,6,7,7,9,9,10,10,11,11,12,12,13,13],"right_children":[2,4,6,8,10,12,14,16,-1,18,20,22,24,26,-1,-1,-1,-1,-1,-1,-1,-1,-1,-1,-1,-1,-1],"split_conditions":[2.3978953E0,1.7917595E0,3.713572E0,1E0,6.5E1,6E1,1E0,1.2E1,-0E0,1E0,1E0,1E0,1E2,6.5E1,-0E0,-0E0,3.551661E-2,-3.8244974E-4,-0E0,8.440698E-3,-0E0,-1.1561219E-2,-0E0,-0E0,6.8726633E-3,-3.7696175E-2,-3.362749E-3],"split_indices":[0,0,0,52,2,1,30,2,0,5,20,64,2,1,0,0,0,0,0,0,0,0,0,0,0,0,0],"split_type":[0,0,0,0,0,0,0,0,0,0,0,0,0,0,0,0,0,0,0,0,0,0,0,0,0,0,0],"sum_hessian":[6.54E2,3.13E2,3.41E2,2.41E2,7.2E1,1.14E2,2.27E2,2.4E2,1E0,4.5E1,2.7E1,7.9E1,3.5E1,2.25E2,2E0,3E0,2.37E2,3.9E1,6E0,2.3E1,4E0,7.3E1,6E0,1.8E1,1.7E1,2.01E2,2.4E1],"tree_param":{"num_deleted":"0","num_feature":"104","num_nodes":"27","size_leaf_vector":"1"}},{"base_weights":[5.1394813E-3,8.526866E-1,-8.2419765E-1,1.1605637E-1,1.1313062E0,-2.344565E-1,-1.2249494E0,4.1068578E-1,-0E0,1.1498041E0,-0E0,-5.2964336E-1,-0E0,-1.2502687E0,-0E0,1.4781737E-2,-0E0,-0E0,-2.1633753E-3,-0E0,3.5203654E-2,-1.6154425E-2,-0E0,-1.5936962E-3,2.1608262E-3,-4.0158067E-2,-1.7802818E-3],"categories":[],"categories_nodes":[],"categories_segments":[],"categories_sizes":[],"default_left":[0,0,0,0,0,0,0,0,0,0,0,0,0,0,0,0,0,0,0,0,0,0,0,0,0,0,0],"id":9,"left_children":[1,3,5,7,9,11,13,15,17,19,-1,21,23,25,-1,-1,-1,-1,-1,-1,-1,-1,-1,-1,-1,-1,-1],"loss_changes":[4.8241708E2,5.86541E1,6.4845E1,6.8303204E0,4.838806E0,1.0847043E1,7.343292E0,3.4629574E0,2.4961026E-1,4.7055664E0,0E0,3.8024902E-1,4.5403653E-1,7.5075073E0,0E0,0E0,0E0,0E0,0E0,0E0,0E0,0E0,0E0,0E0,0E0,0E0,0E0],"parents":[2147483647,0,0,1,1,2,2,3,3,4,4,5,5,6,6,7,7,8,8,9,9,11,11,12,12,13,13],"right_children":[2,4,6,8,10,12,14,16,18,20,-1,22,24,26,-1,-1,-1,-1,-1,-1,-1,-1,-1,-1,-1,-1,-1],"split_conditions":[2.3978953E0,8.4823E3,4.2904596E0,1.3862944E0,1E0,3.015929E3,1E0,1E0,3.1E1,1.8E1,-0E0,1E0,1.7592918E4,6.5E1,-0E0,1.4781737E-2,-0E0,-0E0,-2.1633753E-3,-0E0,3.5203654E-2,-1.6154425E-2,-0E0,-1.5936962E-3,2.1608262E-3,-4.0158067E-2,-1.7802818E-3],"split_indices":[0,4,0,0,84,4,60,52,1,1,0,70,4,1,0,0,0,0,0,0,0,0,0,0,0,0,0],"split_type":[0,0,0,0,0,0,0,0,0,0,0,0,0,0,0,0,0,0,0,0,0,0,0,0,0,0,0],"sum_hessian":[6.56E2,3.29E2,3.27E2,1.04E2,2.25E2,1.5E2,1.77E2,3.5E1,6.9E1,2.21E2,4E0,5.6E1,9.4E1,1.74E2,3E0,3.4E1,1E0,3.6E1,3.3E1,6E0,2.15E2,5.5E1,1E0,6.5E1,2.9E1,1.54E2,2E1],"tree_param":{"num_deleted":"0","num_feature":"104","num_nodes":"27","size_leaf_vector":"1"}},{"base_weights":[1.6164226E-2,9.3688655E-1,-8.101513E-1,1.2627275E0,3.0871716E-1,-1.5579273E-1,-1.1158935E0,1.290857E0,-0E0,-0E0,5.907495E-1,-3.0247203E-1,1.1099322E-1,-1.1852255E0,-0E0,-0E0,3.9096583E-2,-1.2095027E-3,-0E0,-0E0,1.8435135E-2,-1.0942398E-2,-0E0,5.2231094E-3,-0E0,-3.619306E-2,-0E0],"categories":[],"categories_nodes":[],"categories_segments":[],"categories_sizes":[],"default_left":[0,0,0,0,0,0,0,0,0,0,0,0,0,0,0,0,0,0,0,0,0,0,0,0,0,0,0],"id":10,"left_children":[1,3,5,7,9,11,13,15,-1,17,19,21,23,25,-1,-1,-1,-1,-1,-1,-1,-1,-1,-1,-1,-1,-1],"loss_changes":[5.3431287E2,5.0354645E1,6.024254E1,3.2766724E0,1.5685937E1,7.5921555E0,1.6899414E1,3.0491028E0,0E0,9.10247E-2,1.2721424E0,1.3192949E0,6.647523E-1,6.945648E0,0E0,0E0,0E0,0E0,0E0,0E0,0E0,0E0,0E0,0E0,0E0,0E0,0E0],"parents":[2147483647,0,0,1,1,2,2,3,3,4,4,5,5,6,6,7,7,9,9,10,10,11,11,12,12,13,13],"right_children":[2,4,6,8,10,12,14,16,-1,18,20,22,24,26,-1,-1,-1,-1,-1,-1,-1,-1,-1,-1,-1,-1,-1],"split_conditions":[2.3025851E0,1.3862944E0,3.8066626E0,3E2,8.4823E3,1.7592918E4,2.8274334E4,1E1,-0E0,5E1,1.8E1,1E0,4.5E2,1E0,-0E0,-0E0,3.9096583E-2,-1.2095027E-3,-0E0,-0E0,1.8435135E-2,-1.0942398E-2,-0E0,5.2231094E-3,-0E0,-3.619306E-2,-0E0],"split_indices":[0,0,0,2,4,4,4,1,0,2,1,101,2,60,0,0,0,0,0,0,0,0,0,0,0,0,0],"split_type":[0,0,0,0,0,0,0,0,0,0,0,0,0,0,0,0,0,0,0,0,0,0,0,0,0,0,0],"sum_hessian":[6.71E2,3.21E2,3.5E2,1.93E2,1.28E2,1.27E2,2.23E2,1.86E2,7E0,5.9E1,6.9E1,1E2,2.7E1,2.08E2,1.5E1,2E0,1.84E2,4.1E1,1.8E1,3E0,6.6E1,7.4E1,2.6E1,2.4E1,3E0,2.05E2,3E0],"tree_param":{"num_deleted":"0","num_feature":"104","num_nodes":"27","size_leaf_vector":"1"}},{"base_weights":[-0E0,8.3711517E-1,-7.8444266E-1,1.0241232E0,5.9825245E-2,-9.248372E-2,-1.1443677E0,4.1269386E-1,1.217034E0,8.732686E-2,-0E0,-2.6331416E-1,1.3626358E-1,-1.2086817E0,-2.3996115E-2,1.3676881E-2,-0E0,3.7055396E-2,-0E0,3.4541683E-3,-0E0,-9.1096815E-3,-0E0,5.396931E-3,-0E0,-3.6844127E-2,-0E0,-1.5228998E-3,-0E0],"categories":[],"categories_nodes":[],"categories_segments":[],"categories_sizes":[],"default_left":[0,0,0,0,0,0,0,0,0,0,0,0,0,0,0,0,0,0,0,0,0,0,0,0,0,0,0,0,0],"id":11,"left_children":[1,3,5,7,9,11,13,15,17,19,-1,21,23,25,27,-1,-1,-1,-1,-1,-1,-1,-1,-1,-1,-1,-1,-1,-1],"loss_changes":[4.4819638E2,3.8959427E1,7.518822E1,1.0095612E1,2.6103818E-1,7.142618E0,5.5557556E0,3.3570328E0,1.9069214E0,3.7492788E-1,0E0,1.8941307E0,6.7120314E-1,5.0045776E0,5.772981E-2,0E0,0E0,0E0,0E0,0E0,0E0,0E0,0E0,0E0,0E0,0E0,0E0,0E0,0E0],"parents":[2147483647,0,0,1,1,2,2,3,3,4,4,5,5,6,6,7,7,8,8,9,9,11,11,12,12,13,13,14,14],"right_children":[2,4,6,8,10,12,14,16,18,20,-1,22,24,26,28,-1,-1,-1,-1,-1,-1,-1,-1,-1,-1,-1,-1,-1,-1],"split_conditions":[2.3978953E0,1.7917595E0,3.8066626E0,3.1E1,1E0,6E1,6.5E1,1E0,1E0,1E0,-0E0,1E0,1E0,1E0,1E0,1.3676881E-2,-0E0,3.7055396E-2,-0E0,3.4541683E-3,-0E0,-9.1096815E-3,-0E0,5.396931E-3,-0E0,-3.6844127E-2,-0E0,-1.5228998E-3,-0E0],"split_indices":[0,0,0,1,84,1,1,52,17,20,0,64,56,17,45,0,0,0,0,0,0,0,0,0,0,0,0,0,0],"split_type":[0,0,0,0,0,0,0,0,0,0,0,0,0,0,0,0,0,0,0,0,0,0,0,0,0,0,0,0,0],"sum_hessian":[6.52E2,3.19E2,3.33E2,2.45E2,7.4E1,1.28E2,2.05E2,8E1,1.65E2,6.1E1,1.3E1,9.2E1,3.6E1,1.86E2,1.9E1,7.9E1,1E0,1.61E2,4E0,5.7E1,4E0,8.6E1,6E0,3.5E1,1E0,1.83E2,3E0,1.5E1,4E0],"tree_param":{"num_deleted":"0","num_feature":"104","num_nodes":"29","size_leaf_vector":"1"}},{"base_weights":[-0E0,6.135433E-1,-1.0825161E0,1.1746693E0,1.2596709E-1,-1.1473657E0,-0E0,1.1992763E0,-0E0,-1.3174464E-1,4.9322826E-1,-1.1619279E0,-0E0,3.646661E-2,-0E0,-7.419518E-3,-0E0,1.659996E-2,-0E0,-3.5198122E-2,-0E0],"categories":[],"categories_nodes":[],"categories_segments":[],"categories_sizes":[],"default_left":[0,0,0,0,0,0,0,0,0,0,0,0,0,0,0,0,0,0,0,0,0],"id":12,"left_children":[1,3,5,7,9,11,-1,13,-1,15,17,19,-1,-1,-1,-1,-1,-1,-1,-1,-1],"loss_changes":[4.659568E2,1.0885008E2,1.4495178E1,1.0069641E1,2.866422E1,5.3033752E0,0E0,3.2714539E0,0E0,3.5833485E0,4.125759E0,4.8746033E0,0E0,0E0,0E0,0E0,0E0,0E0,0E0,0E0,0E0],"parents":[2147483647,0,0,1,1,2,2,3,3,4,4,5,5,7,7,9,9,10,10,11,11],"right_children":[2,4,6,8,10,12,-1,14,-1,16,18,20,-1,-1,-1,-1,-1,-1,-1,-1,-1],"split_conditions":[3.4339871E0,1.3862944E0,1.7592918E4,1E0,1.0210176E4,1E0,-0E0,6E3,-0E0,5E1,4E2,1E0,-0E0,3.646661E-2,-0E0,-7.419518E-3,-0E0,1.659996E-2,-0E0,-3.5198122E-2,-0E0],"split_indices":[0,0,4,52,4,30,0,2,0,2,2,24,0,0,0,0,0,0,0,0,0],"split_type":[0,0,0,0,0,0,0,0,0,0,0,0,0,0,0,0,0,0,0,0,0],"sum_hessian":[6.69E2,4.29E2,2.4E2,1.82E2,2.47E2,2.23E2,1.7E1,1.81E2,1E0,1.38E2,1.09E2,2.21E2,2E0,1.78E2,3E0,8.7E1,5.1E1,9.7E1,1.2E1,2.2E2,1E0],"tree_param":{"num_deleted":"0","num_feature":"104","num_nodes":"21","size_leaf_vector":"1"}},{"base_weights":[5.7686478E-2,7.6526195E-1,-7.791873E-1,1.1660432E0,2.0150581E-1,-1.0973809E0,-1.1489753E-1,-0E0,1.1915377E0,-5.70461E-2,4.7298807E-1,-1.138331E0,-0E0,2.9571611E-2,-3.8880533E-1,3.606271E-2,-0E0,-3.4976462E-3,-0E0,-0E0,1.512225E-2,-3.4576055E-2,-0E0,3.8360022E-3,-0E0,-1.3495961E-2,-0E0],"categories":[],"categories_nodes":[],"categories_segments":[],"categories_sizes":[],"default_left":[0,0,0,0,0,0,0,0,0,0,0,0,0,0,0,0,0,0,0,0,0,0,0,0,0,0,0],"id":13,"left_children":[1,3,5,7,9,11,13,-1,15,17,19,21,-1,23,25,-1,-1,-1,-1,-1,-1,-1,-1,-1,-1,-1,-1],"loss_changes":[4.014292E2,6.958589E1,5.309053E1,2.4433594E0,1.6437065E1,5.0779266E0,7.9531655E0,0E0,2.1365356E0,8.048804E-1,1.9187965E0,4.7566376E0,0E0,1.0943828E0,1.8095322E0,0E0,0E0,0E0,0E0,0E0,0E0,0E0,0E0,0E0,0E0,0E0,0E0],"parents":[2147483647,0,0,1,1,2,2,3,3,4,4,5,5,6,6,8,8,9,9,10,10,11,11,13,13,14,14],"right_children":[2,4,6,8,10,12,14,-1,16,18,20,22,-1,24,26,-1,-1,-1,-1,-1,-1,-1,-1,-1,-1,-1,-1],"split_conditions":[2.7080503E0,1.3862944E0,7.8539814E3,1.4137167E3,7.1816807E3,6.5E1,4.394449E0,-0E0,6E3,6.5E1,1.8E1,1E0,-0E0,1E0,2.8274334E4,3.606271E-2,-0E0,-3.4976462E-3,-0E0,-0E0,1.512225E-2,-3.4576055E-2,-0E0,3.8360022E-3,-0E0,-1.3495961E-2,-0E0],"split_indices":[0,0,4,4,4,1,0,0,2,2,1,24,0,20,4,0,0,0,0,0,0,0,0,0,0,0,0],"split_type":[0,0,0,0,0,0,0,0,0,0,0,0,0,0,0,0,0,0,0,0,0,0,0,0,0,0,0],"sum_hessian":[6.48E2,3.57E2,2.91E2,1.91E2,1.66E2,1.82E2,1.09E2,7E0,1.84E2,7.6E1,9E1,1.72E2,1E1,6.1E1,4.8E1,1.82E2,2E0,6.6E1,1E1,5E0,8.5E1,1.71E2,1E0,5.6E1,5E0,4.1E1,7E0],"tree_param":{"num_deleted":"0","num_feature":"104","num_nodes":"27","size_leaf_vector":"1"}},{"base_weights":[2.9470632E-2,1.0168526E0,-5.661597E-1,1.1872879E0,2.8103274E-1,-1.3042997E-2,-9.6303356E-1,1.1954223E0,-0E0,-0E0,4.170769E-1,-1.7030421E-1,2.699548E-1,-1.0198507E0,-0E0,3.6187015E-2,-0E0,1.3098413E-2,-0E0,-7.568087E-3,-0E0,-0E0,1.0912983E-2,-3.160618E-2,-0E0],"categories":[],"categories_nodes":[],"categories_segments":[],"categories_sizes":[],"default_left":[0,0,0,0,0,0,0,0,0,0,0,0,0,0,0,0,0,0,0,0,0,0,0,0,0],"id":14,"left_children":[1,3,5,7,9,11,13,15,-1,-1,17,19,21,23,-1,-1,-1,-1,-1,-1,-1,-1,-1,-1,-1],"loss_changes":[3.9922052E2,1.56041565E1,8.310275E1,2.3697815E0,5.3994937E0,8.659813E0,1.3769089E1,2.1533203E0,0E0,0E0,9.1014576E-1,2.8520503E0,2.3895054E0,7.667145E0,0E0,0E0,0E0,0E0,0E0,0E0,0E0,0E0,0E0,0E0,0E0],"parents":[2147483647,0,0,1,1,2,2,3,3,4,4,5,5,6,6,7,7,10,10,11,11,12,12,13,13],"right_children":[2,4,6,8,10,12,14,16,-1,-1,18,20,22,24,-1,-1,-1,-1,-1,-1,-1,-1,-1,-1,-1],"split_conditions":[1.7917595E0,1.3862944E0,3.4339871E0,1E0,5.8904863E3,1.7592918E4,2.8274334E4,5.654867E5,-0E0,-0E0,1E0,1E0,3.1E1,1E0,-0E0,3.6187015E-2,-0E0,1.3098413E-2,-0E0,-7.568087E-3,-0E0,-0E0,1.0912983E-2,-3.160618E-2,-0E0],"split_indices":[0,0,0,14,4,4,4,4,0,0,94,101,1,64,0,0,0,0,0,0,0,0,0,0,0],"split_type":[0,0,0,0,0,0,0,0,0,0,0,0,0,0,0,0,0,0,0,0,0,0,0,0,0],"sum_hessian":[6.43E2,2.43E2,4E2,1.81E2,6.2E1,1.82E2,2.18E2,1.8E2,1E0,1.1E1,5.1E1,1.39E2,4.3E1,2.06E2,1.2E1,1.78E2,2E0,5E1,1E0,1E2,3.9E1,8E0,3.5E1,1.99E2,7E0],"tree_param":{"num_deleted":"0","num_feature":"104","num_nodes":"25","size_leaf_vector":"1"}},{"base_weights":[1.3398911E-3,7.4734104E-1,-7.230675E-1,1.0364177E0,2.4249656E-1,-6.658263E-2,-9.876469E-1,1.0489771E0,-0E0,-0E0,4.7313082E-1,-2.0608942E-1,6.599384E-2,-1.2123522E0,-2.4181724E-1,3.1885393E-2,-0E0,-6.8951066E-4,-0E0,-0E0,1.6035005E-2,-8.527461E-3,-0E0,4.186529E-3,-0E0,-3.6642782E-2,-0E0,-8.876921E-3,-0E0],"categories":[],"categories_nodes":[],"categories_segments":[],"categories_sizes":[],"default_left":[0,0,0,0,0,0,0,0,0,0,0,0,0,0,0,0,0,0,0,0,0,0,0,0,0,0,0,0,0],"id":15,"left_children":[1,3,5,7,9,11,13,15,-1,17,19,21,23,25,27,-1,-1,-1,-1,-1,-1,-1,-1,-1,-1,-1,-1,-1,-1],"loss_changes":[3.62808E2,3.503418E1,4.8766693E1,3.0114136E0,1.1208453E1,3.5627074E0,2.2347672E1,2.3810577E0,0E0,3.4864493E-2,3.279869E0,1.9099059E0,5.2892745E-1,6.380005E-1,1.9761534E0,0E0,0E0,0E0,0E0,0E0,0E0,0E0,0E0,0E0,0E0,0E0,0E0,0E0,0E0],"parents":[2147483647,0,0,1,1,2,2,3,3,4,4,5,5,6,6,7,7,9,9,10,10,11,11,12,12,13,13,14,14],"right_children":[2,4,6,8,10,12,14,16,-1,18,20,22,24,26,28,-1,-1,-1,-1,-1,-1,-1,-1,-1,-1,-1,-1,-1,-1],"split_conditions":[2.3978953E0,1.3862944E0,3.713572E0,1E0,5.5E1,1.7592918E4,7.8539814E3,6E3,-0E0,8.63938E3,1.8E1,1E0,1E0,1E0,4.5E2,3.1885393E-2,-0E0,-6.8951066E-4,-0E0,-0E0,1.6035005E-2,-8.527461E-3,-0E0,4.186529E-3,-0E0,-3.6642782E-2,-0E0,-8.876921E-3,-0E0],"split_indices":[0,0,0,14,2,4,4,2,0,4,1,101,6,99,2,0,0,0,0,0,0,0,0,0,0,0,0,0,0],"split_type":[0,0,0,0,0,0,0,0,0,0,0,0,0,0,0,0,0,0,0,0,0,0,0,0,0,0,0,0,0],"sum_hessian":[6.41E2,3.21E2,3.2E2,1.84E2,1.37E2,1.06E2,2.14E2,1.82E2,2E0,6.2E1,7.5E1,7.7E1,2.9E1,1.49E2,6.5E1,1.79E2,3E0,5.1E1,1.1E1,8E0,6.7E1,5.7E1,2E1,2.2E1,7E0,1.47E2,2E0,6.1E1,4E0],"tree_param":{"num_deleted":"0","num_feature":"104","num_nodes":"29","size_leaf_vector":"1"}},{"base_weights":[7.938969E-3,5.731793E-1,-9.5239586E-1,9.29309E-1,7.190144E-3,-1.0127956E0,-0E0,3.0178174E-1,1.1522406E0,-1.430833E-1,3.272514E-1,-1.0313616E0,-0E0,1.287236E-2,-0E0,-0E0,3.6127836E-2,-7.052423E-3,-0E0,1.0586821E-2,-0E0,-3.1747635E-2,-0E0],"categories":[],"categories_nodes":[],"categories_segments":[],"categories_sizes":[],"default_left":[0,0,0,0,0,0,0,0,0,0,0,0,0,0,0,0,0,0,0,0,0,0,0],"id":16,"left_children":[1,3,5,7,9,11,-1,13,15,17,19,21,-1,-1,-1,-1,-1,-1,-1,-1,-1,-1,-1],"loss_changes":[3.547307E2,7.706531E1,1.2982269E1,1.7985947E1,1.11216955E1,6.37381E0,0E0,4.972168E0,9.115158E0,1.9642973E0,7.9002666E-1,5.7560883E0,0E0,0E0,0E0,0E0,0E0,0E0,0E0,0E0,0E0,0E0,0E0],"parents":[2147483647,0,0,1,1,2,2,3,3,4,4,5,5,7,7,8,8,9,9,10,10,11,11],"right_children":[2,4,6,8,10,12,-1,14,16,18,20,22,-1,-1,-1,-1,-1,-1,-1,-1,-1,-1,-1],"split_conditions":[3.4339871E0,1.7917595E0,2.8274334E4,3.1E1,1.1309733E4,1E0,-0E0,3E1,7.0685835E3,5.183628E3,5E2,1E0,-0E0,1.287236E-2,-0E0,-0E0,3.6127836E-2,-7.052423E-3,-0E0,1.0586821E-2,-0E0,-3.1747635E-2,-0E0],"split_indices":[0,0,4,1,4,30,0,1,4,4,2,64,0,0,0,0,0,0,0,0,0,0,0],"split_type":[0,0,0,0,0,0,0,0,0,0,0,0,0,0,0,0,0,0,0,0,0,0,0],"sum_hessian":[6.29E2,4.05E2,2.24E2,2.34E2,1.71E2,2.09E2,1.5E1,8E1,1.54E2,1.05E2,6.6E1,2.07E2,2E0,5.9E1,2.1E1,8E0,1.46E2,6.5E1,4E1,6.1E1,5E0,2.01E2,6E0],"tree_param":{"num_deleted":"0","num_feature":"104","num_nodes":"23","size_leaf_vector":"1"}},{"base_weights":[-0E0,-6.444333E-1,5.391484E-1,-7.093902E-1,-0E0,1.6633463E-1,9.645148E-1,-7.385494E-1,-0E0,3.5033032E-1,-3.1166986E-1,9.882876E-1,-0E0,-2.2616792E-2,-0E0,-0E0,1.5747491E-2,-0E0,-1.279354E-2,2.9975485E-2,-0E0],"categories":[],"categories_nodes":[],"categories_segments":[],"categories_sizes":[],"default_left":[0,0,0,0,0,0,0,0,0,0,0,0,0,0,0,0,0,0,0,0,0],"id":17,"left_children":[1,3,5,7,-1,9,11,13,-1,15,17,19,-1,-1,-1,-1,-1,-1,-1,-1,-1],"loss_changes":[2.2840286E2,1.2618851E1,4.5636406E1,9.259979E0,0E0,2.1296265E1,2.3121185E0,3.8407898E0,0E0,7.9118443E0,2.2831411E0,2.2497253E0,0E0,0E0,0E0,0E0,0E0,0E0,0E0,0E0,0E0],"parents":[2147483647,0,0,1,1,2,2,3,3,5,5,6,6,7,7,9,9,10,10,11,11],"right_children":[2,4,6,8,-1,10,12,14,-1,16,18,20,-1,-1,-1,-1,-1,-1,-1,-1,-1],"split_conditions":[7.8539814E3,8E1,8.1E1,1E0,-0E0,1E0,1E0,1E0,-0E0,1E0,1.272345E4,1E0,-0E0,-2.2616792E-2,-0E0,-0E0,1.5747491E-2,-0E0,-1.279354E-2,2.9975485E-2,-0E0],"split_indices":[4,2,1,33,0,20,8,70,0,6,4,10,0,0,0,0,0,0,0,0,0],"split_type":[0,0,0,0,0,0,0,0,0,0,0,0,0,0,0,0,0,0,0,0,0],"sum_hessian":[6.28E2,2.83E2,3.45E2,2.56E2,2.7E1,2.05E2,1.4E2,2.52E2,4E0,1.63E2,4.2E1,1.35E2,5E0,2.48E2,4E0,7E1,9.3E1,1.4E1,2.8E1,1.34E2,1E0],"tree_param":{"num_deleted":"0","num_feature":"104","num_nodes":"21","size_leaf_vector":"1"}},{"base_weights":[4.348427E-3,-3.261777E-1,8.160922E-1,-7.979574E-1,-0E0,-0E0,9.38004E-1,-8.1884646E-1,-0E0,-1.8660268E-1,1.4931649E-1,1.188032E-1,1.067081E0,-2.5049042E-2,-0E0,-7.4259145E-3,-0E0,1.12697035E-2,-6.970821E-3,4.4868933E-3,-0E0,3.2692295E-2,-0E0],"categories":[],"categories_nodes":[],"categories_segments":[],"categories_sizes":[],"default_left":[0,0,0,0,0,0,0,0,0,0,0,0,0,0,0,0,0,0,0,0,0,0,0],"id":18,"left_children":[1,3,5,7,9,-1,11,13,-1,15,17,19,21,-1,-1,-1,-1,-1,-1,-1,-1,-1,-1],"loss_changes":[1.8660164E2,7.468807E1,1.7228851E1,5.312378E0,8.577423E0,0E0,7.0101013E0,3.8047638E0,0E0,2.415069E0,1.7746529E1,3.59753E-1,2.0927887E0,0E0,0E0,0E0,0E0,0E0,0E0,0E0,0E0,0E0,0E0],"parents":[2147483647,0,0,1,1,2,2,3,3,4,4,6,6,7,7,9,9,10,10,11,11,12,12],"right_children":[2,4,6,8,10,-1,12,14,-1,16,18,20,22,-1,-1,-1,-1,-1,-1,-1,-1,-1,-1],"split_conditions":[6.5E1,4.5E1,3.5E1,1E0,1E0,-0E0,8.1E1,1E0,-0E0,5E1,1E0,1E0,1E0,-2.5049042E-2,-0E0,-7.4259145E-3,-0E0,1.12697035E-2,-6.970821E-3,4.4868933E-3,-0E0,3.2692295E-2,-0E0],"split_indices":[1,2,2,33,6,0,1,41,0,1,20,8,64,0,0,0,0,0,0,0,0,0,0],"split_type":[0,0,0,0,0,0,0,0,0,0,0,0,0,0,0,0,0,0,0,0,0,0,0],"sum_hessian":[6.51E2,4.62E2,1.89E2,1.82E2,2.8E2,3E1,1.59E2,1.8E2,2E0,1.18E2,1.62E2,3.4E1,1.25E2,1.78E2,2E0,1E2,1.8E1,1.15E2,4.7E1,3.2E1,2E0,1.21E2,4E0],"tree_param":{"num_deleted":"0","num_feature":"104","num_nodes":"23","size_leaf_vector":"1"}},{"base_weights":[-1.4162209E-2,7.0412207E-1,-6.857215E-1,9.86096E-1,1.8051407E-1,-2.5966752E-1,-1.0031792E0,1.0102422E0,-0E0,-0E0,3.6782736E-1,-3.780061E-1,8.514959E-3,-1.1156117E0,-1.3962305E-1,3.0795025E-2,-0E0,1.2576906E-2,-0E0,-1.2335006E-2,-0E0,2.2927024E-3,-0E0,-3.380133E-2,-0E0,-5.185464E-3,-0E0],"categories":[],"categories_nodes":[],"categories_segments":[],"categories_sizes":[],"default_left":[0,0,0,0,0,0,0,0,0,0,0,0,0,0,0,0,0,0,0,0,0,0,0,0,0,0,0],"id":19,"left_children":[1,3,5,7,9,11,13,15,-1,-1,17,19,21,23,25,-1,-1,-1,-1,-1,-1,-1,-1,-1,-1,-1,-1],"loss_changes":[3.2690692E2,3.5538345E1,3.414029E1,8.427383E0,5.823334E0,8.811959E0,5.874893E0,2.2425537E0,0E0,0E0,1.5334044E0,2.8587513E0,2.6503953E-1,2.6131287E0,3.385759E-1,0E0,0E0,0E0,0E0,0E0,0E0,0E0,0E0,0E0,0E0,0E0,0E0],"parents":[2147483647,0,0,1,1,2,2,3,3,4,4,5,5,6,6,7,7,10,10,11,11,12,12,13,13,14,14],"right_children":[2,4,6,8,10,12,14,16,-1,-1,18,20,22,24,26,-1,-1,-1,-1,-1,-1,-1,-1,-1,-1,-1,-1],"split_conditions":[2.1972246E0,1.3862944E0,4.394449E0,1E0,6.5E1,1.7592918E4,6E1,1E0,-0E0,-0E0,1E0,1E0,9.8E2,1E0,1.12E2,3.0795025E-2,-0E0,1.2576906E-2,-0E0,-1.2335006E-2,-0E0,2.2927024E-3,-0E0,-3.380133E-2,-0E0,-5.185464E-3,-0E0],"split_indices":[0,0,0,52,2,4,1,17,0,0,20,64,2,61,2,0,0,0,0,0,0,0,0,0,0,0,0],"split_type":[0,0,0,0,0,0,0,0,0,0,0,0,0,0,0,0,0,0,0,0,0,0,0,0,0,0,0],"sum_hessian":[6.48E2,3.07E2,3.41E2,1.81E2,1.26E2,1.68E2,1.73E2,1.8E2,1E0,6.4E1,6.2E1,1.33E2,3.5E1,1.41E2,3.2E1,1.76E2,4E0,5.3E1,9E0,1.27E2,6E0,3.1E1,4E0,1.4E2,1E0,2.7E1,5E0],"tree_param":{"num_deleted":"0","num_feature":"104","num_nodes":"27","size_leaf_vector":"1"}},{"base_weights":[-1.2736996E-2,6.934378E-1,-6.633736E-1,9.6109205E-1,2.3124452E-1,-1.9833875E-1,-9.911989E-1,9.85613E-1,-0E0,-0E0,3.9775032E-1,-4.020327E-1,-0E0,-1.0672408E0,-0E0,2.9974815E-2,-0E0,-0E0,1.3081435E-2,-1.3887904E-2,-0E0,1.1282439E-3,-3.1063452E-3,-3.5806973E-2,-2.469744E-3,-2.8662619E-3,-0E0],"categories":[],"categories_nodes":[],"categories_segments":[],"categories_sizes":[],"default_left":[0,0,0,0,0,0,0,0,0,0,0,0,0,0,0,0,0,0,0,0,0,0,0,0,0,0,0],"id":20,"left_children":[1,3,5,7,9,11,13,15,-1,-1,17,19,21,23,25,-1,-1,-1,-1,-1,-1,-1,-1,-1,-1,-1,-1],"loss_changes":[3.1955405E2,2.7703812E1,4.3636475E1,8.193695E0,7.5877485E0,7.749761E0,8.838562E0,3.139145E0,0E0,0E0,2.020481E0,2.2743587E0,3.916821E-1,1.0963272E1,2.5559205E-1,0E0,0E0,0E0,0E0,0E0,0E0,0E0,0E0,0E0,0E0,0E0,0E0],"parents":[2147483647,0,0,1,1,2,2,3,3,4,4,5,5,6,6,7,7,10,10,11,11,12,12,13,13,14,14],"right_children":[2,4,6,8,10,12,14,16,-1,-1,18,20,22,24,26,-1,-1,-1,-1,-1,-1,-1,-1,-1,-1,-1,-1],"split_conditions":[2.3978953E0,1.3862944E0,4.2904596E0,1E0,5E1,5E1,1E0,1E0,-0E0,-0E0,2.5446901E2,3.848451E3,1E0,2.8274333E3,1E0,2.9974815E-2,-0E0,-0E0,1.3081435E-2,-1.3887904E-2,-0E0,1.1282439E-3,-3.1063452E-3,-3.5806973E-2,-2.469744E-3,-2.8662619E-3,-0E0],"split_indices":[0,0,0,52,2,2,102,14,0,0,3,3,20,3,6,0,0,0,0,0,0,0,0,0,0,0,0],"split_type":[0,0,0,0,0,0,0,0,0,0,0,0,0,0,0,0,0,0,0,0,0,0,0,0,0,0,0],"sum_hessian":[6.66E2,3.13E2,3.53E2,1.77E2,1.36E2,1.66E2,1.87E2,1.76E2,1E0,5.2E1,8.4E1,7.7E1,8.9E1,1.67E2,2E1,1.74E2,2E0,6E0,7.8E1,6.5E1,1.2E1,8E1,9E0,1.38E2,2.9E1,1.3E1,7E0],"tree_param":{"num_deleted":"0","num_feature":"104","num_nodes":"27","size_leaf_vector":"1"}},{"base_weights":[-0E0,4.7255716E-1,-8.116823E-1,8.8915277E-1,1.1242566E-1,-8.6373764E-1,-0E0,9.0161365E-1,-0E0,-6.099991E-2,4.1881895E-1,-8.9797467E-1,-0E0,2.7400281E-2,-0E0,-3.5809232E-3,-0E0,1.3279578E-2,-0E0,-2.726644E-2,-0E0],"categories":[],"categories_nodes":[],"categories_segments":[],"categories_sizes":[],"default_left":[0,0,0,0,0,0,0,0,0,0,0,0,0,0,0,0,0,0,0,0,0],"id":21,"left_children":[1,3,5,7,9,11,-1,13,-1,15,17,19,-1,-1,-1,-1,-1,-1,-1,-1,-1],"loss_changes":[2.6318686E2,5.6650795E1,1.1359039E1,2.6585846E0,1.727379E1,6.97731E0,0E0,1.542099E0,0E0,1.3379841E0,1.9487667E0,3.6474E0,0E0,0E0,0E0,0E0,0E0,0E0,0E0,0E0,0E0],"parents":[2147483647,0,0,1,1,2,2,3,3,4,4,5,5,7,7,9,9,10,10,11,11],"right_children":[2,4,6,8,10,12,-1,14,-1,16,18,20,-1,-1,-1,-1,-1,-1,-1,-1,-1],"split_conditions":[3.3672957E0,1.3862944E0,2.8274334E4,1E0,1E2,1E0,-0E0,1E0,-0E0,5.8088047E3,6E3,1E0,-0E0,2.7400281E-2,-0E0,-3.5809232E-3,-0E0,1.3279578E-2,-0E0,-2.726644E-2,-0E0],"split_indices":[0,0,4,14,2,64,0,17,0,3,2,24,0,0,0,0,0,0,0,0,0],"split_type":[0,0,0,0,0,0,0,0,0,0,0,0,0,0,0,0,0,0,0,0,0],"sum_hessian":[6.61E2,4.26E2,2.35E2,1.77E2,2.49E2,2.21E2,1.4E1,1.75E2,2E0,1.5E2,9.9E1,2.12E2,9E0,1.72E2,3E0,1.22E2,2.8E1,9.7E1,2E0,2.11E2,1E0],"tree_param":{"num_deleted":"0","num_feature":"104","num_nodes":"21","size_leaf_vector":"1"}},{"base_weights":[-1.7677724E-2,6.560816E-1,-6.3285285E-1,8.089323E-1,-0E0,-2.0322855E-1,-9.42645E-1,8.276925E-1,-0E0,-0E0,4.9037457E-2,-3.030328E-1,-0E0,-1.0430609E0,-1.3615625E-1,-0E0,2.5267502E-2,3.2861764E-3,-0E0,-1.0939791E-2,-0E0,-0E0,8.482118E-4,-3.1688996E-2,-0E0,-5.6478577E-3,-0E0],"categories":[],"categories_nodes":[],"categories_segments":[],"categories_sizes":[],"default_left":[0,0,0,0,0,0,0,0,0,0,0,0,0,0,0,0,0,0,0,0,0,0,0,0,0,0,0],"id":22,"left_children":[1,3,5,7,9,11,13,15,-1,-1,17,19,21,23,25,-1,-1,-1,-1,-1,-1,-1,-1,-1,-1,-1,-1],"loss_changes":[2.733818E2,2.6659729E1,3.4675507E1,6.8065643E0,9.618689E-2,5.1783013E0,3.7420044E0,2.360489E0,0E0,0E0,3.1177372E-1,2.9365683E0,2.4781516E-2,3.2478027E0,6.172768E-1,0E0,0E0,0E0,0E0,0E0,0E0,0E0,0E0,0E0,0E0,0E0,0E0],"parents":[2147483647,0,0,1,1,2,2,3,3,4,4,5,5,6,6,7,7,10,10,11,11,12,12,13,13,14,14],"right_children":[2,4,6,8,10,12,14,16,-1,-1,18,20,22,24,26,-1,-1,-1,-1,-1,-1,-1,-1,-1,-1,-1,-1],"split_conditions":[2.1972246E0,1.7917595E0,4.2904596E0,1E0,5.5E1,2.8274333E3,2.8274333E3,1.6E1,-0E0,-0E0,1E0,1E0,1E2,1E0,1.12E2,-0E0,2.5267502E-2,3.2861764E-3,-0E0,-1.0939791E-2,-0E0,-0E0,8.482118E-4,-3.1688996E-2,-0E0,-5.6478577E-3,-0E0],"split_indices":[0,0,0,52,2,3,3,2,0,0,20,102,2,17,2,0,0,0,0,0,0,0,0,0,0,0,0],"split_type":[0,0,0,0,0,0,0,0,0,0,0,0,0,0,0,0,0,0,0,0,0,0,0,0,0,0,0],"sum_hessian":[6.3E2,2.94E2,3.36E2,2.29E2,6.5E1,1.62E2,1.74E2,2.28E2,1E0,4E1,2.5E1,1.21E2,4.1E1,1.42E2,3.2E1,5E0,2.23E2,1.9E1,6E0,1.01E2,2E1,2.5E1,1.6E1,1.41E2,1E0,2.7E1,5E0],"tree_param":{"num_deleted":"0","num_feature":"104","num_nodes":"27","size_leaf_vector":"1"}},{"base_weights":[-0E0,4.8925048E-1,-8.295983E-1,8.0852765E-1,-0E0,-8.720239E-1,-0E0,8.7403E-2,9.132867E-1,-8.28485E-2,2.1738704E-1,-8.9002186E-1,-0E0,6.032318E-3,-0E0,2.8476847E-2,-0E0,-3.2404235E-3,-0E0,-0E0,9.3861995E-3,-2.7070314E-2,-0E0],"categories":[],"categories_nodes":[],"categories_segments":[],"categories_sizes":[],"default_left":[0,0,0,0,0,0,0,0,0,0,0,0,0,0,0,0,0,0,0,0,0,0,0],"id":23,"left_children":[1,3,5,7,9,11,-1,13,15,17,19,21,-1,-1,-1,-1,-1,-1,-1,-1,-1,-1,-1],"loss_changes":[2.828554E2,6.405602E1,6.531006E0,1.0287552E1,4.464043E0,5.329895E0,0E0,1.3687251E0,3.5131226E0,5.852905E-1,1.9375396E0,3.672058E0,0E0,0E0,0E0,0E0,0E0,0E0,0E0,0E0,0E0,0E0,0E0],"parents":[2147483647,0,0,1,1,2,2,3,3,4,4,5,5,7,7,8,8,9,9,10,10,11,11],"right_children":[2,4,6,8,10,12,-1,14,16,18,20,22,-1,-1,-1,-1,-1,-1,-1,-1,-1,-1,-1],"split_conditions":[3.4339871E0,1.7917595E0,2.8274334E4,7.0685835E3,6E1,1E0,-0E0,2.6E1,3.8E2,3.1780539E0,1.1545353E4,1E0,-0E0,6.032318E-3,-0E0,2.8476847E-2,-0E0,-3.2404235E-3,-0E0,-0E0,9.3861995E-3,-2.7070314E-2,-0E0],"split_indices":[0,0,4,4,1,60,0,1,2,0,4,30,0,0,0,0,0,0,0,0,0,0,0],"split_type":[0,0,0,0,0,0,0,0,0,0,0,0,0,0,0,0,0,0,0,0,0,0,0],"sum_hessian":[6.66E2,4.22E2,2.44E2,2.43E2,1.79E2,2.28E2,1.6E1,4.4E1,1.99E2,1.19E2,6E1,2.25E2,3E0,3E1,1.4E1,1.87E2,1.2E1,1.14E2,5E0,1.9E1,4.1E1,2.23E2,2E0],"tree_param":{"num_deleted":"0","num_feature":"104","num_nodes":"23","size_leaf_vector":"1"}},{"base_weights":[-1.7446129E-2,4.3372536E-1,-8.3208513E-1,7.214401E-1,-0E0,-8.7684214E-1,-0E0,-0E0,8.0401534E-1,-1.374651E-1,1.4459641E-1,-9.01154E-1,-0E0,2.3835255E-3,-0E0,5.062337E-3,2.7888222E-2,-4.8313458E-3,-0E0,6.721486E-3,-0E0,-2.7437558E-2,-0E0],"categories":[],"categories_nodes":[],"categories_segments":[],"categories_sizes":[],"default_left":[0,0,0,0,0,0,0,0,0,0,0,0,0,0,0,0,0,0,0,0,0,0,0],"id":24,"left_children":[1,3,5,7,9,11,-1,13,15,17,19,21,-1,-1,-1,-1,-1,-1,-1,-1,-1,-1,-1],"loss_changes":[2.452973E2,4.9403854E1,9.207016E0,9.6548E0,4.0424085E0,4.2142944E0,0E0,2.524975E-1,5.8544006E0,5.5568504E-1,2.7785063E0,3.7411346E0,0E0,0E0,0E0,0E0,0E0,0E0,0E0,0E0,0E0,0E0,0E0],"parents":[2147483647,0,0,1,1,2,2,3,3,4,4,5,5,7,7,8,8,9,9,10,10,11,11],"right_children":[2,4,6,8,10,12,-1,14,16,18,20,22,-1,-1,-1,-1,-1,-1,-1,-1,-1,-1,-1],"split_conditions":[3.4339871E0,1.7917595E0,2.8274334E4,5.8904863E3,5E1,1E0,-0E0,3.1E1,3.1E1,1E0,1E0,1E0,-0E0,2.3835255E-3,-0E0,5.062337E-3,2.7888222E-2,-4.8313458E-3,-0E0,6.721486E-3,-0E0,-2.7437558E-2,-0E0],"split_indices":[0,0,4,4,2,64,0,1,1,102,20,30,0,0,0,0,0,0,0,0,0,0,0],"split_type":[0,0,0,0,0,0,0,0,0,0,0,0,0,0,0,0,0,0,0,0,0,0,0],"sum_hessian":[6.29E2,4.03E2,2.26E2,2.31E2,1.72E2,2.14E2,1.2E1,3.3E1,1.98E2,7.5E1,9.7E1,2.07E2,7E0,2.5E1,8E0,4.9E1,1.49E2,7.2E1,3E0,8.7E1,1E1,2.05E2,2E0],"tree_param":{"num_deleted":"0","num_feature":"104","num_nodes":"23","size_leaf_vector":"1"}},{"base_weights":[-0E0,5.273402E-1,-6.09719E-1,7.138995E-1,5.7415166E-3,-1.5059607E-1,-8.396462E-1,2.2356808E-1,8.4956264E-1,-6.899908E-3,1.6027799E-1,-2.5102544E-1,7.956445E-3,-8.839026E-1,-0E0,9.826554E-3,-0E0,-0E0,2.6947891E-2,-8.712421E-4,-0E0,5.323686E-3,-0E0,-9.59943E-3,-0E0,1.0378562E-3,-0E0,-2.7252106E-2,-0E0],"categories":[],"categories_nodes":[],"categories_segments":[],"categories_sizes":[],"default_left":[0,0,0,0,0,0,0,0,0,0,0,0,0,0,0,0,0,0,0,0,0,0,0,0,0,0,0,0,0],"id":25,"left_children":[1,3,5,7,9,11,13,15,17,19,21,23,25,27,-1,-1,-1,-1,-1,-1,-1,-1,-1,-1,-1,-1,-1,-1,-1],"loss_changes":[2.2222067E2,3.0964226E1,2.343428E1,6.3267365E0,1.489762E0,4.124161E0,6.2801056E0,2.8545985E0,8.189117E0,6.352072E-2,2.1053421E-1,2.7480488E0,3.7216358E-2,3.1288605E0,0E0,0E0,0E0,0E0,0E0,0E0,0E0,0E0,0E0,0E0,0E0,0E0,0E0,0E0,0E0],"parents":[2147483647,0,0,1,1,2,2,3,3,4,4,5,5,6,6,7,7,8,8,9,9,10,10,11,11,12,12,13,13],"right_children":[2,4,6,8,10,12,14,16,18,20,22,24,26,28,-1,-1,-1,-1,-1,-1,-1,-1,-1,-1,-1,-1,-1,-1,-1],"split_conditions":[2.7080503E0,1.7917595E0,4.2904596E0,3.1E1,8.63938E3,9.5E1,2.8274334E4,3E1,7.0685835E3,1E0,1E0,1E0,1E0,1E0,-0E0,9.826554E-3,-0E0,-0E0,2.6947891E-2,-8.712421E-4,-0E0,5.323686E-3,-0E0,-9.59943E-3,-0E0,1.0378562E-3,-0E0,-2.7252106E-2,-0E0],"split_indices":[0,0,0,1,4,1,4,1,4,63,84,102,100,64,0,0,0,0,0,0,0,0,0,0,0,0,0,0,0],"split_type":[0,0,0,0,0,0,0,0,0,0,0,0,0,0,0,0,0,0,0,0,0,0,0,0,0,0,0,0,0],"sum_hessian":[6.63E2,3.63E2,3E2,2.52E2,1.11E2,1.2E2,1.8E2,7.6E1,1.76E2,6.8E1,4.3E1,9.9E1,2.1E1,1.69E2,1.1E1,5.4E1,2.2E1,1E1,1.66E2,6.5E1,3E0,3.9E1,4E0,8.2E1,1.7E1,1.8E1,3E0,1.63E2,6E0],"tree_param":{"num_deleted":"0","num_feature":"104","num_nodes":"29","size_leaf_vector":"1"}},{"base_weights":[1.3929853E-2,4.575846E-1,-7.102411E-1,8.4323686E-1,8.222402E-2,-8.7503284E-1,-1.4375469E-1,8.560209E-1,-0E0,-3.1053592E-2,3.2070115E-1,-0E0,-8.9392245E-1,-0E0,-2.3835915E-1,2.6206067E-2,-0E0,-3.997931E-3,7.6415046E-4,1.2413924E-2,-0E0,-2.7026678E-2,-0E0,-8.2492065E-3,-0E0],"categories":[],"categories_nodes":[],"categories_segments":[],"categories_sizes":[],"default_left":[0,0,0,0,0,0,0,0,0,0,0,0,0,0,0,0,0,0,0,0,0,0,0,0,0],"id":26,"left_children":[1,3,5,7,9,11,13,15,-1,17,19,-1,21,-1,23,-1,-1,-1,-1,-1,-1,-1,-1,-1,-1],"loss_changes":[2.1425714E2,5.293396E1,1.3207573E1,2.8139954E0,9.003982E0,3.583969E0,2.2773113E0,1.3286438E0,0E0,1.8087696E0,5.604842E0,0E0,1.3891296E0,0E0,1.1832495E0,0E0,0E0,0E0,0E0,0E0,0E0,0E0,0E0,0E0,0E0],"parents":[2147483647,0,0,1,1,2,2,3,3,4,4,5,5,6,6,7,7,9,9,10,10,12,12,14,14],"right_children":[2,4,6,8,10,12,14,16,-1,18,20,-1,22,-1,24,-1,-1,-1,-1,-1,-1,-1,-1,-1,-1],"split_conditions":[3.4339871E0,1.3862944E0,7.8539814E3,1E0,1E2,2.8274334E1,4.1108737E0,4.5E2,-0E0,1E0,1E0,-0E0,1E0,-0E0,1E0,2.6206067E-2,-0E0,-3.997931E-3,7.6415046E-4,1.2413924E-2,-0E0,-2.7026678E-2,-0E0,-8.2492065E-3,-0E0],"split_indices":[0,0,4,14,2,3,0,2,0,101,20,0,71,0,17,0,0,0,0,0,0,0,0,0,0],"split_type":[0,0,0,0,0,0,0,0,0,0,0,0,0,0,0,0,0,0,0,0,0,0,0,0,0],"sum_hessian":[6.43E2,4.09E2,2.34E2,1.82E2,2.27E2,1.64E2,7E1,1.8E2,2E0,1.4E2,8.7E1,3E0,1.61E2,1.4E1,5.6E1,1.74E2,6E0,9.3E1,4.7E1,7.9E1,8E0,1.6E2,1E0,5.4E1,2E0],"tree_param":{"num_deleted":"0","num_feature":"104","num_nodes":"25","size_leaf_vector":"1"}},{"base_weights":[-6.449517E-3,5.588837E-1,-5.606032E-1,7.7075446E-1,1.7256808E-1,-1.7006066E-1,-8.2027227E-1,1.7515236E-1,8.904985E-1,-0E0,3.05241E-1,-2.5220343E-1,-0E0,-8.673285E-1,-0E0,7.5576655E-3,-0E0,2.6974536E-2,-0E0,-0E0,1.0455261E-2,-9.693936E-3,-0E0,-0E0,7.0959236E-4,-2.8085088E-2,-0E0],"categories":[],"categories_nodes":[],"categories_segments":[],"categories_sizes":[],"default_left":[0,0,0,0,0,0,0,0,0,0,0,0,0,0,0,0,0,0,0,0,0,0,0,0,0,0,0],"id":27,"left_children":[1,3,5,7,9,11,13,15,17,-1,19,21,23,25,-1,-1,-1,-1,-1,-1,-1,-1,-1,-1,-1,-1,-1],"loss_changes":[2.1586516E2,1.7795868E1,2.5986092E1,3.2565308E0,4.727293E0,3.647224E0,4.360306E0,9.231795E-1,1.5143051E0,0E0,1.8286734E0,3.1482658E0,1.6224578E-2,4.191498E0,0E0,0E0,0E0,0E0,0E0,0E0,0E0,0E0,0E0,0E0,0E0,0E0,0E0],"parents":[2147483647,0,0,1,1,2,2,3,3,4,4,5,5,6,6,7,7,8,8,10,10,11,11,12,12,13,13],"right_children":[2,4,6,8,10,12,14,16,18,-1,20,22,24,26,-1,-1,-1,-1,-1,-1,-1,-1,-1,-1,-1,-1,-1],"split_conditions":[2.3978953E0,1.3862944E0,4.394449E0,3.1E1,5E1,6E1,1E0,3E1,1E0,-0E0,1.8E1,1E0,1E2,6.5E1,-0E0,7.5576655E-3,-0E0,2.6974536E-2,-0E0,-0E0,1.0455261E-2,-9.693936E-3,-0E0,-0E0,7.0959236E-4,-2.8085088E-2,-0E0],"split_indices":[0,0,0,1,2,1,102,1,26,0,1,102,2,1,0,0,0,0,0,0,0,0,0,0,0,0,0],"split_type":[0,0,0,0,0,0,0,0,0,0,0,0,0,0,0,0,0,0,0,0,0,0,0,0,0,0,0],"sum_hessian":[6.59E2,3.19E2,3.4E2,1.83E2,1.36E2,1.58E2,1.82E2,4.8E1,1.35E2,5.2E1,8.4E1,1.21E2,3.7E1,1.67E2,1.5E1,3E1,1.8E1,1.34E2,1E0,8E0,7.6E1,9.8E1,2.3E1,2.3E1,1.4E1,1.46E2,2.1E1],"tree_param":{"num_deleted":"0","num_feature":"104","num_nodes":"27","size_leaf_vector":"1"}},{"base_weights":[3.7832726E-3,-4.2602468E-1,4.1160324E-1,-4.9052277E-1,3.0495867E-2,8.044612E-2,7.201698E-1,-5.9115213E-1,-1.2425394E-1,1.5581055E-1,-0E0,2.3254627E-1,-2.5850233E-1,7.470573E-1,-0E0,-1.805277E-2,-0E0,-0E0,-6.0518575E-3,6.161962E-3,-0E0,-0E0,1.19218165E-2,-9.532058E-3,-0E0,2.3191283E-2,-0E0],"categories":[],"categories_nodes":[],"categories_segments":[],"categories_sizes":[],"default_left":[0,0,0,0,0,0,0,0,0,0,0,0,0,0,0,0,0,0,0,0,0,0,0,0,0,0,0],"id":28,"left_children":[1,3,5,7,9,11,13,15,17,19,-1,21,23,25,-1,-1,-1,-1,-1,-1,-1,-1,-1,-1,-1,-1,-1],"loss_changes":[1.20305954E2,1.3474129E1,2.971666E1,4.2690353E0,7.891456E-1,1.1211097E1,2.918213E0,2.358284E0,1.3299607E0,5.668098E-1,0E0,5.7639055E0,1.1364505E0,2.3739166E0,0E0,0E0,0E0,0E0,0E0,0E0,0E0,0E0,0E0,0E0,0E0,0E0,0E0],"parents":[2147483647,0,0,1,1,2,2,3,3,4,4,5,5,6,6,7,7,8,8,9,9,11,11,12,12,13,13],"right_children":[2,4,6,8,10,12,14,16,18,20,-1,22,24,26,-1,-1,-1,-1,-1,-1,-1,-1,-1,-1,-1,-1,-1],"split_conditions":[7.8539814E3,1E0,8E1,3.9269907E3,1E0,1E0,1E0,1E0,5.629734E3,1E0,-0E0,1E0,6E1,1E0,-0E0,-1.805277E-2,-0E0,-0E0,-6.0518575E-3,6.161962E-3,-0E0,-0E0,1.19218165E-2,-9.532058E-3,-0E0,2.3191283E-2,-0E0],"split_indices":[4,102,1,4,98,20,8,24,4,68,0,6,1,64,0,0,0,0,0,0,0,0,0,0,0,0,0],"split_type":[0,0,0,0,0,0,0,0,0,0,0,0,0,0,0,0,0,0,0,0,0,0,0,0,0,0,0],"sum_hessian":[6.57E2,3.1E2,3.47E2,2.86E2,2.4E1,1.89E2,1.58E2,2E2,8.6E1,1.9E1,5E0,1.5E2,3.9E1,1.51E2,7E0,1.99E2,1E0,3E1,5.6E1,1.8E1,1E0,7.2E1,7.8E1,3.2E1,7E0,1.44E2,7E0],"tree_param":{"num_deleted":"0","num_feature":"104","num_nodes":"27","size_leaf_vector":"1"}},{"base_weights":[1.4524681E-3,3.7778088E-1,-6.980378E-1,7.436887E-1,7.675619E-2,-7.991713E-1,-3.644902E-3,9.1106933E-1,4.057742E-2,-1.205461E-1,2.6899183E-1,-8.842744E-1,-0E0,-5.903769E-2,-0E0,2.7895903E-2,-0E0,3.0925286E-3,-0E0,-5.286259E-3,-0E0,9.85728E-3,-0E0,-2.6829831E-2,-0E0,-2.334166E-3,-0E0],"categories":[],"categories_nodes":[],"categories_segments":[],"categories_sizes":[],"default_left":[0,0,0,0,0,0,0,0,0,0,0,0,0,0,0,0,0,0,0,0,0,0,0,0,0,0,0],"id":29,"left_children":[1,3,5,7,9,11,13,15,17,19,21,23,-1,25,-1,-1,-1,-1,-1,-1,-1,-1,-1,-1,-1,-1,-1],"loss_changes":[1.7986893E2,4.3027657E1,1.0036987E1,1.4545914E1,1.2293942E1,9.952309E0,1.5959994E-1,3.322136E0,5.461239E-1,1.1207364E0,1.9515324E0,2.2756805E0,0E0,9.997858E-2,0E0,0E0,0E0,0E0,0E0,0E0,0E0,0E0,0E0,0E0,0E0,0E0,0E0],"parents":[2147483647,0,0,1,1,2,2,3,3,4,4,5,5,6,6,7,7,8,8,9,9,10,10,11,11,13,13],"right_children":[2,4,6,8,10,12,14,16,18,20,22,24,-1,26,-1,-1,-1,-1,-1,-1,-1,-1,-1,-1,-1,-1,-1],"split_conditions":[3.583519E0,1.3862944E0,6E1,1E0,7.1816807E3,1E0,1E2,1E0,1E0,5E1,1E0,1E0,-0E0,1E0,-0E0,2.7895903E-2,-0E0,3.0925286E-3,-0E0,-5.286259E-3,-0E0,9.85728E-3,-0E0,-2.6829831E-2,-0E0,-2.334166E-3,-0E0],"split_indices":[0,0,1,100,4,102,2,14,52,2,100,40,0,80,0,0,0,0,0,0,0,0,0,0,0,0,0],"split_type":[0,0,0,0,0,0,0,0,0,0,0,0,0,0,0,0,0,0,0,0,0,0,0,0,0,0,0],"sum_hessian":[6.63E2,4.43E2,2.2E2,1.78E2,2.65E2,1.8E2,4E1,1.31E2,4.7E1,1.13E2,1.52E2,1.57E2,2.3E1,3.1E1,9E0,1.29E2,2E0,4.6E1,1E0,8.1E1,3.2E1,1.15E2,3.7E1,1.56E2,1E0,2.8E1,3E0],"tree_param":{"num_deleted":"0","num_feature":"104","num_nodes":"27","size_leaf_vector":"1"}},{"base_weights":[2.207147E-2,5.025348E-1,-5.63253E-1,-0E0,6.5448695E-1,-7.786229E-1,-6.1874263E-2,1.6798623E-1,-0E0,7.112523E-1,-0E0,-7.9122466E-1,-0E0,-0E0,-2.8195563E-1,7.922754E-3,-0E0,-9.029295E-4,-0E0,-0E0,2.2116747E-2,-0E0,2.7029987E-3,-2.476903E-2,-0E0,1.2512974E-3,-9.904681E-4,-9.484136E-3,-0E0],"categories":[],"categories_nodes":[],"categories_segments":[],"categories_sizes":[],"default_left":[0,0,0,0,0,0,0,0,0,0,0,0,0,0,0,0,0,0,0,0,0,0,0,0,0,0,0,0,0],"id":30,"left_children":[1,3,5,7,9,11,13,15,17,19,21,23,-1,25,27,-1,-1,-1,-1,-1,-1,-1,-1,-1,-1,-1,-1,-1,-1],"loss_changes":[1.899323E2,2.4225761E1,2.4731987E1,1.1852136E0,5.0134125E0,3.2513885E0,2.4140372E0,1.6743097E0,7.609297E-2,4.9443283E0,2.0295009E-1,3.350563E0,0E0,1.781658E-1,5.3610396E-1,0E0,0E0,0E0,0E0,0E0,0E0,0E0,0E0,0E0,0E0,0E0,0E0,0E0,0E0],"parents":[2147483647,0,0,1,1,2,2,3,3,4,4,5,5,6,6,7,7,8,8,9,9,10,10,11,11,13,13,14,14],"right_children":[2,4,6,8,10,12,14,16,18,20,22,24,-1,26,28,-1,-1,-1,-1,-1,-1,-1,-1,-1,-1,-1,-1,-1,-1],"split_conditions":[2.7080503E0,7.0685835E3,7.8539814E3,1.3862944E0,1E0,1E0,5.525453E0,1E0,1E0,1.8E1,5.5E1,1E0,-0E0,1E0,1E0,7.922754E-3,-0E0,-9.029295E-4,-0E0,-0E0,2.2116747E-2,-0E0,2.7029987E-3,-2.476903E-2,-0E0,1.2512974E-3,-9.904681E-4,-9.484136E-3,-0E0],"split_indices":[0,4,4,0,20,24,0,52,102,1,1,102,0,20,8,0,0,0,0,0,0,0,0,0,0,0,0,0,0],"split_type":[0,0,0,0,0,0,0,0,0,0,0,0,0,0,0,0,0,0,0,0,0,0,0,0,0,0,0,0,0],"sum_hessian":[6.47E2,3.64E2,2.83E2,9.9E1,2.65E2,1.81E2,1.02E2,2.7E1,7.2E1,2.32E2,3.3E1,1.8E2,1E0,8.1E1,2.1E1,2.6E1,1E0,6.9E1,3E0,8E0,2.24E2,2.3E1,1E1,1.69E2,1.1E1,7.3E1,8E0,1.9E1,2E0],"tree_param":{"num_deleted":"0","num_feature":"104","num_nodes":"29","size_leaf_vector":"1"}},{"base_weights":[-0E0,3.963483E-1,-6.520268E-1,6.53696E-1,9.43671E-3,-7.3347044E-1,-0E0,6.62897E-1,-0E0,-4.2903595E-2,2.5489756E-1,-7.5574964E-1,-0E0,2.0787125E-2,-0E0,-2.588928E-3,-0E0,8.742116E-3,-0E0,-2.3286773E-2,-0E0],"categories":[],"categories_nodes":[],"categories_segments":[],"categories_sizes":[],"default_left":[0,0,0,0,0,0,0,0,0,0,0,0,0,0,0,0,0,0,0,0,0],"id":31,"left_children":[1,3,5,7,9,11,-1,13,-1,15,17,19,-1,-1,-1,-1,-1,-1,-1,-1,-1],"loss_changes":[1.7495259E2,3.7318283E1,8.643303E0,2.0890656E0,4.416644E0,4.881958E0,0E0,2.2043076E0,0E0,5.579872E-1,1.1065488E0,4.842636E0,0E0,0E0,0E0,0E0,0E0,0E0,0E0,0E0,0E0],"parents":[2147483647,0,0,1,1,2,2,3,3,4,4,5,5,7,7,9,9,10,10,11,11],"right_children":[2,4,6,8,10,12,-1,14,-1,16,18,20,-1,-1,-1,-1,-1,-1,-1,-1,-1],"split_conditions":[3.4339871E0,1.7917595E0,6E1,1E0,1.7592918E4,1E0,-0E0,1E0,-0E0,1E0,9.8E2,1E0,-0E0,2.0787125E-2,-0E0,-2.588928E-3,-0E0,8.742116E-3,-0E0,-2.3286773E-2,-0E0],"split_indices":[0,0,1,14,4,64,0,45,0,5,2,30,0,0,0,0,0,0,0,0,0],"split_type":[0,0,0,0,0,0,0,0,0,0,0,0,0,0,0,0,0,0,0,0,0],"sum_hessian":[6.52E2,4.14E2,2.38E2,2.3E2,1.84E2,2.01E2,3.7E1,2.28E2,2E0,1.35E2,4.9E1,1.97E2,4E0,2.12E2,1.6E1,9.7E1,3.8E1,4.7E1,2E0,1.94E2,3E0],"tree_param":{"num_deleted":"0","num_feature":"104","num_nodes":"21","size_leaf_vector":"1"}},{"base_weights":[2.529832E-2,5.126669E-1,-5.302452E-1,-0E0,6.761554E-1,-8.331061E-2,-7.638372E-1,3.724189E-2,-5.3098075E-2,3.3120713E-1,8.978551E-1,-2.9542422E-1,-0E0,-8.419139E-1,-0E0,4.4004316E-3,-0E0,-2.7724563E-3,-0E0,1.16311535E-2,-0E0,-0E0,2.758968E-2,-1.0574352E-2,-0E0,2.3909884E-3,-0E0,-2.5551157E-2,-0E0],"categories":[],"categories_nodes":[],"categories_segments":[],"categories_sizes":[],"default_left":[0,0,0,0,0,0,0,0,0,0,0,0,0,0,0,0,0,0,0,0,0,0,0,0,0,0,0,0,0],"id":32,"left_children":[1,3,5,7,9,11,13,15,17,19,21,23,25,27,-1,-1,-1,-1,-1,-1,-1,-1,-1,-1,-1,-1,-1,-1,-1],"loss_changes":[1.8371793E2,3.285756E1,2.4632393E1,2.7266353E-1,7.4257355E0,4.037713E0,6.100136E0,7.031061E-1,3.665664E-1,3.0456429E0,3.4062195E0,1.3615909E0,4.44642E-1,2.0107803E0,0E0,0E0,0E0,0E0,0E0,0E0,0E0,0E0,0E0,0E0,0E0,0E0,0E0,0E0,0E0],"parents":[2147483647,0,0,1,1,2,2,3,3,4,4,5,5,6,6,7,7,8,8,9,9,10,10,11,11,12,12,13,13],"right_children":[2,4,6,8,10,12,14,16,18,20,22,24,26,28,-1,-1,-1,-1,-1,-1,-1,-1,-1,-1,-1,-1,-1,-1,-1],"split_conditions":[2.7080503E0,6.2831855E3,4.394449E0,1.3862944E0,6.5E1,3.5E1,6E1,1E0,1E0,1E0,8.63938E3,6.5E1,1E0,1E0,-0E0,4.4004316E-3,-0E0,-2.7724563E-3,-0E0,1.16311535E-2,-0E0,-0E0,2.758968E-2,-1.0574352E-2,-0E0,2.3909884E-3,-0E0,-2.5551157E-2,-0E0],"split_indices":[0,4,0,0,1,2,1,52,80,20,4,1,100,61,0,0,0,0,0,0,0,0,0,0,0,0,0,0,0],"split_type":[0,0,0,0,0,0,0,0,0,0,0,0,0,0,0,0,0,0,0,0,0,0,0,0,0,0,0,0,0],"sum_hessian":[6.49E2,3.54E2,2.95E2,8.5E1,2.69E2,1.2E2,1.75E2,2.1E1,6.4E1,1.34E2,1.35E2,4.2E1,7.8E1,1.5E2,2.5E1,2E1,1E0,5.4E1,1E1,1.14E2,2E1,3E0,1.32E2,3.6E1,6E0,5.5E1,2.3E1,1.49E2,1E0],"tree_param":{"num_deleted":"0","num_feature":"104","num_nodes":"29","size_leaf_vector":"1"}},{"base_weights":[-0E0,4.3228745E-1,-4.9419317E-1,6.0271925E-1,5.5757733E-3,-8.802665E-2,-7.058499E-1,6.169956E-1,-0E0,-0E0,7.2870955E-2,-2.0812994E-1,9.177272E-2,-7.244047E-1,-0E0,1.8785376E-2,-0E0,2.5016314E-3,-0E0,-9.116057E-3,-0E0,3.1752717E-3,-0E0,-2.216147E-2,-0E0],"categories":[],"categories_nodes":[],"categories_segments":[],"categories_sizes":[],"default_left":[0,0,0,0,0,0,0,0,0,0,0,0,0,0,0,0,0,0,0,0,0,0,0,0,0],"id":33,"left_children":[1,3,5,7,9,11,13,15,-1,-1,17,19,21,23,-1,-1,-1,-1,-1,-1,-1,-1,-1,-1,-1],"loss_changes":[1.4401868E2,2.119159E1,1.9796867E1,3.0893173E0,3.0922768E-1,4.1974077E0,1.9467316E0,1.9558563E0,0E0,0E0,6.218922E-2,2.0792851E0,6.362438E-2,1.1661148E0,0E0,0E0,0E0,0E0,0E0,0E0,0E0,0E0,0E0,0E0,0E0],"parents":[2147483647,0,0,1,1,2,2,3,3,4,4,5,5,6,6,7,7,10,10,11,11,12,12,13,13],"right_children":[2,4,6,8,10,12,14,16,-1,-1,18,20,22,24,-1,-1,-1,-1,-1,-1,-1,-1,-1,-1,-1],"split_conditions":[2.7080503E0,1.7917595E0,4.394449E0,1E0,1E0,1E0,1E0,1E0,-0E0,-0E0,1E0,1E0,1E0,1E0,-0E0,1.8785376E-2,-0E0,2.5016314E-3,-0E0,-9.116057E-3,-0E0,3.1752717E-3,-0E0,-2.216147E-2,-0E0],"split_indices":[0,0,0,12,101,102,64,14,0,0,84,101,80,8,0,0,0,0,0,0,0,0,0,0,0],"split_type":[0,0,0,0,0,0,0,0,0,0,0,0,0,0,0,0,0,0,0,0,0,0,0,0,0],"sum_hessian":[6.44E2,3.44E2,3E2,2.28E2,1.16E2,1.23E2,1.77E2,2.25E2,3E0,7.2E1,4.4E1,9.9E1,2.4E1,1.71E2,6E0,2.23E2,2E0,3.9E1,5E0,6.1E1,3.8E1,2E1,4E0,1.66E2,5E0],"tree_param":{"num_deleted":"0","num_feature":"104","num_nodes":"25","size_leaf_vector":"1"}},{"base_weights":[6.35166E-3,3.425388E-1,-5.977387E-1,6.7287207E-1,4.3346602E-2,-6.722893E-1,-0E0,8.025693E-1,9.834875E-2,-3.4271844E-2,3.0864403E-1,-7.6614624E-1,-0E0,-0E0,2.479797E-2,3.2292386E-3,-0E0,-2.9048775E-3,2.2007236E-3,-0E0,1.22066485E-2,-2.360018E-2,-0E0,-9.78648E-4,-0E0],"categories":[],"categories_nodes":[],"categories_segments":[],"categories_sizes":[],"default_left":[0,0,0,0,0,0,0,0,0,0,0,0,0,0,0,0,0,0,0,0,0,0,0,0,0],"id":34,"left_children":[1,3,5,7,9,11,-1,13,15,17,19,21,23,-1,-1,-1,-1,-1,-1,-1,-1,-1,-1,-1,-1],"loss_changes":[1.3283336E2,3.682517E1,9.478775E0,5.9899063E0,7.6457825E0,7.314125E0,0E0,2.9043121E0,1.1092013E-1,1.5668606E0,3.516831E0,4.117096E0,4.3630917E-2,0E0,0E0,0E0,0E0,0E0,0E0,0E0,0E0,0E0,0E0,0E0,0E0],"parents":[2147483647,0,0,1,1,2,2,3,3,4,4,5,5,7,7,8,8,9,9,10,10,11,11,12,12],"right_children":[2,4,6,8,10,12,-1,14,16,18,20,22,24,-1,-1,-1,-1,-1,-1,-1,-1,-1,-1,-1,-1],"split_conditions":[3.583519E0,1.3862944E0,1E0,1E0,1.8849557E4,2.3758293E3,-0E0,1.5707964E3,1E0,1E0,7.5476764E2,1E0,1.727876E4,-0E0,2.479797E-2,3.2292386E-3,-0E0,-2.9048775E-3,2.2007236E-3,-0E0,1.22066485E-2,-2.360018E-2,-0E0,-9.78648E-4,-0E0],"split_indices":[0,0,102,100,4,3,0,4,26,63,3,30,4,0,0,0,0,0,0,0,0,0,0,0,0],"split_type":[0,0,0,0,0,0,0,0,0,0,0,0,0,0,0,0,0,0,0,0,0,0,0,0,0],"sum_hessian":[6.34E2,4.2E2,2.14E2,1.78E2,2.42E2,1.87E2,2.7E1,1.29E2,4.9E1,1.74E2,6.8E1,1.53E2,3.4E1,4E0,1.25E2,4.8E1,1E0,1.58E2,1.6E1,1.4E1,5.4E1,1.51E2,2E0,2.6E1,8E0],"tree_param":{"num_deleted":"0","num_feature":"104","num_nodes":"25","size_leaf_vector":"1"}},{"base_weights":[-2.083454E-2,4.1021678E-1,-5.274299E-1,-0E0,5.732796E-1,-7.9079795E-1,-1.9761223E-1,7.125331E-3,-1.7147655E-2,6.4015377E-1,-0E0,-8.1862855E-1,-0E0,-0E0,-3.2110098E-1,2.652307E-3,-0E0,-1.0460011E-3,-0E0,-0E0,2.0942185E-2,4.2020375E-4,-0E0,-2.5079569E-2,-0E0,-4.23534E-4,-0E0,-1.0953496E-2,-0E0],"categories":[],"categories_nodes":[],"categories_segments":[],"categories_sizes":[],"default_left":[0,0,0,0,0,0,0,0,0,0,0,0,0,0,0,0,0,0,0,0,0,0,0,0,0,0,0,0,0],"id":35,"left_children":[1,3,5,7,9,11,13,15,17,19,21,23,-1,25,27,-1,-1,-1,-1,-1,-1,-1,-1,-1,-1,-1,-1,-1,-1],"loss_changes":[1.537656E2,2.5486626E1,1.841359E1,2.9133456E-2,8.143051E0,3.3696442E0,3.693901E0,2.949405E-1,8.235998E-2,3.5179062E0,5.2971356E-3,1.7708817E0,0E0,1.4151172E-2,1.8081398E0,0E0,0E0,0E0,0E0,0E0,0E0,0E0,0E0,0E0,0E0,0E0,0E0,0E0,0E0],"parents":[2147483647,0,0,1,1,2,2,3,3,4,4,5,5,6,6,7,7,8,8,9,9,10,10,11,11,13,13,14,14],"right_children":[2,4,6,8,10,12,14,16,18,20,22,24,-1,26,28,-1,-1,-1,-1,-1,-1,-1,-1,-1,-1,-1,-1,-1,-1],"split_conditions":[2.7080503E0,7.0685835E3,3.9269907E3,1.3862944E0,1E0,1E0,4.2904596E0,1E0,1E0,5E1,1.0986123E0,1E0,-0E0,1E0,1E0,2.652307E-3,-0E0,-1.0460011E-3,-0E0,-0E0,2.0942185E-2,4.2020375E-4,-0E0,-2.5079569E-2,-0E0,-4.23534E-4,-0E0,-1.0953496E-2,-0E0],"split_indices":[0,4,4,0,20,102,0,5,41,2,0,50,0,102,84,0,0,0,0,0,0,0,0,0,0,0,0,0,0],"split_type":[0,0,0,0,0,0,0,0,0,0,0,0,0,0,0,0,0,0,0,0,0,0,0,0,0,0,0,0,0],"sum_hessian":[6.7E2,3.55E2,3.15E2,1.03E2,2.52E2,1.5E2,1.65E2,2.6E1,7.7E1,2.19E2,3.3E1,1.44E2,6E0,7.6E1,8.9E1,2.3E1,3E0,7.5E1,2E0,3E1,1.89E2,1.2E1,2.1E1,1.4E2,4E0,5.6E1,2E1,7.9E1,1E1],"tree_param":{"num_deleted":"0","num_feature":"104","num_nodes":"29","size_leaf_vector":"1"}},{"base_weights":[1.0124682E-2,4.5879376E-1,-4.7060356E-1,1.0106222E-1,6.9740117E-1,-7.553633E-1,-1.3587599E-1,2.7042246E-1,-0E0,9.369661E-2,8.003053E-1,-7.715918E-1,-0E0,-0E0,-3.3539096E-1,9.725397E-3,-0E0,-0E0,-4.3655038E-4,4.76297E-3,-0E0,2.4507495E-2,-0E0,-0E0,-2.3769703E-2,7.706007E-4,-1.4145729E-3,-1.1309011E-2,-0E0],"categories":[],"categories_nodes":[],"categories_segments":[],"categories_sizes":[],"default_left":[0,0,0,0,0,0,0,0,0,0,0,0,0,0,0,0,0,0,0,0,0,0,0,0,0,0,0,0,0],"id":36,"left_children":[1,3,5,7,9,11,13,15,17,19,21,23,-1,25,27,-1,-1,-1,-1,-1,-1,-1,-1,-1,-1,-1,-1,-1,-1],"loss_changes":[1.4441975E2,2.2856941E1,2.1355385E1,3.863932E0,3.9615707E0,3.2207947E0,4.7372227E0,2.3561592E0,1.0164066E-2,7.347143E-1,1.4945145E0,2.4495468E0,0E0,1.6568758E-1,1.818603E0,0E0,0E0,0E0,0E0,0E0,0E0,0E0,0E0,0E0,0E0,0E0,0E0,0E0,0E0],"parents":[2147483647,0,0,1,1,2,2,3,3,4,4,5,5,6,6,7,7,8,8,9,9,10,10,11,11,13,13,14,14],"right_children":[2,4,6,8,10,12,14,16,18,20,22,24,-1,26,28,-1,-1,-1,-1,-1,-1,-1,-1,-1,-1,-1,-1,-1,-1],"split_conditions":[2.7080503E0,9.503317E3,3.9269907E3,1.3862944E0,5.5E1,1E0,4.7957907E0,1E0,3.1E1,1E0,1E0,6E0,-0E0,1E0,1E0,9.725397E-3,-0E0,-0E0,-4.3655038E-4,4.76297E-3,-0E0,2.4507495E-2,-0E0,-0E0,-2.3769703E-2,7.706007E-4,-1.4145729E-3,-1.1309011E-2,-0E0],"split_indices":[0,4,4,0,1,24,0,52,1,20,8,1,0,100,17,0,0,0,0,0,0,0,0,0,0,0,0,0,0],"split_type":[0,0,0,0,0,0,0,0,0,0,0,0,0,0,0,0,0,0,0,0,0,0,0,0,0,0,0,0,0],"sum_hessian":[6.4E2,3.4E2,3E2,1.58E2,1.82E2,1.39E2,1.61E2,6.2E1,9.6E1,4.2E1,1.4E2,1.38E2,1E0,1.05E2,5.6E1,6.1E1,1E0,6.3E1,3.3E1,3.4E1,8E0,1.36E2,4E0,4E0,1.34E2,7.1E1,3.4E1,5.4E1,2E0],"tree_param":{"num_deleted":"0","num_feature":"104","num_nodes":"29","size_leaf_vector":"1"}},{"base_weights":[-3.4694795E-3,4.4903472E-1,-4.0411404E-1,1.783338E-2,5.9052014E-1,-4.9299564E-2,-6.686848E-1,1.6481331E-1,-1.0543163E-2,6.815743E-1,7.671814E-2,-3.3062637E-1,-0E0,-7.0010304E-1,-0E0,-0E0,6.1361664E-3,-2.219699E-3,-0E0,2.1192936E-2,-0E0,-0E0,3.9696856E-3,-1.0123163E-2,-0E0,2.533193E-3,-1.3363896E-3,-2.1534527E-2,-0E0],"categories":[],"categories_nodes":[],"categories_segments":[],"categories_sizes":[],"default_left":[0,0,0,0,0,0,0,0,0,0,0,0,0,0,0,0,0,0,0,0,0,0,0,0,0,0,0,0,0],"id":37,"left_children":[1,3,5,7,9,11,13,15,17,19,21,23,25,27,-1,-1,-1,-1,-1,-1,-1,-1,-1,-1,-1,-1,-1,-1,-1],"loss_changes":[1.2600462E2,1.4375977E1,2.9339703E1,1.7106704E0,3.675682E0,4.8921604E0,3.8285675E0,5.6252944E-1,2.2884582E-1,2.5789566E0,3.937278E-1,1.0914135E-1,9.176308E-1,2.2714157E0,0E0,0E0,0E0,0E0,0E0,0E0,0E0,0E0,0E0,0E0,0E0,0E0,0E0,0E0,0E0],"parents":[2147483647,0,0,1,1,2,2,3,3,4,4,5,5,6,6,7,7,8,8,9,9,10,10,11,11,12,12,13,13],"right_children":[2,4,6,8,10,12,14,16,18,20,22,24,26,28,-1,-1,-1,-1,-1,-1,-1,-1,-1,-1,-1,-1,-1,-1,-1],"split_conditions":[2.1972246E0,8.4823E3,4.2904596E0,2.6E1,1E0,1.5707964E3,2.3561945E4,2.3E1,1E0,4.5E2,1.4451326E4,1E0,1E0,1E0,-0E0,-0E0,6.1361664E-3,-2.219699E-3,-0E0,2.1192936E-2,-0E0,-0E0,3.9696856E-3,-1.0123163E-2,-0E0,2.533193E-3,-1.3363896E-3,-2.1534527E-2,-0E0],"split_indices":[0,4,0,1,100,4,4,2,101,2,4,85,100,64,0,0,0,0,0,0,0,0,0,0,0,0,0,0,0],"split_type":[0,0,0,0,0,0,0,0,0,0,0,0,0,0,0,0,0,0,0,0,0,0,0,0,0,0,0,0,0],"sum_hessian":[6.67E2,3.03E2,3.64E2,9.3E1,2.1E2,1.76E2,1.88E2,4.9E1,4.4E1,1.61E2,4.9E1,3.4E1,1.42E2,1.78E2,1E1,9E0,4E1,2.8E1,1.6E1,1.54E2,7E0,2E1,2.9E1,3.3E1,1E0,9.7E1,4.5E1,1.73E2,5E0],"tree_param":{"num_deleted":"0","num_feature":"104","num_nodes":"29","size_leaf_vector":"1"}},{"base_weights":[-0E0,3.9817867E-1,-4.8143202E-1,6.4881843E-1,5.769575E-2,-1.0575003E-1,-6.626668E-1,7.832702E-1,9.5419325E-2,-3.4666814E-2,2.7457756E-1,-3.0480745E-1,-0E0,-7.075019E-1,-0E0,-0E0,2.4518706E-2,4.612584E-3,-0E0,-1.366129E-3,-0E0,-0E0,1.0682775E-2,-9.826369E-3,-0E0,2.7808663E-4,-5.645165E-4,-2.1663303E-2,-0E0],"categories":[],"categories_nodes":[],"categories_segments":[],"categories_sizes":[],"default_left":[0,0,0,0,0,0,0,0,0,0,0,0,0,0,0,0,0,0,0,0,0,0,0,0,0,0,0,0,0],"id":38,"left_children":[1,3,5,7,9,11,13,15,17,19,21,23,25,27,-1,-1,-1,-1,-1,-1,-1,-1,-1,-1,-1,-1,-1,-1,-1],"loss_changes":[1.3408698E2,2.5788334E1,1.4725418E1,6.8049088E0,5.8480697E0,3.0203912E0,3.2762604E0,2.047081E0,9.647454E-1,8.388981E-2,3.177143E0,5.972638E-1,1.6306859E-2,2.7580185E0,0E0,0E0,0E0,0E0,0E0,0E0,0E0,0E0,0E0,0E0,0E0,0E0,0E0,0E0,0E0],"parents":[2147483647,0,0,1,1,2,2,3,3,4,4,5,5,6,6,7,7,8,8,9,9,10,10,11,11,12,12,13,13],"right_children":[2,4,6,8,10,12,14,16,18,20,22,24,26,28,-1,-1,-1,-1,-1,-1,-1,-1,-1,-1,-1,-1,-1,-1,-1],"split_conditions":[2.7080503E0,1.3862944E0,4.394449E0,1E0,1E2,2.4504424E3,6.5E1,3.5E1,1E0,6.5E1,1.8E1,8.5E1,1E0,1E0,-0E0,-0E0,2.4518706E-2,4.612584E-3,-0E0,-1.366129E-3,-0E0,-0E0,1.0682775E-2,-9.826369E-3,-0E0,2.7808663E-4,-5.645165E-4,-2.1663303E-2,-0E0],"split_indices":[0,0,0,100,2,4,1,2,52,2,1,2,20,64,0,0,0,0,0,0,0,0,0,0,0,0,0,0,0],"split_type":[0,0,0,0,0,0,0,0,0,0,0,0,0,0,0,0,0,0,0,0,0,0,0,0,0,0,0,0,0],"sum_hessian":[6.67E2,3.6E2,3.07E2,1.86E2,1.74E2,1.22E2,1.85E2,1.33E2,5.3E1,1.05E2,6.9E1,3.4E1,8.8E1,1.67E2,1.8E1,9E0,1.24E2,5.2E1,1E0,9.5E1,1E1,9E0,6E1,3.3E1,1E0,8E1,8E0,1.65E2,2E0],"tree_param":{"num_deleted":"0","num_feature":"104","num_nodes":"29","size_leaf_vector":"1"}},{"base_weights":[1.0089435E-2,-3.7781063E-1,3.407811E-1,-4.816231E-1,-0E0,4.664762E-2,5.31474E-1,-5.1463324E-1,-0E0,-0E0,-1.0209685E-1,1.1640411E-1,-0E0,-0E0,5.736304E-1,-1.5918694E-2,-0E0,3.555572E-4,-0E0,-5.00739E-3,-0E0,7.7555766E-3,-6.7157065E-4,-9.581588E-4,-0E0,1.794431E-2,-0E0],"categories":[],"categories_nodes":[],"categories_segments":[],"categories_sizes":[],"default_left":[0,0,0,0,0,0,0,0,0,0,0,0,0,0,0,0,0,0,0,0,0,0,0,0,0,0,0],"id":39,"left_children":[1,3,5,7,9,11,13,15,-1,17,19,21,23,-1,25,-1,-1,-1,-1,-1,-1,-1,-1,-1,-1,-1,-1],"loss_changes":[8.0524345E1,7.495308E0,1.4690441E1,5.64946E0,5.1076454E-1,1.1725944E0,4.477783E0,2.216465E0,0E0,5.3377724E-3,7.7079314E-1,4.224426E0,6.426478E-2,0E0,3.0524063E0,0E0,0E0,0E0,0E0,0E0,0E0,0E0,0E0,0E0,0E0,0E0,0E0],"parents":[2147483647,0,0,1,1,2,2,3,3,4,4,5,5,6,6,7,7,9,9,10,10,11,11,12,12,14,14],"right_children":[2,4,6,8,10,12,14,16,-1,18,20,22,24,-1,26,-1,-1,-1,-1,-1,-1,-1,-1,-1,-1,-1,-1],"split_conditions":[7.0685835E3,3.9269907E3,6E1,1E0,5.8904863E3,1E0,1.0681415E4,1E0,-0E0,3.1E1,1E0,1.727876E4,1.727876E4,-0E0,1E0,-1.5918694E-2,-0E0,3.555572E-4,-0E0,-5.00739E-3,-0E0,7.7555766E-3,-6.7157065E-4,-9.581588E-4,-0E0,1.794431E-2,-0E0],"split_indices":[4,4,1,33,4,100,4,70,0,1,63,4,4,0,8,0,0,0,0,0,0,0,0,0,0,0,0],"split_type":[0,0,0,0,0,0,0,0,0,0,0,0,0,0,0,0,0,0,0,0,0,0,0,0,0,0,0],"sum_hessian":[6E2,2.64E2,3.36E2,1.89E2,7.5E1,1.56E2,1.8E2,1.85E2,4E0,4.1E1,3.4E1,9.9E1,5.7E1,1.4E1,1.66E2,1.81E2,4E0,2.3E1,1.8E1,3.1E1,3E0,7.1E1,2.8E1,4.8E1,9E0,1.6E2,6E0],"tree_param":{"num_deleted":"0","num_feature":"104","num_nodes":"27","size_leaf_vector":"1"}},{"base_weights":[-0E0,3.9432836E-1,-4.5565698E-1,5.5495614E-1,-0E0,-5.254655E-1,-0E0,6.6318214E-1,6.889787E-2,-0E0,1.0204912E-1,-5.53909E-1,-0E0,-0E0,2.0763159E-2,3.6407919E-3,-0E0,-0E0,5.1688794E-3,-1.771914E-2,-0E0],"categories":[],"categories_nodes":[],"categories_segments":[],"categories_sizes":[],"default_left":[0,0,0,0,0,0,0,0,0,0,0,0,0,0,0,0,0,0,0,0,0],"id":40,"left_children":[1,3,5,7,9,11,-1,13,15,-1,17,19,-1,-1,-1,-1,-1,-1,-1,-1,-1],"loss_changes":[1.2298744E2,1.9006557E1,1.0251747E1,6.3985977E0,7.0815355E-1,5.129257E0,0E0,4.417E0,7.338668E-1,0E0,1.0433149E0,3.5073624E0,0E0,0E0,0E0,0E0,0E0,0E0,0E0,0E0,0E0],"parents":[2147483647,0,0,1,1,2,2,3,3,4,4,5,5,7,7,8,8,10,10,11,11],"right_children":[2,4,6,8,10,12,-1,14,16,-1,18,20,-1,-1,-1,-1,-1,-1,-1,-1,-1],"split_conditions":[2.7080503E0,1.7917595E0,1.7592918E4,1E0,5.5E1,1E0,-0E0,1.5707964E3,1E0,-0E0,1.13097336E2,3.848451E3,-0E0,-0E0,2.0763159E-2,3.6407919E-3,-0E0,-0E0,5.1688794E-3,-1.771914E-2,-0E0],"split_indices":[0,0,4,100,2,64,0,4,52,0,3,3,0,0,0,0,0,0,0,0,0],"split_type":[0,0,0,0,0,0,0,0,0,0,0,0,0,0,0,0,0,0,0,0,0],"sum_hessian":[6.54E2,3.5E2,3.04E2,2.31E2,1.19E2,2.62E2,4.2E1,1.71E2,6E1,6.6E1,5.3E1,2.51E2,1.1E1,6E0,1.65E2,5.9E1,1E0,9E0,4.4E1,2.29E2,2.2E1],"tree_param":{"num_deleted":"0","num_feature":"104","num_nodes":"21","size_leaf_vector":"1"}},{"base_weights":[-0E0,2.763689E-1,-5.332371E-1,4.574549E-2,5.2948546E-1,-4.633364E-2,-6.1389273E-1,2.3993458E-1,-2.6890963E-2,5.7362807E-1,-0E0,-1.0729609E-1,-0E0,-6.3329494E-1,-0E0,8.401962E-3,-0E0,-3.5089725E-3,1.0389041E-3,1.8314421E-2,-0E0,-4.5011463E-3,-0E0,-1.968365E-2,-0E0],"categories":[],"categories_nodes":[],"categories_segments":[],"categories_sizes":[],"default_left":[0,0,0,0,0,0,0,0,0,0,0,0,0,0,0,0,0,0,0,0,0,0,0,0,0],"id":41,"left_children":[1,3,5,7,9,11,13,15,17,19,-1,21,-1,23,-1,-1,-1,-1,-1,-1,-1,-1,-1,-1,-1],"loss_changes":[1.00385056E2,2.0252663E1,3.5988846E0,5.454378E0,5.2059402E0,5.418389E-1,2.543953E0,2.0501022E0,1.6725807E0,1.7172165E0,0E0,5.8140755E-1,0E0,1.9422989E0,0E0,0E0,0E0,0E0,0E0,0E0,0E0,0E0,0E0,0E0,0E0],"parents":[2147483647,0,0,1,1,2,2,3,3,4,4,5,5,6,6,7,7,8,8,9,9,11,11,13,13],"right_children":[2,4,6,8,10,12,14,16,18,20,-1,22,-1,24,-1,-1,-1,-1,-1,-1,-1,-1,-1,-1,-1],"split_conditions":[3.4339871E0,1.4451326E4,4.2904596E0,1.3862944E0,6E2,1E0,1E0,1E0,1E0,1E0,-0E0,1E0,-0E0,1E0,-0E0,8.401962E-3,-0E0,-3.5089725E-3,1.0389041E-3,1.8314421E-2,-0E0,-4.5011463E-3,-0E0,-1.968365E-2,-0E0],"split_indices":[0,4,0,0,2,102,64,52,101,20,0,30,0,49,0,0,0,0,0,0,0,0,0,0,0],"split_type":[0,0,0,0,0,0,0,0,0,0,0,0,0,0,0,0,0,0,0,0,0,0,0,0,0],"sum_hessian":[6.39E2,4.17E2,2.22E2,2.44E2,1.73E2,4.9E1,1.73E2,8.7E1,1.57E2,1.61E2,1.2E1,4.4E1,5E0,1.68E2,5E0,8.6E1,1E0,1.11E2,4.6E1,1.45E2,1.6E1,4.1E1,3E0,1.6E2,8E0],"tree_param":{"num_deleted":"0","num_feature":"104","num_nodes":"25","size_leaf_vector":"1"}},{"base_weights":[-2.0837575E-2,5.141618E-1,-3.4179863E-1,2.8436422E-1,8.0936855E-1,-1.318589E-1,-7.250905E-1,4.601725E-1,2.9332545E-2,8.2345015E-1,-0E0,-1.9943307E-1,6.509883E-2,-7.8557867E-1,-0E0,1.4816146E-2,-0E0,1.8255067E-3,-0E0,2.523838E-2,-0E0,-9.308253E-3,-0E0,4.9266247E-3,-0E0,-2.4271864E-2,-0E0],"categories":[],"categories_nodes":[],"categories_segments":[],"categories_sizes":[],"default_left":[0,0,0,0,0,0,0,0,0,0,0,0,0,0,0,0,0,0,0,0,0,0,0,0,0,0,0],"id":42,"left_children":[1,3,5,7,9,11,13,15,17,19,-1,21,23,25,-1,-1,-1,-1,-1,-1,-1,-1,-1,-1,-1,-1,-1],"loss_changes":[1.1407328E2,4.2823944E0,2.6231113E1,3.7279081E0,1.2303238E0,5.381977E0,1.844696E0,7.4935913E-1,2.938838E-1,1.0183144E0,0E0,6.0583324E0,1.3099005E0,4.9136353E-1,0E0,0E0,0E0,0E0,0E0,0E0,0E0,0E0,0E0,0E0,0E0,0E0,0E0],"parents":[2147483647,0,0,1,1,2,2,3,3,4,4,5,5,6,6,7,7,8,8,9,9,11,11,12,12,13,13],"right_children":[2,4,6,8,10,12,14,16,18,20,-1,22,24,26,-1,-1,-1,-1,-1,-1,-1,-1,-1,-1,-1,-1,-1],"split_conditions":[1.7917595E0,1E0,5.081404E0,1.0986123E0,1E0,1E0,1.4E2,1E0,1E0,1E0,-0E0,1E0,1E0,1E0,-0E0,1.4816146E-2,-0E0,1.8255067E-3,-0E0,2.523838E-2,-0E0,-9.308253E-3,-0E0,4.9266247E-3,-0E0,-2.4271864E-2,-0E0],"split_indices":[0,102,0,0,62,102,2,20,12,92,0,101,20,49,0,0,0,0,0,0,0,0,0,0,0,0,0],"split_type":[0,0,0,0,0,0,0,0,0,0,0,0,0,0,0,0,0,0,0,0,0,0,0,0,0,0,0],"sum_hessian":[6.42E2,2.28E2,4.14E2,1.6E2,6.8E1,2.94E2,1.2E2,6.9E1,9.1E1,6.7E1,1E0,2.49E2,4.5E1,1.03E2,1.7E1,6.1E1,8E0,8.9E1,2E0,6.5E1,2E0,1.57E2,9.2E1,4.3E1,2E0,9.7E1,6E0],"tree_param":{"num_deleted":"0","num_feature":"104","num_nodes":"27","size_leaf_vector":"1"}},{"base_weights":[9.878991E-3,-1.5208787E-1,5.8396167E-1,-4.0163088E-1,1.1588687E-2,-0E0,6.342732E-1,-4.1847137E-1,-0E0,-1.335797E-2,1.7852324E-1,6.508553E-1,-0E0,-1.294459E-2,-0E0,-4.2501814E-3,2.253137E-3,7.5937905E-3,-0E0,2.010935E-2,-0E0],"categories":[],"categories_nodes":[],"categories_segments":[],"categories_sizes":[],"default_left":[0,0,0,0,0,0,0,0,0,0,0,0,0,0,0,0,0,0,0,0,0],"id":43,"left_children":[1,3,5,7,9,-1,11,13,-1,15,17,19,-1,-1,-1,-1,-1,-1,-1,-1,-1],"loss_changes":[6.522573E1,2.3939077E1,4.392788E0,2.1766205E0,2.6147597E0,0E0,1.7978287E0,1.6447182E0,0E0,3.3596454E0,2.1920857E0,1.3778305E0,0E0,0E0,0E0,0E0,0E0,0E0,0E0,0E0,0E0],"parents":[2147483647,0,0,1,1,2,2,3,3,4,4,6,6,7,7,9,9,10,10,11,11],"right_children":[2,4,6,8,10,-1,12,14,-1,16,18,20,-1,-1,-1,-1,-1,-1,-1,-1,-1],"split_conditions":[8.1E1,3.9269907E3,9.503317E3,1E0,1E0,-0E0,1E0,1E0,-0E0,1E0,1E0,1E0,-0E0,-1.294459E-2,-0E0,-4.2501814E-3,2.253137E-3,7.5937905E-3,-0E0,2.010935E-2,-0E0],"split_indices":[1,4,4,102,102,0,46,70,0,101,7,8,0,0,0,0,0,0,0,0,0],"split_type":[0,0,0,0,0,0,0,0,0,0,0,0,0,0,0,0,0,0,0,0,0],"sum_hessian":[6.35E2,4.93E2,1.42E2,2.06E2,2.87E2,1.3E1,1.29E2,2.01E2,5E0,2.2E2,6.7E1,1.26E2,3E0,1.97E2,4E0,1.23E2,9.7E1,6E1,7E0,1.21E2,5E0],"tree_param":{"num_deleted":"0","num_feature":"104","num_nodes":"21","size_leaf_vector":"1"}},{"base_weights":[-0E0,3.7291026E-1,-3.6121652E-1,4.6683866E-1,-0E0,-1.002187E-1,-5.3221864E-1,-0E0,5.234093E-1,5.3470423E-3,-0E0,-2.3977786E-1,-0E0,-5.6522256E-1,-0E0,1.4946243E-3,-0E0,1.6208308E-2,-0E0,1.0414931E-3,-0E0,-7.45792E-3,-0E0,4.0717938E-4,-4.551275E-3,-1.7186902E-2,-0E0],"categories":[],"categories_nodes":[],"categories_segments":[],"categories_sizes":[],"default_left":[0,0,0,0,0,0,0,0,0,0,0,0,0,0,0,0,0,0,0,0,0,0,0,0,0,0,0],"id":44,"left_children":[1,3,5,7,9,11,13,15,17,19,-1,21,23,25,-1,-1,-1,-1,-1,-1,-1,-1,-1,-1,-1,-1,-1],"loss_changes":[8.70887E1,8.185146E0,9.136505E0,3.9059296E0,2.344451E-3,1.7996548E0,3.041542E0,1.1169509E-1,2.1647606E0,8.925312E-2,0E0,2.0093942E-1,6.192239E-1,8.2839966E-1,0E0,0E0,0E0,0E0,0E0,0E0,0E0,0E0,0E0,0E0,0E0,0E0,0E0],"parents":[2147483647,0,0,1,1,2,2,3,3,4,4,5,5,6,6,7,7,8,8,9,9,11,11,12,12,13,13],"right_children":[2,4,6,8,10,12,14,16,18,20,-1,22,24,26,-1,-1,-1,-1,-1,-1,-1,-1,-1,-1,-1,-1,-1],"split_conditions":[2.3025851E0,1.7917595E0,4.2904596E0,5.8904863E3,1E0,2.4504424E3,2.8274334E4,5.629734E3,1E0,1E0,-0E0,1E0,1E0,1E0,-0E0,1.4946243E-3,-0E0,1.6208308E-2,-0E0,1.0414931E-3,-0E0,-7.45792E-3,-0E0,4.0717938E-4,-4.551275E-3,-1.7186902E-2,-0E0],"split_indices":[0,0,0,4,7,4,4,4,17,20,0,70,20,103,0,0,0,0,0,0,0,0,0,0,0,0,0],"split_type":[0,0,0,0,0,0,0,0,0,0,0,0,0,0,0,0,0,0,0,0,0,0,0,0,0,0,0],"sum_hessian":[6.17E2,2.96E2,3.21E2,2.21E2,7.5E1,1.55E2,1.66E2,3.4E1,1.87E2,6.7E1,8E0,4.6E1,1.09E2,1.55E2,1.1E1,3E1,4E0,1.82E2,5E0,6.1E1,6E0,4.5E1,1E0,9.8E1,1.1E1,1.53E2,2E0],"tree_param":{"num_deleted":"0","num_feature":"104","num_nodes":"27","size_leaf_vector":"1"}},{"base_weights":[-0E0,-1.7454101E-1,4.550641E-1,-3.8813406E-1,-0E0,2.0483062E-1,7.942535E-1,-4.4010544E-1,-0E0,-7.637323E-2,1.997821E-1,2.3273736E-1,-0E0,-0E0,2.5946552E-2,-1.3738867E-2,-0E0,-6.0527925E-3,3.8215637E-4,8.39822E-3,-0E0,-0E0,7.6132086E-3],"categories":[],"categories_nodes":[],"categories_segments":[],"categories_sizes":[],"default_left":[0,0,0,0,0,0,0,0,0,0,0,0,0,0,0,0,0,0,0,0,0,0,0],"id":45,"left_children":[1,3,5,7,9,11,13,15,-1,17,19,21,-1,-1,-1,-1,-1,-1,-1,-1,-1,-1,-1],"loss_changes":[5.500424E1,1.7314398E1,6.117939E0,7.575941E0,4.3623567E0,1.5119867E0,3.7598763E0,2.222828E0,0E0,4.020046E0,2.8042161E0,1.1210418E0,0E0,0E0,0E0,0E0,0E0,0E0,0E0,0E0,0E0,0E0,0E0],"parents":[2147483647,0,0,1,1,2,2,3,3,4,4,5,5,6,6,7,7,9,9,10,10,11,11],"right_children":[2,4,6,8,10,12,14,16,-1,18,20,22,-1,-1,-1,-1,-1,-1,-1,-1,-1,-1,-1],"split_conditions":[6.5E1,5E1,1.7E2,1E0,1E0,1E0,3.5E1,1E0,-0E0,1E0,1E0,1.2E1,-0E0,-0E0,2.5946552E-2,-1.3738867E-2,-0E0,-6.0527925E-3,3.8215637E-4,8.39822E-3,-0E0,-0E0,7.6132086E-3],"split_indices":[1,2,1,33,102,56,2,102,0,101,20,2,0,0,0,0,0,0,0,0,0,0,0],"split_type":[0,0,0,0,0,0,0,0,0,0,0,0,0,0,0,0,0,0,0,0,0,0,0],"sum_hessian":[6.45E2,4.65E2,1.8E2,1.97E2,2.68E2,1.31E2,4.9E1,1.89E2,8E0,2.06E2,6.2E1,1.26E2,5E0,5E0,4.4E1,1.84E2,5E0,1.15E2,9.1E1,6E1,2E0,5E0,1.21E2],"tree_param":{"num_deleted":"0","num_feature":"104","num_nodes":"23","size_leaf_vector":"1"}},{"base_weights":[-9.008752E-3,3.6626515E-1,-3.769821E-1,-0E0,4.5943493E-1,-1.5331312E-1,-6.406819E-1,1.1120737E-1,-8.732967E-3,5.560332E-1,2.5170093E-2,-4.276966E-1,-0E0,-6.653425E-1,-0E0,4.123967E-3,-0E0,-1.5181105E-3,-0E0,1.7054958E-2,-0E0,2.0551076E-3,-0E0,-1.3135407E-2,-0E0,8.669242E-4,-3.660036E-3,-2.2223152E-2,-0E0],"categories":[],"categories_nodes":[],"categories_segments":[],"categories_sizes":[],"default_left":[0,0,0,0,0,0,0,0,0,0,0,0,0,0,0,0,0,0,0,0,0,0,0,0,0,0,0,0,0],"id":46,"left_children":[1,3,5,7,9,11,13,15,17,19,21,23,25,27,-1,-1,-1,-1,-1,-1,-1,-1,-1,-1,-1,-1,-1,-1,-1],"loss_changes":[9.61967E1,8.808273E0,1.3525955E1,6.84384E-1,5.7955475E0,7.9003396E0,3.7846947E0,3.4023708E-1,1.00795485E-1,2.0450287E0,2.2808966E-1,4.496374E-1,1.0710269E0,2.545807E0,0E0,0E0,0E0,0E0,0E0,0E0,0E0,0E0,0E0,0E0,0E0,0E0,0E0,0E0,0E0],"parents":[2147483647,0,0,1,1,2,2,3,3,4,4,5,5,6,6,7,7,8,8,9,9,10,10,11,11,12,12,13,13],"right_children":[2,4,6,8,10,12,14,16,18,20,22,24,26,28,-1,-1,-1,-1,-1,-1,-1,-1,-1,-1,-1,-1,-1,-1,-1],"split_conditions":[2.3025851E0,7.0685835E3,4.7957907E0,3E1,1E0,1.7592919E3,1E0,1.9459101E0,1E0,1E0,1E0,1E0,1E0,6E1,-0E0,4.123967E-3,-0E0,-1.5181105E-3,-0E0,1.7054958E-2,-0E0,2.0551076E-3,-0E0,-1.3135407E-2,-0E0,8.669242E-4,-3.660036E-3,-2.2223152E-2,-0E0],"split_indices":[0,4,0,1,100,4,17,0,101,14,20,70,100,1,0,0,0,0,0,0,0,0,0,0,0,0,0,0,0],"split_type":[0,0,0,0,0,0,0,0,0,0,0,0,0,0,0,0,0,0,0,0,0,0,0,0,0,0,0,0,0],"sum_hessian":[6.66E2,3.19E2,3.47E2,8E1,2.39E2,2.17E2,1.3E2,4E1,4E1,1.77E2,6.2E1,5.8E1,1.59E2,1.28E2,2E0,3.9E1,1E0,2.6E1,1.4E1,1.75E2,2E0,4.4E1,1.8E1,5.7E1,1E0,1.09E2,5E1,1.05E2,2.3E1],"tree_param":{"num_deleted":"0","num_feature":"104","num_nodes":"29","size_leaf_vector":"1"}},{"base_weights":[-0E0,3.2034132E-1,-3.8607463E-1,5.2321666E-1,4.9375903E-2,-5.9374183E-1,-1.3524762E-1,6.3013494E-1,1.3695554E-2,-0E0,1.7854328E-1,-6.095282E-1,-0E0,-0E0,-3.274182E-1,-0E0,1.9721622E-2,2.2640778E-3,-0E0,7.060537E-4,-1.7362739E-3,-0E0,6.2267296E-3,-1.8566318E-2,-0E0,4.7383635E-4,-1.3699802E-3,-1.0944787E-2,-0E0],"categories":[],"categories_nodes":[],"categories_segments":[],"categories_sizes":[],"default_left":[0,0,0,0,0,0,0,0,0,0,0,0,0,0,0,0,0,0,0,0,0,0,0,0,0,0,0,0,0],"id":47,"left_children":[1,3,5,7,9,11,13,15,17,19,21,23,-1,25,27,-1,-1,-1,-1,-1,-1,-1,-1,-1,-1,-1,-1,-1,-1],"loss_changes":[8.630124E1,1.6031128E1,9.423531E0,5.6153336E0,1.559891E0,2.4967575E0,4.4260483E0,2.3082848E0,3.4131098E-1,2.8039402E-1,4.5847797E-1,9.566574E-1,0E0,1.2255053E-1,1.1989865E0,0E0,0E0,0E0,0E0,0E0,0E0,0E0,0E0,0E0,0E0,0E0,0E0,0E0,0E0],"parents":[2147483647,0,0,1,1,2,2,3,3,4,4,5,5,6,6,7,7,8,8,9,9,10,10,11,11,13,13,14,14],"right_children":[2,4,6,8,10,12,14,16,18,20,22,24,-1,26,28,-1,-1,-1,-1,-1,-1,-1,-1,-1,-1,-1,-1,-1,-1],"split_conditions":[2.7080503E0,1.3862944E0,3.9269907E3,1E0,1.7592918E4,1E0,5.081404E0,3.5E1,1E0,3.1E1,3.1E1,1E0,-0E0,1E0,1E0,-0E0,1.9721622E-2,2.2640778E-3,-0E0,7.060537E-4,-1.7362739E-3,-0E0,6.2267296E-3,-1.8566318E-2,-0E0,4.7383635E-4,-1.3699802E-3,-1.0944787E-2,-0E0],"split_indices":[0,0,4,100,4,24,0,2,52,1,1,99,0,100,80,0,0,0,0,0,0,0,0,0,0,0,0,0,0],"split_type":[0,0,0,0,0,0,0,0,0,0,0,0,0,0,0,0,0,0,0,0,0,0,0,0,0,0,0,0,0],"sum_hessian":[6.68E2,3.67E2,3.01E2,1.85E2,1.82E2,1.36E2,1.65E2,1.37E2,4.8E1,1.33E2,4.9E1,1.35E2,1E0,1.08E2,5.7E1,7E0,1.3E2,4.7E1,1E0,8E1,5.3E1,6E0,4.3E1,1.33E2,2E0,7.5E1,3.3E1,5.2E1,5E0],"tree_param":{"num_deleted":"0","num_feature":"104","num_nodes":"29","size_leaf_vector":"1"}},{"base_weights":[-0E0,2.43026E-1,-4.6907467E-1,4.2248392E-1,-0E0,-5.388449E-1,-0E0,-0E0,4.9188164E-1,-6.1315797E-2,8.138624E-2,-5.5380344E-1,-0E0,-7.7052475E-3,-0E0,1.659154E-3,-1.5763176E-4,1.5960388E-2,-0E0,-2.308006E-3,-0E0,5.3969207E-3,-7.5272797E-4,-1.7062265E-2,-0E0,-0E0,-5.760671E-4],"categories":[],"categories_nodes":[],"categories_segments":[],"categories_sizes":[],"default_left":[0,0,0,0,0,0,0,0,0,0,0,0,0,0,0,0,0,0,0,0,0,0,0,0,0,0,0],"id":48,"left_children":[1,3,5,7,9,11,13,15,17,19,21,23,-1,25,-1,-1,-1,-1,-1,-1,-1,-1,-1,-1,-1,-1,-1],"loss_changes":[7.893932E1,1.8038893E1,5.4039536E0,6.110489E0,1.1421683E0,2.6881905E0,2.552946E-3,1.2920906E-1,1.9547195E0,2.2566801E-1,2.4599688E0,2.3834877E0,0E0,1.1827362E-2,0E0,0E0,0E0,0E0,0E0,0E0,0E0,0E0,0E0,0E0,0E0,0E0,0E0],"parents":[2147483647,0,0,1,1,2,2,3,3,4,4,5,5,6,6,7,7,8,8,9,9,10,10,11,11,13,13],"right_children":[2,4,6,8,10,12,14,16,18,20,22,24,-1,26,-1,-1,-1,-1,-1,-1,-1,-1,-1,-1,-1,-1,-1],"split_conditions":[3.583519E0,1.7917595E0,5.5E1,7.0685835E3,5.5E1,1E0,7E1,2.6E1,1E0,1E0,1E0,1E0,-0E0,4.0430512E0,-0E0,1.659154E-3,-1.5763176E-4,1.5960388E-2,-0E0,-2.308006E-3,-0E0,5.3969207E-3,-7.5272797E-4,-1.7062265E-2,-0E0,-0E0,-5.760671E-4],"split_indices":[0,0,1,4,2,30,2,1,20,41,20,64,0,0,0,0,0,0,0,0,0,0,0,0,0,0,0],"split_type":[0,0,0,0,0,0,0,0,0,0,0,0,0,0,0,0,0,0,0,0,0,0,0,0,0,0,0],"sum_hessian":[6.47E2,4.2E2,2.27E2,2.3E2,1.9E2,1.87E2,4E1,3.9E1,1.91E2,9.5E1,9.5E1,1.85E2,2E0,2.8E1,1.2E1,2.7E1,1.2E1,1.68E2,2.3E1,9.3E1,2E0,8.3E1,1.2E1,1.82E2,3E0,4E0,2.4E1],"tree_param":{"num_deleted":"0","num_feature":"104","num_nodes":"27","size_leaf_vector":"1"}},{"base_weights":[2.052059E-2,3.819417E-1,-3.0124196E-1,1.78977E-1,7.564359E-1,-3.782324E-1,1.6081082E-2,3.756695E-1,1.018136E-2,-0E0,7.761888E-1,-1.7792313E-1,-6.1204785E-1,1.1753148E-1,-0E0,1.1540665E-2,-0E0,1.3836634E-3,-0E0,2.3650855E-2,-0E0,-7.0941844E-3,-0E0,-1.8810688E-2,-0E0,-0E0,5.070519E-3],"categories":[],"categories_nodes":[],"categories_segments":[],"categories_sizes":[],"default_left":[0,0,0,0,0,0,0,0,0,0,0,0,0,0,0,0,0,0,0,0,0,0,0,0,0,0,0],"id":49,"left_children":[1,3,5,7,9,11,13,15,17,-1,19,21,23,25,-1,-1,-1,-1,-1,-1,-1,-1,-1,-1,-1,-1,-1],"loss_changes":[8.179874E1,1.6329021E1,1.1734688E1,5.2888327E0,1.8527184E0,6.5189056E0,7.9845476E-1,5.0352097E-1,3.0955958E-1,0E0,1.2639732E0,2.0343995E0,6.1688614E-1,7.276047E-1,0E0,0E0,0E0,0E0,0E0,0E0,0E0,0E0,0E0,0E0,0E0,0E0,0E0],"parents":[2147483647,0,0,1,1,2,2,3,3,4,4,5,5,6,6,7,7,8,8,10,10,11,11,12,12,13,13],"right_children":[2,4,6,8,10,12,14,16,18,-1,20,22,24,26,-1,-1,-1,-1,-1,-1,-1,-1,-1,-1,-1,-1,-1],"split_conditions":[2.3025851E0,1E0,1.7592918E4,1.0986123E0,1.13097336E2,4.7957907E0,9.8E2,1E0,1E0,-0E0,1E0,1E0,1E0,1E2,-0E0,1.1540665E-2,-0E0,1.3836634E-3,-0E0,2.3650855E-2,-0E0,-7.0941844E-3,-0E0,-1.8810688E-2,-0E0,-0E0,5.070519E-3],"split_indices":[0,102,4,0,3,0,2,14,20,0,62,101,64,2,0,0,0,0,0,0,0,0,0,0,0,0,0],"split_type":[0,0,0,0,0,0,0,0,0,0,0,0,0,0,0,0,0,0,0,0,0,0,0,0,0,0,0],"sum_hessian":[6.68E2,3.25E2,3.43E2,2.39E2,8.6E1,2.94E2,4.9E1,8E1,1.59E2,2E0,8.4E1,1.91E2,1.03E2,4.4E1,5E0,7.9E1,1E0,1.39E2,2E1,8.3E1,1E0,1.38E2,5.3E1,9.9E1,4E0,5E0,3.9E1],"tree_param":{"num_deleted":"0","num_feature":"104","num_nodes":"27","size_leaf_vector":"1"}},{"base_weights":[-1.059007E-2,3.0494964E-1,-3.2334557E-1,1.3667682E-1,6.346066E-1,-1.2125739E-1,-5.7619625E-1,3.3218068E-1,-0E0,6.538412E-1,-0E0,-3.4089598E-1,-0E0,-6.098504E-1,-0E0,1.14165265E-2,-0E0,-0E0,1.7089387E-3,1.9980216E-2,-0E0,-1.0519143E-2,-0E0,3.2755407E-4,-2.619353E-3,-1.9239277E-2,-0E0],"categories":[],"categories_nodes":[],"categories_segments":[],"categories_sizes":[],"default_left":[0,0,0,0,0,0,0,0,0,0,0,0,0,0,0,0,0,0,0,0,0,0,0,0,0,0,0],"id":50,"left_children":[1,3,5,7,9,11,13,15,17,19,-1,21,23,25,-1,-1,-1,-1,-1,-1,-1,-1,-1,-1,-1,-1,-1],"loss_changes":[6.784506E1,1.0779081E1,1.16143875E1,4.873749E0,1.400219E0,4.4469976E0,2.4930649E0,2.8545036E0,2.9204717E-1,9.8553085E-1,0E0,3.351698E-1,5.937989E-1,9.646797E-1,0E0,0E0,0E0,0E0,0E0,0E0,0E0,0E0,0E0,0E0,0E0,0E0,0E0],"parents":[2147483647,0,0,1,1,2,2,3,3,4,4,5,5,6,6,7,7,8,8,9,9,11,11,12,12,13,13],"right_children":[2,4,6,8,10,12,14,16,18,20,-1,22,24,26,-1,-1,-1,-1,-1,-1,-1,-1,-1,-1,-1,-1,-1],"split_conditions":[2.3025851E0,1E0,4.7004805E0,1.0986123E0,1E0,1.5707964E3,2.8274334E4,1E0,1E0,1E0,-0E0,1E0,1E0,1E0,-0E0,1.14165265E-2,-0E0,-0E0,1.7089387E-3,1.9980216E-2,-0E0,-1.0519143E-2,-0E0,3.2755407E-4,-2.619353E-3,-1.9239277E-2,-0E0],"split_indices":[0,102,0,0,53,4,4,52,101,62,0,70,100,102,0,0,0,0,0,0,0,0,0,0,0,0,0],"split_type":[0,0,0,0,0,0,0,0,0,0,0,0,0,0,0,0,0,0,0,0,0,0,0,0,0,0,0],"sum_hessian":[6.56E2,3.14E2,3.42E2,2.38E2,7.6E1,2.2E2,1.22E2,7.2E1,1.66E2,7.4E1,2E0,5.3E1,1.67E2,1.14E2,8E0,7.1E1,1E0,9.1E1,7.5E1,7.3E1,1E0,5.2E1,1E0,1.06E2,6.1E1,1.04E2,1E1],"tree_param":{"num_deleted":"0","num_feature":"104","num_nodes":"27","size_leaf_vector":"1"}},{"base_weights":[-1.2735005E-2,-3.2468238E-1,2.3696524E-1,-3.5161948E-1,-0E0,1.3532611E-2,4.9128166E-1,-3.7137198E-1,-0E0,1.3878088E-1,-3.0265188E-1,5.189402E-1,-0E0,-1.1496618E-2,-0E0,-0E0,7.2258925E-3,-0E0,-1.0775772E-2,1.6237512E-2,-0E0],"categories":[],"categories_nodes":[],"categories_segments":[],"categories_sizes":[],"default_left":[0,0,0,0,0,0,0,0,0,0,0,0,0,0,0,0,0,0,0,0,0],"id":51,"left_children":[1,3,5,7,-1,9,11,13,-1,15,17,19,-1,-1,-1,-1,-1,-1,-1,-1,-1],"loss_changes":[5.3966454E1,4.433201E0,1.665883E1,3.6946526E0,0E0,8.30862E0,2.1485634E0,1.0847054E0,0E0,2.644952E0,8.7631893E-1,2.28154E0,0E0,0E0,0E0,0E0,0E0,0E0,0E0,0E0,0E0],"parents":[2147483647,0,0,1,1,2,2,3,3,5,5,6,6,7,7,9,9,10,10,11,11],"right_children":[2,4,6,8,-1,10,12,14,-1,16,18,20,-1,-1,-1,-1,-1,-1,-1,-1,-1],"split_conditions":[7.8539814E3,1E0,8.1E1,1E0,-0E0,1E0,1E0,7E1,-0E0,1E0,1.0681415E4,1E0,-0E0,-1.1496618E-2,-0E0,-0E0,7.2258925E-3,-0E0,-1.0775772E-2,1.6237512E-2,-0E0],"split_indices":[4,63,1,33,0,20,8,1,0,6,4,46,0,0,0,0,0,0,0,0,0],"split_type":[0,0,0,0,0,0,0,0,0,0,0,0,0,0,0,0,0,0,0,0,0],"sum_hessian":[6.54E2,3.03E2,3.51E2,2.92E2,1.1E1,2.12E2,1.39E2,2.87E2,5E0,1.76E2,3.6E1,1.31E2,8E0,2.76E2,1.1E1,8.2E1,9.4E1,8E0,2.8E1,1.27E2,4E0],"tree_param":{"num_deleted":"0","num_feature":"104","num_nodes":"21","size_leaf_vector":"1"}},{"base_weights":[2.2670843E-3,4.0440217E-1,-2.3519345E-1,1.8709455E-1,6.9400233E-1,-1.27192205E-2,-4.8879328E-1,3.238857E-1,-0E0,7.161216E-1,-0E0,-1.3210051E-1,3.3419613E-2,-5.285231E-1,-0E0,1.10965865E-2,-0E0,3.2960114E-4,-0E0,2.2015365E-2,-0E0,-4.696279E-3,-0E0,2.1300071E-3,-0E0,-1.61151E-2,-0E0],"categories":[],"categories_nodes":[],"categories_segments":[],"categories_sizes":[],"default_left":[0,0,0,0,0,0,0,0,0,0,0,0,0,0,0,0,0,0,0,0,0,0,0,0,0,0,0],"id":52,"left_children":[1,3,5,7,9,11,13,15,17,19,-1,21,23,25,-1,-1,-1,-1,-1,-1,-1,-1,-1,-1,-1,-1,-1],"loss_changes":[6.733242E1,7.932358E0,1.970364E1,2.895247E0,1.3934631E0,2.2712533E0,2.805809E0,2.7673473E0,1.351926E-2,1.2615585E0,0E0,5.4919887E-1,5.443722E-1,1.222702E0,0E0,0E0,0E0,0E0,0E0,0E0,0E0,0E0,0E0,0E0,0E0,0E0,0E0],"parents":[2147483647,0,0,1,1,2,2,3,3,4,4,5,5,6,6,7,7,8,8,9,9,11,11,12,12,13,13],"right_children":[2,4,6,8,10,12,14,16,18,20,-1,22,24,26,-1,-1,-1,-1,-1,-1,-1,-1,-1,-1,-1,-1,-1],"split_conditions":[1.7917595E0,1E0,4.394449E0,1.0986123E0,1E0,5E1,1.9E2,1E0,1E0,1E0,-0E0,1E2,1E0,1E0,-0E0,1.10965865E-2,-0E0,3.2960114E-4,-0E0,2.2015365E-2,-0E0,-4.696279E-3,-0E0,2.1300071E-3,-0E0,-1.61151E-2,-0E0],"split_indices":[0,102,0,0,92,2,2,52,12,77,0,1,8,61,0,0,0,0,0,0,0,0,0,0,0,0,0],"split_type":[0,0,0,0,0,0,0,0,0,0,0,0,0,0,0,0,0,0,0,0,0,0,0,0,0,0,0],"sum_hessian":[6.61E2,2.54E2,4.07E2,1.75E2,7.9E1,2.42E2,1.65E2,7.6E1,9.9E1,7.6E1,3E0,1.08E2,1.34E2,1.49E2,1.6E1,7.5E1,1E0,9.7E1,2E0,7.4E1,2E0,9.5E1,1.3E1,1.26E2,8E0,1.48E2,1E0],"tree_param":{"num_deleted":"0","num_feature":"104","num_nodes":"27","size_leaf_vector":"1"}},{"base_weights":[1.6154014E-2,3.249399E-1,-3.2924613E-1,1.658308E-1,6.544331E-1,-8.298804E-2,-5.5063695E-1,-0E0,3.3258313E-1,6.85404E-1,-0E0,-1.6340163E-1,3.851613E-2,-6.0094386E-1,-0E0,-2.0755419E-4,2.3821245E-3,1.1434041E-2,-0E0,2.105115E-2,-0E0,-7.4941455E-3,-0E0,2.951784E-3,-0E0,-1.891925E-2,-0E0],"categories":[],"categories_nodes":[],"categories_segments":[],"categories_sizes":[],"default_left":[0,0,0,0,0,0,0,0,0,0,0,0,0,0,0,0,0,0,0,0,0,0,0,0,0,0,0],"id":53,"left_children":[1,3,5,7,9,11,13,15,17,19,-1,21,23,25,-1,-1,-1,-1,-1,-1,-1,-1,-1,-1,-1,-1,-1],"loss_changes":[7.292232E1,1.136467E1,1.1201054E1,5.685261E0,1.8007011E0,2.871735E0,2.92527E0,6.0376346E-1,2.5190487E0,1.1632881E0,0E0,2.3690395E0,3.5921323E-1,2.331974E0,0E0,0E0,0E0,0E0,0E0,0E0,0E0,0E0,0E0,0E0,0E0,0E0,0E0],"parents":[2147483647,0,0,1,1,2,2,3,3,4,4,5,5,6,6,7,7,8,8,9,9,11,11,12,12,13,13],"right_children":[2,4,6,8,10,12,14,16,18,20,-1,22,24,26,-1,-1,-1,-1,-1,-1,-1,-1,-1,-1,-1,-1,-1],"split_conditions":[2.7080503E0,1E0,4.7957907E0,1.4451326E4,2.1972246E0,1E0,2.1E2,1E0,4.5E2,1E0,-0E0,1E0,1E0,1E0,-0E0,-2.0755419E-4,2.3821245E-3,1.1434041E-2,-0E0,2.105115E-2,-0E0,-7.4941455E-3,-0E0,2.951784E-3,-0E0,-1.891925E-2,-0E0],"split_indices":[0,102,0,4,0,102,2,6,2,77,0,101,20,49,0,0,0,0,0,0,0,0,0,0,0,0,0],"split_type":[0,0,0,0,0,0,0,0,0,0,0,0,0,0,0,0,0,0,0,0,0,0,0,0,0,0,0],"sum_hessian":[6.54E2,3.58E2,2.96E2,2.73E2,8.5E1,1.67E2,1.29E2,1.65E2,1.08E2,8E1,5E0,1.37E2,3E1,1.14E2,1.5E1,8.5E1,8E1,9.6E1,1.2E1,7.8E1,2E0,8.8E1,4.9E1,2.9E1,1E0,1.08E2,6E0],"tree_param":{"num_deleted":"0","num_feature":"104","num_nodes":"27","size_leaf_vector":"1"}},{"base_weights":[5.5779973E-3,3.0395594E-1,-3.1827638E-1,-0E0,4.07683E-1,-4.7315025E-1,-9.119721E-3,4.4670418E-2,-4.0765706E-2,4.9845254E-1,-0E0,-4.83567E-1,-0E0,-8.689333E-2,2.3981264E-2,5.0115115E-3,-0E0,-1.6609761E-3,-0E0,-0E0,1.5381689E-2,-0E0,1.9896668E-4,-1.4778585E-2,-0E0,-0E0,-3.3981071E-3,7.671625E-4,-0E0],"categories":[],"categories_nodes":[],"categories_segments":[],"categories_sizes":[],"default_left":[0,0,0,0,0,0,0,0,0,0,0,0,0,0,0,0,0,0,0,0,0,0,0,0,0,0,0,0,0],"id":54,"left_children":[1,3,5,7,9,11,13,15,17,19,21,23,-1,25,27,-1,-1,-1,-1,-1,-1,-1,-1,-1,-1,-1,-1,-1,-1],"loss_changes":[6.491977E1,1.1171982E1,1.0920002E1,2.2841994E-1,7.7147255E0,1.1820412E0,8.8466984E-1,1.233691E0,7.6936215E-2,2.2560616E0,1.8914143E-3,1.1583176E0,0E0,5.0980353E-1,1.4511999E-3,0E0,0E0,0E0,0E0,0E0,0E0,0E0,0E0,0E0,0E0,0E0,0E0,0E0,0E0],"parents":[2147483647,0,0,1,1,2,2,3,3,4,4,5,5,6,6,7,7,8,8,9,9,10,10,11,11,13,13,14,14],"right_children":[2,4,6,8,10,12,14,16,18,20,22,24,-1,26,28,-1,-1,-1,-1,-1,-1,-1,-1,-1,-1,-1,-1,-1,-1],"split_conditions":[2.7080503E0,7.0685835E3,3.6E1,2.6E1,1E0,1E0,2.8274334E4,1.9459101E0,1E0,1.8E1,1.4451326E4,1E0,-0E0,3.0445225E0,1E0,5.0115115E-3,-0E0,-1.6609761E-3,-0E0,-0E0,1.5381689E-2,-0E0,1.9896668E-4,-1.4778585E-2,-0E0,-0E0,-3.3981071E-3,7.671625E-4,-0E0],"split_indices":[0,4,1,1,100,50,4,0,41,1,4,64,0,0,48,0,0,0,0,0,0,0,0,0,0,0,0,0,0],"split_type":[0,0,0,0,0,0,0,0,0,0,0,0,0,0,0,0,0,0,0,0,0,0,0,0,0,0,0,0,0],"sum_hessian":[6.43E2,3.48E2,2.95E2,9.4E1,2.54E2,1.74E2,1.21E2,5.2E1,4.2E1,1.96E2,5.8E1,1.71E2,3E0,1.01E2,2E1,3.4E1,1.8E1,4.1E1,1E0,3E0,1.93E2,3E1,2.8E1,1.69E2,2E0,8E0,9.3E1,1.8E1,2E0],"tree_param":{"num_deleted":"0","num_feature":"104","num_nodes":"29","size_leaf_vector":"1"}},{"base_weights":[6.9328686E-3,2.2743858E-1,-4.2820317E-1,4.5453775E-1,9.348517E-3,-4.956516E-1,-0E0,5.701806E-1,-0E0,-8.959752E-2,1.5806234E-1,-5.2742803E-1,-0E0,1.7670896E-2,-0E0,1.4826035E-3,-0E0,-3.81556E-3,-0E0,7.478978E-3,-1.2888426E-3,-1.6336937E-2,-0E0],"categories":[],"categories_nodes":[],"categories_segments":[],"categories_sizes":[],"default_left":[0,0,0,0,0,0,0,0,0,0,0,0,0,0,0,0,0,0,0,0,0,0,0],"id":55,"left_children":[1,3,5,7,9,11,-1,13,15,17,19,21,-1,-1,-1,-1,-1,-1,-1,-1,-1,-1,-1],"loss_changes":[6.4045265E1,1.9305254E1,5.722679E0,6.6793556E0,4.747817E0,2.986843E0,0E0,1.6301498E0,1.7096436E-1,8.6578095E-1,4.4891124E0,2.6216812E0,0E0,0E0,0E0,0E0,0E0,0E0,0E0,0E0,0E0,0E0,0E0],"parents":[2147483647,0,0,1,1,2,2,3,3,4,4,5,5,7,7,8,8,9,9,10,10,11,11],"right_children":[2,4,6,8,10,12,-1,14,16,18,20,22,-1,-1,-1,-1,-1,-1,-1,-1,-1,-1,-1],"split_conditions":[3.9318256E0,1.3862944E0,6E1,1E0,5.5E1,1E0,-0E0,4.5E2,1E0,1E2,1E0,1E0,-0E0,1.7670896E-2,-0E0,1.4826035E-3,-0E0,-3.81556E-3,-0E0,7.478978E-3,-1.2888426E-3,-1.6336937E-2,-0E0],"split_indices":[0,0,1,100,2,49,0,2,52,1,20,30,0,0,0,0,0,0,0,0,0,0,0],"split_type":[0,0,0,0,0,0,0,0,0,0,0,0,0,0,0,0,0,0,0,0,0,0,0],"sum_hessian":[6.54E2,4.51E2,2.03E2,1.95E2,2.56E2,1.71E2,3.2E1,1.39E2,5.6E1,1.25E2,1.31E2,1.6E2,1.1E1,1.34E2,5E0,5.5E1,1E0,1.08E2,1.7E1,1.15E2,1.6E1,1.58E2,2E0],"tree_param":{"num_deleted":"0","num_feature":"104","num_nodes":"23","size_leaf_vector":"1"}},{"base_weights":[2.7966494E-2,3.0137247E-1,-2.983415E-1,4.5226574E-1,5.5154074E-2,-9.2681035E-2,-5.112606E-1,4.959998E-1,-0E0,-0E0,1.7341225E-1,-1.9058338E-1,-0E0,-5.62055E-1,-0E0,1.5271813E-2,-0E0,-2.582132E-4,-0E0,-0E0,6.6338805E-3,-6.9853123E-3,-0E0,3.0936673E-3,-3.977722E-3,-1.7064165E-2,-0E0],"categories":[],"categories_nodes":[],"categories_segments":[],"categories_sizes":[],"default_left":[0,0,0,0,0,0,0,0,0,0,0,0,0,0,0,0,0,0,0,0,0,0,0,0,0,0,0],"id":56,"left_children":[1,3,5,7,9,11,13,15,-1,17,19,21,23,25,-1,-1,-1,-1,-1,-1,-1,-1,-1,-1,-1,-1,-1],"loss_changes":[6.0432972E1,9.721653E0,7.41926E0,2.4784927E0,1.5213158E0,2.562155E0,2.2830849E0,1.9495392E0,0E0,8.149052E-3,9.07835E-1,1.5156689E0,1.2759212E0,5.0855255E-1,0E0,0E0,0E0,0E0,0E0,0E0,0E0,0E0,0E0,0E0,0E0,0E0,0E0],"parents":[2147483647,0,0,1,1,2,2,3,3,4,4,5,5,6,6,7,7,9,9,10,10,11,11,12,12,13,13],"right_children":[2,4,6,8,10,12,14,16,-1,18,20,22,24,26,-1,-1,-1,-1,-1,-1,-1,-1,-1,-1,-1,-1,-1],"split_conditions":[2.7080503E0,1.3862944E0,5.081404E0,1E0,1.12E2,7E1,1.4E2,1E0,-0E0,1.8849557E4,1.8E1,1E0,1E0,1E0,-0E0,1.5271813E-2,-0E0,-2.582132E-4,-0E0,-0E0,6.6338805E-3,-6.9853123E-3,-0E0,3.0936673E-3,-3.977722E-3,-1.7064165E-2,-0E0],"split_indices":[0,0,0,20,2,2,2,14,0,4,1,102,20,37,0,0,0,0,0,0,0,0,0,0,0,0,0],"split_type":[0,0,0,0,0,0,0,0,0,0,0,0,0,0,0,0,0,0,0,0,0,0,0,0,0,0,0],"sum_hessian":[6.47E2,3.66E2,2.81E2,1.99E2,1.67E2,1.73E2,1.08E2,1.73E2,2.6E1,1.13E2,5.4E1,1E2,7.3E1,9.4E1,1.4E1,1.71E2,2E0,9.5E1,1.8E1,8E0,4.6E1,9E1,1E1,6.2E1,1.1E1,9.3E1,1E0],"tree_param":{"num_deleted":"0","num_feature":"104","num_nodes":"27","size_leaf_vector":"1"}},{"base_weights":[-0E0,-1.3232312E-1,4.284386E-1,-3.2171935E-1,-0E0,-0E0,4.9095783E-1,-3.4665403E-1,-0E0,4.8023842E-2,-1.8611659E-1,5.114286E-1,-0E0,-1.0687284E-2,-0E0,3.0382231E-3,-4.527853E-3,-0E0,-7.900185E-3,1.5789548E-2,-0E0],"categories":[],"categories_nodes":[],"categories_segments":[],"categories_sizes":[],"default_left":[0,0,0,0,0,0,0,0,0,0,0,0,0,0,0,0,0,0,0,0,0],"id":57,"left_children":[1,3,5,7,9,-1,11,13,-1,15,17,19,-1,-1,-1,-1,-1,-1,-1,-1,-1],"loss_changes":[3.670041E1,1.4145235E1,2.2974834E0,3.3024292E0,2.6848722E0,0E0,1.739233E0,1.3760967E0,0E0,2.777247E0,1.2849662E0,1.0231762E0,0E0,0E0,0E0,0E0,0E0,0E0,0E0,0E0,0E0],"parents":[2147483647,0,0,1,1,2,2,3,3,4,4,6,6,7,7,9,9,10,10,11,11],"right_children":[2,4,6,8,10,-1,12,14,-1,16,18,20,-1,-1,-1,-1,-1,-1,-1,-1,-1],"split_conditions":[8.1E1,3.9269907E3,1.5268141E4,1E0,1E0,-0E0,1E0,1E0,-0E0,1E0,8.63938E3,1E0,-0E0,-1.0687284E-2,-0E0,3.0382231E-3,-4.527853E-3,-0E0,-7.900185E-3,1.5789548E-2,-0E0],"split_indices":[1,4,4,33,20,0,46,24,0,7,4,93,0,0,0,0,0,0,0,0,0],"split_type":[0,0,0,0,0,0,0,0,0,0,0,0,0,0,0,0,0,0,0,0,0],"sum_hessian":[6.53E2,5.19E2,1.34E2,2.12E2,3.07E2,2.6E1,1.08E2,2.08E2,4E0,2.63E2,4.4E1,1.05E2,3E0,2.07E2,1E0,2.45E2,1.8E1,1.1E1,3.3E1,1.02E2,3E0],"tree_param":{"num_deleted":"0","num_feature":"104","num_nodes":"21","size_leaf_vector":"1"}},{"base_weights":[6.788734E-5,-2.4268915E-1,2.0539477E-1,-2.7279288E-1,-0E0,5.513588E-2,4.5148125E-1,-3.1332877E-1,-0E0,-0E0,2.7426073E-1,4.8133358E-1,-0E0,-9.810368E-3,-0E0,8.67942E-4,-4.4339187E-3,-0E0,9.795957E-3,1.4977038E-2,-0E0],"categories":[],"categories_nodes":[],"categories_segments":[],"categories_sizes":[],"default_left":[0,0,0,0,0,0,0,0,0,0,0,0,0,0,0,0,0,0,0,0,0],"id":58,"left_children":[1,3,5,7,-1,9,11,13,-1,15,17,19,-1,-1,-1,-1,-1,-1,-1,-1,-1],"loss_changes":[3.2100636E1,3.82411E0,9.255043E0,3.6391258E0,0E0,3.7766852E0,1.6641369E0,1.8171406E0,0E0,1.2478889E0,9.560442E-1,1.4499302E0,0E0,0E0,0E0,0E0,0E0,0E0,0E0,0E0,0E0],"parents":[2147483647,0,0,1,1,2,2,3,3,5,5,6,6,7,7,9,9,10,10,11,11],"right_children":[2,4,6,8,-1,10,12,14,-1,16,18,20,-1,-1,-1,-1,-1,-1,-1,-1,-1],"split_conditions":[7.0685835E3,1E0,1E0,8E1,-0E0,1.35E2,1E0,1E0,-0E0,1E0,1.9634953E4,1E0,-0E0,-9.810368E-3,-0E0,8.67942E-4,-4.4339187E-3,-0E0,9.795957E-3,1.4977038E-2,-0E0],"split_indices":[4,33,102,2,0,1,20,41,0,20,4,98,0,0,0,0,0,0,0,0,0],"split_type":[0,0,0,0,0,0,0,0,0,0,0,0,0,0,0,0,0,0,0,0,0],"sum_hessian":[6.2E2,2.65E2,3.55E2,2.58E2,7E0,2.52E2,1.03E2,2.29E2,2.9E1,2.06E2,4.6E1,9.6E1,7E0,2.26E2,3E0,1.71E2,3.5E1,9E0,3.7E1,9.4E1,2E0],"tree_param":{"num_deleted":"0","num_feature":"104","num_nodes":"21","size_leaf_vector":"1"}},{"base_weights":[4.726054E-3,-1.0430013E-1,3.9861706E-1,-3.160066E-1,-0E0,-0E0,5.1063144E-1,-3.275112E-1,-0E0,-4.8792925E-2,2.1514302E-1,5.3823704E-1,-0E0,-1.0167992E-2,-0E0,-5.0333324E-3,1.3740179E-3,8.208818E-3,-0E0,1.6775383E-2,-0E0],"categories":[],"categories_nodes":[],"categories_segments":[],"categories_sizes":[],"default_left":[0,0,0,0,0,0,0,0,0,0,0,0,0,0,0,0,0,0,0,0,0],"id":59,"left_children":[1,3,5,7,9,-1,11,13,-1,15,17,19,-1,-1,-1,-1,-1,-1,-1,-1,-1],"loss_changes":[3.2094494E1,1.2641295E1,6.2163982E0,1.0404358E0,4.444387E0,0E0,2.4605331E0,9.1827965E-1,0E0,4.377598E0,1.8661828E0,1.530159E0,0E0,0E0,0E0,0E0,0E0,0E0,0E0,0E0,0E0],"parents":[2147483647,0,0,1,1,2,2,3,3,4,4,6,6,7,7,9,9,10,10,11,11],"right_children":[2,4,6,8,10,-1,12,14,-1,16,18,20,-1,-1,-1,-1,-1,-1,-1,-1,-1],"split_conditions":[8.1E1,3.5E1,4.5E1,1E0,1E0,-0E0,1E0,1E0,-0E0,1E0,1E0,1E0,-0E0,-1.0167992E-2,-0E0,-5.0333324E-3,1.3740179E-3,8.208818E-3,-0E0,1.6775383E-2,-0E0],"split_indices":[1,2,2,70,102,0,46,50,0,101,7,93,0,0,0,0,0,0,0,0,0],"split_type":[0,0,0,0,0,0,0,0,0,0,0,0,0,0,0,0,0,0,0,0,0],"sum_hessian":[6.63E2,5.12E2,1.51E2,1.69E2,3.43E2,4.1E1,1.1E2,1.66E2,3E0,2.77E2,6.6E1,1.06E2,4E0,1.62E2,4E0,1.55E2,1.22E2,6E1,6E0,1.02E2,4E0],"tree_param":{"num_deleted":"0","num_feature":"104","num_nodes":"21","size_leaf_vector":"1"}},{"base_weights":[-0E0,2.6025617E-1,-3.1631535E-1,1.5926257E-1,6.5076363E-1,-3.9147893E-1,-0E0,2.0203684E-1,-0E0,-0E0,6.7977995E-1,-4.0471208E-1,-0E0,-0E0,1.0571561E-2,-0E0,-1.3384924E-3,2.0970326E-2,-0E0,-1.2937183E-2,-0E0],"categories":[],"categories_nodes":[],"categories_segments":[],"categories_sizes":[],"default_left":[0,0,0,0,0,0,0,0,0,0,0,0,0,0,0,0,0,0,0,0,0],"id":60,"left_children":[1,3,5,7,9,11,-1,13,15,-1,17,19,-1,-1,-1,-1,-1,-1,-1,-1,-1],"loss_changes":[5.793343E1,7.3462696E0,7.716017E0,3.9185333E0,8.915367E-1,2.2058716E0,0E0,6.676697E0,7.763435E-2,0E0,5.076313E-1,2.2630043E0,0E0,0E0,0E0,0E0,0E0,0E0,0E0,0E0,0E0],"parents":[2147483647,0,0,1,1,2,2,3,3,4,4,5,5,7,7,8,8,10,10,11,11],"right_children":[2,4,6,8,10,12,-1,14,16,-1,18,20,-1,-1,-1,-1,-1,-1,-1,-1,-1],"split_conditions":[2.7080503E0,1.7E2,6E1,1E0,3.5E1,1E0,-0E0,1E0,1.0986123E0,-0E0,1E0,1E0,-0E0,-0E0,1.0571561E-2,-0E0,-1.3384924E-3,2.0970326E-2,-0E0,-1.2937183E-2,-0E0],"split_indices":[0,1,1,20,2,60,0,6,0,0,96,49,0,0,0,0,0,0,0,0,0],"split_type":[0,0,0,0,0,0,0,0,0,0,0,0,0,0,0,0,0,0,0,0,0],"sum_hessian":[6.75E2,3.75E2,3E2,3.31E2,4.4E1,2.41E2,5.9E1,2.96E2,3.5E1,3E0,4.1E1,2.38E2,3E0,1.55E2,1.41E2,1.1E1,2.4E1,3.9E1,2E0,2.2E2,1.8E1],"tree_param":{"num_deleted":"0","num_feature":"104",