{"learner":{"attributes":{"scikit_learn":"{\"_estimator_type\": \"regressor\"}"},"feature_names":["lojalita","hustota","vstupne_naklady","cas","hmotnost","plocha_prierezu","krajina_AT","krajina_CZ","krajina_DE","krajina_EN","krajina_FR","krajina_HU","krajina_LAT","krajina_NL","krajina_PT","krajina_RO","krajina_SK","krajina_SUI","krajina_SWE"],"feature_types":["float","int","float","float","float","float","i","i","i","i","i","i","i","i","i","i","i","i","i"],"gradient_booster":{"model":{"cats":{"enc":[],"feature_segments":[],"sorted_idx":[]},"gbtree_model_param":{"num_parallel_tree":"1","num_trees":"400"},"iteration_indptr":[0,1,2,3,4,5,6,7,8,9,10,11,12,13,14,15,16,17,18,19,20,21,22,23,24,25,26,27,28,29,30,31,32,33,34,35,36,37,38,39,40,41,42,43,44,45,46,47,48,49,50,51,52,53,54,55,56,57,58,59,60,61,62,63,64,65,66,67,68,69,70,71,72,73,74,75,76,77,78,79,80,81,82,83,84,85,86,87,88,89,90,91,92,93,94,95,96,97,98,99,100,101,102,103,104,105,106,107,108,109,110,111,112,113,114,115,116,117,118,119,120,121,122,123,124,125,126,127,128,129,130,131,132,133,134,135,136,137,138,139,140,141,142,143,144,145,146,147,148,149,150,151,152,153,154,155,156,157,158,159,160,161,162,163,164,165,166,167,168,169,170,171,172,173,174,175,176,177,178,179,180,181,182,183,184,185,186,187,188,189,190,191,192,193,194,195,196,197,198,199,200,201,202,203,204,205,206,207,208,209,210,211,212,213,214,215,216,217,218,219,220,221,222,223,224,225,226,227,228,229,230,231,232,233,234,235,236,237,238,239,240,241,242,243,244,245,246,247,248,249,250,251,252,253,254,255,256,257,258,259,260,261,262,263,264,265,266,267,268,269,270,271,272,273,274,275,276,277,278,279,280,281,282,283,284,285,286,287,288,289,290,291,292,293,294,295,296,297,298,299,300,301,302,303,304,305,306,307,308,309,310,311,312,313,314,315,316,317,318,319,320,321,322,323,324,325,326,327,328,329,330,331,332,333,334,335,336,337,338,339,340,341,342,343,344,345,346,347,348,349,350,351,352,353,354,355,356,357,358,359,360,361,362,363,364,365,366,367,368,369,370,371,372,373,374,375,376,377,378,379,380,381,382,383,384,385,386,387,388,389,390,391,392,393,394,395,396,397,398,399,400],"tree_info":[0,0,0,0,0,0,0,0,0,0,0,0,0,0,0,0,0,0,0,0,0,0,0,0,0,0,0,0,0,0,0,0,0,0,0,0,0,0,0,0,0,0,0,0,0,0,0,0,0,0,0,0,0,0,0,0,0,0,0,0,0,0,0,0,0,0,0,0,0,0,0,0,0,0,0,0,0,0,0,0,0,0,0,0,0,0,0,0,0,0,0,0,0,0,0,0,0,0,0,0,0,0,0,0,0,0,0,0,0,0,0,0,0,0,0,0,0,0,0,0,0,0,0,0,0,0,0,0,0,0,0,0,0,0,0,0,0,0,0,0,0,0,0,0,0,0,0,0,0,0,0,0,0,0,0,0,0,0,0,0,0,0,0,0,0,0,0,0,0,0,0,0,0,0,0,0,0,0,0,0,0,0,0,0,0,0,0,0,0,0,0,0,0,0,0,0,0,0,0,0,0,0,0,0,0,0,0,0,0,0,0,0,0,0,0,0,0,0,0,0,0,0,0,0,0,0,0,0,0,0,0,0,0,0,0,0,0,0,0,0,0,0,0,0,0,0,0,0,0,0,0,0,0,0,0,0,0,0,0,0,0,0,0,0,0,0,0,0,0,0,0,0,0,0,0,0,0,0,0,0,0,0,0,0,0,0,0,0,0,0,0,0,0,0,0,0,0,0,0,0,0,0,0,0,0,0,0,0,0,0,0,0,0,0,0,0,0,0,0,0,0,0,0,0,0,0,0,0,0,0,0,0,0,0,0,0,0,0,0,0,0,0,0,0,0,0,0,0,0,0,0,0,0,0,0,0,0,0,0,0,0,0,0,0,0,0,0,0,0,0,0,0,0,0,0,0,0,0,0,0,0,0,0,0,0,0,0,0,0,0,0,0,0,0,0,0,0,0,0,0],"trees":[{"base_weights":[-0E0,-1.1976848E0,1.095471E0,-1.428925E0,-4.5342955E-1,2.952538E-1,1.6028839E0,-1.4681158E0,3.0696302E-4,-5.8081836E-1,-0E0,7.579457E-1,7.813361E-2,-0E0,1.6111346E0,-0E0,-7.399195E-2,-0E0,-3.1624947E-2,8.015075E-3,-6.111996E-3,-0E0,3.9479263E-2,-4.8292484E-4,1.1444543E-2,8.08195E-2,-0E0],"categories":[],"categories_nodes":[],"categories_segments":[],"categories_sizes":[],"default_left":[0,0,0,0,0,0,0,0,0,0,0,0,0,0,0,0,0,0,0,0,0,0,0,0,0,0,0],"id":0,"left_children":[1,3,5,7,9,11,13,15,-1,17,19,21,23,-1,25,-1,-1,-1,-1,-1,-1,-1,-1,-1,-1,-1,-1],"loss_changes":[9.029884E2,4.090268E1,1.3113925E2,2.1010406E1,6.5020065E0,1.0798655E1,3.0524902E0,3.8798218E0,0E0,3.353468E0,8.193487E-1,1.3840446E0,2.7594457E0,0E0,9.8321533E-1,0E0,0E0,0E0,0E0,0E0,0E0,0E0,0E0,0E0,0E0,0E0,0E0],"parents":[2147483647,0,0,1,1,2,2,3,3,4,4,5,5,6,6,7,7,9,9,10,10,11,11,12,12,14,14],"right_children":[2,4,6,8,10,12,14,16,-1,18,20,22,24,-1,26,-1,-1,-1,-1,-1,-1,-1,-1,-1,-1,-1,-1],"split_conditions":[5.55E0,3E0,1.521E1,1.7704445E0,1E0,7.692308E-2,1.0431069E-1,2E-2,3.0696302E-4,3.01E0,9.2657346E-1,1.3E3,8.618363E0,-0E0,1E0,-0E0,-7.399195E-2,-0E0,-3.1624947E-2,8.015075E-3,-6.111996E-3,-0E0,3.9479263E-2,-4.8292484E-4,1.1444543E-2,8.08195E-2,-0E0],"split_indices":[2,2,2,4,16,0,4,2,0,2,4,1,2,0,10,0,0,0,0,0,0,0,0,0,0,0,0],"split_type":[0,0,0,0,0,0,0,0,0,0,0,0,0,0,0,0,0,0,0,0,0,0,0,0,0,0,0],"sum_hessian":[6.68E2,3.2E2,3.48E2,2.32E2,8.8E1,1.45E2,2.03E2,2.29E2,3E0,6.9E1,1.9E1,3.1E1,1.14E2,1E0,2.02E2,2E0,2.27E2,4E0,6.5E1,1.2E1,7E0,1E0,3E1,5.7E1,5.7E1,2.01E2,1E0],"tree_param":{"num_deleted":"0","num_feature":"19","num_nodes":"27","size_leaf_vector":"1"}},{"base_weights":[-0E0,-1.1971185E0,1.281056E0,-9.142117E-2,-4.7100255E-1,6.513427E-1,9.37001E-2,-3.166838E-2,-7.229787E-2,1.5432498E-1,3.9718557E-2,-3.7917052E-3,-0E0,7.886826E-3,-0E0],"categories":[],"categories_nodes":[],"categories_segments":[],"categories_sizes":[],"default_left":[0,0,0,0,0,0,0,0,0,0,0,0,0,0,0],"id":1,"left_children":[1,3,5,-1,7,9,-1,-1,11,13,-1,-1,-1,-1,-1],"loss_changes":[1.0353574E3,1.3941434E2,9.726434E1,0E0,7.601452E0,6.6842117E0,0E0,0E0,8.961678E-3,1.4114857E-2,0E0,0E0,0E0,0E0,0E0],"parents":[2147483647,0,0,1,1,2,2,4,4,5,5,8,8,9,9],"right_children":[2,4,6,-1,8,10,-1,-1,12,14,-1,-1,-1,-1,-1],"split_conditions":[4.4E1,1.12E1,1.5E2,-9.142117E-2,2.682E1,6.3214287E1,9.37001E-2,-3.166838E-2,4.2E1,8.15E3,3.9718557E-2,-3.7917052E-3,-0E0,7.886826E-3,-0E0],"split_indices":[3,3,3,0,3,3,0,0,3,1,0,0,0,0,0],"split_type":[0,0,0,0,0,0,0,0,0,0,0,0,0,0,0],"sum_hessian":[6.55E2,3.38E2,3.17E2,1.69E2,1.69E2,1.68E2,1.49E2,1.07E2,6.2E1,5E1,1.18E2,5.7E1,5E0,4.8E1,2E0],"tree_param":{"num_deleted":"0","num_feature":"19","num_nodes":"15","size_leaf_vector":"1"}},{"base_weights":[4.682867E-2,-1.1225263E0,1.2609929E0,-1.6935734E0,-4.424478E-1,6.983653E-1,1.0098513E-1,-8.771226E-2,-0E0,-5.142848E-1,-0E0,2.4823155E-1,4.6236973E-2,-3.1560123E-2,-6.558495E-4,-0E0,1.3206343E-2],"categories":[],"categories_nodes":[],"categories_segments":[],"categories_sizes":[],"default_left":[0,0,0,0,0,0,0,0,0,0,0,0,0,0,0,0,0],"id":2,"left_children":[1,3,5,7,9,11,-1,-1,-1,13,-1,15,-1,-1,-1,-1,-1],"loss_changes":[9.6752563E2,1.15809784E2,1.1573346E2,2.226654E1,7.2667313E0,1.3442169E1,0E0,0E0,0E0,5.8950844E0,0E0,1.21389866E-1,0E0,0E0,0E0,0E0,0E0],"parents":[2147483647,0,0,1,1,2,2,3,3,4,4,5,5,9,9,11,11],"right_children":[2,4,6,8,10,12,-1,-1,-1,14,-1,16,-1,-1,-1,-1,-1],"split_conditions":[4.313793E1,1.12E1,1.98E2,1.2010246E1,1.368E1,7.6E1,1.0098513E-1,-8.771226E-2,-0E0,2.9E1,-0E0,7.288495E-2,4.6236973E-2,-3.1560123E-2,-6.558495E-4,-0E0,1.3206343E-2],"split_indices":[3,3,3,2,2,3,0,0,0,3,0,4,0,0,0,0,0],"split_type":[0,0,0,0,0,0,0,0,0,0,0,0,0,0,0,0,0],"sum_hessian":[6.61E2,3.35E2,3.26E2,1.7E2,1.65E2,2.02E2,1.24E2,1.65E2,5E0,1.47E2,1.8E1,8.2E1,1.2E2,1.09E2,3.8E1,9E0,7.3E1],"tree_param":{"num_deleted":"0","num_feature":"19","num_nodes":"17","size_leaf_vector":"1"}},{"base_weights":[2.2565448E-3,-1.0830537E0,1.1986223E0,-1.6384511E0,-4.375429E-1,6.407105E-1,9.070013E-2,-8.494862E-2,-0E0,-5.012244E-1,-0E0,2.069749E-1,4.049342E-2,-3.0786244E-2,-1.3416939E-3,-0E0,1.0758824E-2],"categories":[],"categories_nodes":[],"categories_segments":[],"categories_sizes":[],"default_left":[0,0,0,0,0,0,0,0,0,0,0,0,0,0,0,0,0],"id":3,"left_children":[1,3,5,7,9,11,-1,-1,-1,13,-1,15,-1,-1,-1,-1,-1],"loss_changes":[9.172655E2,1.1438464E2,9.21488E1,2.1058105E1,6.7169685E0,7.693413E0,0E0,0E0,0E0,5.8560333E0,0E0,3.509307E-2,0E0,0E0,0E0,0E0,0E0],"parents":[2147483647,0,0,1,1,2,2,3,3,4,4,5,5,9,9,11,11],"right_children":[2,4,6,8,10,12,-1,-1,-1,14,-1,16,-1,-1,-1,-1,-1],"split_conditions":[4.4E1,1.12E1,1.74E2,8.2E0,1.368E1,7.4E1,9.070013E-2,-8.494862E-2,-0E0,2.9E1,-0E0,1.9E-1,4.049342E-2,-3.0786244E-2,-1.3416939E-3,-0E0,1.0758824E-2],"split_indices":[3,3,3,2,2,3,0,0,0,3,0,0,0,0,0,0,0],"split_type":[0,0,0,0,0,0,0,0,0,0,0,0,0,0,0,0,0],"sum_hessian":[6.86E2,3.58E2,3.28E2,1.8E2,1.78E2,1.87E2,1.41E2,1.74E2,6E0,1.6E2,1.8E1,6.7E1,1.2E2,1.18E2,4.2E1,5E0,6.2E1],"tree_param":{"num_deleted":"0","num_feature":"19","num_nodes":"17","size_leaf_vector":"1"}},{"base_weights":[-1.3646075E-2,-1.0339737E0,1.1110166E0,-1.6659656E0,-4.927286E-1,5.332565E-1,8.281457E-2,-8.585221E-2,-0E0,-7.6017225E-1,-1.8302628E-1,4.438606E-3,6.6189027E-1,-3.935347E-2,-0E0,-1.1837083E-2,-0E0,-0E0,3.35775E-2],"categories":[],"categories_nodes":[],"categories_segments":[],"categories_sizes":[],"default_left":[0,0,0,0,0,0,0,0,0,0,0,0,0,0,0,0,0,0,0],"id":4,"left_children":[1,3,5,7,9,11,-1,-1,-1,13,15,-1,17,-1,-1,-1,-1,-1,-1],"loss_changes":[7.8912396E2,1.05166504E2,8.26073E1,1.8630463E1,1.1617863E1,5.779217E0,0E0,0E0,0E0,2.4280586E0,1.9436536E0,0E0,2.829132E-1,0E0,0E0,0E0,0E0,0E0,0E0],"parents":[2147483647,0,0,1,1,2,2,3,3,4,4,5,5,9,9,10,10,12,12],"right_children":[2,4,6,8,10,12,-1,-1,-1,14,16,-1,18,-1,-1,-1,-1,-1,-1],"split_conditions":[4.313793E1,8.019552E0,1.5E2,8.45E0,1.74E1,5.76E1,8.281457E-2,-8.585221E-2,-0E0,2.257E1,1.405E1,4.438606E-3,8.5E-1,-3.935347E-2,-0E0,-1.1837083E-2,-0E0,-0E0,3.35775E-2],"split_indices":[3,3,3,2,3,3,0,0,0,2,2,0,2,0,0,0,0,0,0],"split_type":[0,0,0,0,0,0,0,0,0,0,0,0,0,0,0,0,0,0,0],"sum_hessian":[6.68E2,3.53E2,3.15E2,1.49E2,2.04E2,1.67E2,1.48E2,1.46E2,3E0,9.3E1,1.11E2,5E1,1.17E2,9E1,3E0,9.7E1,1.4E1,3E0,1.14E2],"tree_param":{"num_deleted":"0","num_feature":"19","num_nodes":"19","size_leaf_vector":"1"}},{"base_weights":[-1.535247E-3,-9.2425215E-1,9.8522323E-1,-1.1739621E0,-3.166188E-1,2.5542334E-1,1.3014135E0,-0E0,-5.913503E-2,-0E0,-3.6429992E-1,-0E0,3.3467188E-1,8.1430274E-1,1.5809109E0,-2.2578008E-2,-0E0,1.3354451E-4,-0E0,1.7096458E-2,-0E0,-0E0,4.0996283E-2,7.945341E-2,-0E0],"categories":[],"categories_nodes":[],"categories_segments":[],"categories_sizes":[],"default_left":[0,0,0,0,0,0,0,0,0,0,0,0,0,0,0,0,0,0,0,0,0,0,0,0,0],"id":5,"left_children":[1,3,5,7,9,11,13,-1,-1,-1,15,17,19,21,23,-1,-1,-1,-1,-1,-1,-1,-1,-1,-1],"loss_changes":[6.452397E2,4.4819244E1,6.73486E1,2.3920593E0,2.9288769E0,1.355504E0,6.4641724E0,0E0,0E0,0E0,3.099101E0,2.8534615E-4,2.8572655E-1,3.477173E-1,8.105774E-1,0E0,0E0,0E0,0E0,0E0,0E0,0E0,0E0,0E0,0E0],"parents":[2147483647,0,0,1,1,2,2,3,3,4,4,5,5,6,6,10,10,11,11,12,12,13,13,14,14],"right_children":[2,4,6,8,10,12,14,-1,-1,-1,16,18,20,22,24,-1,-1,-1,-1,-1,-1,-1,-1,-1,-1],"split_conditions":[6.24E0,2.83E0,1.521E1,2E-2,3.01E0,8.618363E0,4.061E1,-0E0,-5.913503E-2,-0E0,5.55E0,8.2E0,8.15E3,1.6E3,1E0,-2.2578008E-2,-0E0,1.3354451E-4,-0E0,1.7096458E-2,-0E0,-0E0,4.0996283E-2,7.945341E-2,-0E0],"split_indices":[2,2,2,2,2,2,2,0,0,0,2,2,1,1,9,0,0,0,0,0,0,0,0,0,0],"split_type":[0,0,0,0,0,0,0,0,0,0,0,0,0,0,0,0,0,0,0,0,0,0,0,0,0],"sum_hessian":[6.89E2,3.59E2,3.3E2,2.42E2,1.17E2,1.1E2,2.2E2,2E0,2.4E2,9E0,1.08E2,3.8E1,7.2E1,1.01E2,1.19E2,8.2E1,2.6E1,3E1,8E0,7.1E1,1E0,1E0,1E2,1.18E2,1E0],"tree_param":{"num_deleted":"0","num_feature":"19","num_nodes":"25","size_leaf_vector":"1"}},{"base_weights":[2.315311E-2,-9.496953E-1,1.0656201E0,-7.130486E-2,-3.3638304E-1,6.002098E-1,8.472448E-2,-4.2099902E-1,-0E0,2.2520557E-1,4.0629726E-2,-2.2293543E-2,-0E0,-0E0,1.16355205E-2],"categories":[],"categories_nodes":[],"categories_segments":[],"categories_sizes":[],"default_left":[0,0,0,0,0,0,0,0,0,0,0,0,0,0,0],"id":6,"left_children":[1,3,5,-1,7,9,-1,11,-1,13,-1,-1,-1,-1,-1],"loss_changes":[6.9728766E2,8.953107E1,7.611188E1,0E0,3.756054E0,9.865768E0,0E0,1.2340374E0,0E0,6.9450855E-2,0E0,0E0,0E0,0E0,0E0],"parents":[2147483647,0,0,1,1,2,2,4,4,5,5,7,7,9,9],"right_children":[2,4,6,-1,8,10,-1,12,-1,14,-1,-1,-1,-1,-1],"split_conditions":[4.313793E1,1.2428572E1,2.1E2,-7.130486E-2,2.97E1,8.82E1,8.472448E-2,4.021239E0,-0E0,4.464E1,4.0629726E-2,-2.2293543E-2,-0E0,-0E0,1.16355205E-2],"split_indices":[3,3,3,0,3,3,0,4,0,3,0,0,0,0,0],"split_type":[0,0,0,0,0,0,0,0,0,0,0,0,0,0,0],"sum_hessian":[6.67E2,3.43E2,3.24E2,1.81E2,1.62E2,2.02E2,1.22E2,1.21E2,4.1E1,8.9E1,1.13E2,1.13E2,8E0,5E0,8.4E1],"tree_param":{"num_deleted":"0","num_feature":"19","num_nodes":"15","size_leaf_vector":"1"}},{"base_weights":[7.48935E-3,-9.721302E-1,9.429086E-1,-1.504407E0,-4.6602672E-1,4.2141652E-1,7.176274E-2,-7.770674E-2,-0E0,-6.5999705E-1,-1.6046788E-1,5.724584E-2,5.61058E-1,-3.4297507E-2,-0E0,-1.0336352E-2,-0E0,-0E0,3.408229E-3,2.8362617E-2,-0E0],"categories":[],"categories_nodes":[],"categories_segments":[],"categories_sizes":[],"default_left":[0,0,0,0,0,0,0,0,0,0,0,0,0,0,0,0,0,0,0,0,0],"id":7,"left_children":[1,3,5,7,9,11,-1,-1,-1,13,15,17,19,-1,-1,-1,-1,-1,-1,-1,-1],"loss_changes":[6.293925E2,7.2842804E1,7.555939E1,1.6024414E1,6.099766E0,6.3002815E0,0E0,0E0,0E0,1.7158394E0,1.2630291E0,1.7694622E-2,2.4407578E-1,0E0,0E0,0E0,0E0,0E0,0E0,0E0,0E0],"parents":[2147483647,0,0,1,1,2,2,3,3,4,4,5,5,9,9,10,10,11,11,12,12],"right_children":[2,4,6,8,10,12,-1,-1,-1,14,16,18,20,-1,-1,-1,-1,-1,-1,-1,-1],"split_conditions":[3.75E1,8.019552E0,1.3333333E2,1.2010246E1,1.8E1,5.76E1,7.176274E-2,-7.770674E-2,-0E0,1.405E1,1.726328E1,4.313793E1,1E0,-3.4297507E-2,-0E0,-1.0336352E-2,-0E0,-0E0,3.408229E-3,2.8362617E-2,-0E0],"split_indices":[3,3,3,2,3,3,0,0,0,2,2,3,12,0,0,0,0,0,0,0,0],"split_type":[0,0,0,0,0,0,0,0,0,0,0,0,0,0,0,0,0,0,0,0,0],"sum_hessian":[6.67E2,3.23E2,3.44E2,1.43E2,1.8E2,1.81E2,1.63E2,1.4E2,3E0,9.3E1,8.7E1,6.4E1,1.17E2,8.9E1,4E0,7.8E1,9E0,1.8E1,4.6E1,1.15E2,2E0],"tree_param":{"num_deleted":"0","num_feature":"19","num_nodes":"21","size_leaf_vector":"1"}},{"base_weights":[-0E0,-8.907782E-1,9.908973E-1,-1.3672826E0,-3.5110652E-1,5.754841E-1,7.763564E-2,-1.4116474E0,-0E0,-4.8902914E-1,-1.4087191E-2,6.5760748E-3,3.359888E-2,-7.080581E-2,-0E0,-2.6873162E-2,-0E0,-1.5686445E-3,-0E0],"categories":[],"categories_nodes":[],"categories_segments":[],"categories_sizes":[],"default_left":[0,0,0,0,0,0,0,0,0,0,0,0,0,0,0,0,0,0,0],"id":8,"left_children":[1,3,5,7,9,11,-1,13,-1,15,17,-1,-1,-1,-1,-1,-1,-1,-1],"loss_changes":[6.1148975E2,8.07265E1,5.674048E1,1.4960327E1,6.247219E0,4.052162E0,0E0,2.944641E-1,0E0,3.565134E0,4.889466E-2,0E0,0E0,0E0,0E0,0E0,0E0,0E0,0E0],"parents":[2147483647,0,0,1,1,2,2,3,3,4,4,5,5,7,7,9,9,10,10],"right_children":[2,4,6,8,10,12,-1,14,-1,16,18,-1,-1,-1,-1,-1,-1,-1,-1],"split_conditions":[4.62E1,9.9E0,2.1E2,1.2010246E1,2.682E1,6.54E1,7.763564E-2,9.503317E3,-0E0,1.689E1,9.59E0,6.5760748E-3,3.359888E-2,-7.080581E-2,-0E0,-2.6873162E-2,-0E0,-1.5686445E-3,-0E0],"split_indices":[3,3,3,2,3,3,0,5,0,2,2,0,0,0,0,0,0,0,0],"split_type":[0,0,0,0,0,0,0,0,0,0,0,0,0,0,0,0,0,0,0],"sum_hessian":[6.73E2,3.56E2,3.17E2,1.76E2,1.8E2,1.99E2,1.18E2,1.72E2,4E0,1.14E2,6.6E1,4.9E1,1.5E2,1.71E2,1E0,1.05E2,9E0,5.5E1,1.1E1],"tree_param":{"num_deleted":"0","num_feature":"19","num_nodes":"19","size_leaf_vector":"1"}},{"base_weights":[-0E0,-8.517459E-1,9.234281E-1,-1.2000351E0,-2.1807334E-1,5.508378E-1,7.511824E-2,-1.248581E0,-0E0,-2.7000216E-1,-0E0,9.911319E-2,3.291622E-2,-7.346269E-2,-3.6331646E-2,-1.8067626E-2,-0E0,5.021376E-3,-0E0],"categories":[],"categories_nodes":[],"categories_segments":[],"categories_sizes":[],"default_left":[0,0,0,0,0,0,0,0,0,0,0,0,0,0,0,0,0,0,0],"id":9,"left_children":[1,3,5,7,9,11,-1,13,-1,15,-1,17,-1,-1,-1,-1,-1,-1,-1],"loss_changes":[5.400089E2,6.9744965E1,5.1994324E1,1.4274292E1,2.435731E0,6.2422867E0,0E0,3.3384705E0,0E0,1.6370039E0,0E0,6.436825E-3,0E0,0E0,0E0,0E0,0E0,0E0,0E0],"parents":[2147483647,0,0,1,1,2,2,3,3,4,4,5,5,7,7,9,9,11,11],"right_children":[2,4,6,8,10,12,-1,14,-1,16,-1,18,-1,-1,-1,-1,-1,-1,-1],"split_conditions":[4.464E1,1.491E1,2.25E2,8.45E0,1.2481785E1,6.54E1,7.511824E-2,6.204E0,-0E0,2.88E1,-0E0,8.8E3,3.291622E-2,-7.346269E-2,-3.6331646E-2,-1.8067626E-2,-0E0,5.021376E-3,-0E0],"split_indices":[3,3,3,2,2,3,0,3,0,3,0,1,0,0,0,0,0,0,0],"split_type":[0,0,0,0,0,0,0,0,0,0,0,0,0,0,0,0,0,0,0],"sum_hessian":[6.67E2,3.5E2,3.17E2,2.15E2,1.35E2,2.1E2,1.07E2,2.07E2,8E0,1.18E2,1.7E1,5.3E1,1.57E2,1.26E2,8.1E1,7.4E1,4.4E1,5.2E1,1E0],"tree_param":{"num_deleted":"0","num_feature":"19","num_nodes":"19","size_leaf_vector":"1"}},{"base_weights":[-1.2657478E-2,-7.5244606E-1,7.668433E-1,-9.7663766E-1,-1.9848661E-1,3.737958E-1,1.181984E0,-1.0087016E0,-0E0,-0E0,-3.0094925E-1,6.370244E-1,1.14493206E-1,1.1860476E0,-0E0,-0E0,-5.1674064E-2,-0E0,1.3053628E-3,-1.5799906E-2,-0E0,-0E0,3.333808E-2,-0E0,1.0258501E-2,5.950594E-2,-0E0],"categories":[],"categories_nodes":[],"categories_segments":[],"categories_sizes":[],"default_left":[0,0,0,0,0,0,0,0,0,0,0,0,0,0,0,0,0,0,0,0,0,0,0,0,0,0,0],"id":10,"left_children":[1,3,5,7,9,11,13,15,-1,17,19,21,23,25,-1,-1,-1,-1,-1,-1,-1,-1,-1,-1,-1,-1,-1],"loss_changes":[4.0994086E2,3.788893E1,4.3770203E1,1.0000519E1,3.4078646E0,8.959467E0,9.442139E-2,2.8866425E0,0E0,1.4313363E-2,3.5488605E-1,2.0005875E0,1.9919008E0,8.308411E-2,0E0,0E0,0E0,0E0,0E0,0E0,0E0,0E0,0E0,0E0,0E0,0E0,0E0],"parents":[2147483647,0,0,1,1,2,2,3,3,4,4,5,5,6,6,7,7,9,9,10,10,11,11,12,12,13,13],"right_children":[2,4,6,8,10,12,14,16,-1,18,20,22,24,26,-1,-1,-1,-1,-1,-1,-1,-1,-1,-1,-1,-1,-1],"split_conditions":[6.24E0,2.83E0,2.913E1,3.3183071E3,5.3092914E2,2E-1,7.5E-1,2.8274334E1,-0E0,1E0,6E-1,2.256449E-2,9.63E0,1E0,-0E0,-0E0,-5.1674064E-2,-0E0,1.3053628E-3,-1.5799906E-2,-0E0,-0E0,3.333808E-2,-0E0,1.0258501E-2,5.950594E-2,-0E0],"split_indices":[2,2,2,5,5,0,0,5,0,16,0,4,2,9,0,0,0,0,0,0,0,0,0,0,0,0,0],"split_type":[0,0,0,0,0,0,0,0,0,0,0,0,0,0,0,0,0,0,0,0,0,0,0,0,0,0,0],"sum_hessian":[6.91E2,3.58E2,3.33E2,2.43E2,1.15E2,1.87E2,1.46E2,2.37E2,6E0,3.3E1,8.2E1,7.6E1,1.11E2,1.45E2,1E0,9E0,2.28E2,2.2E1,1.1E1,7.7E1,5E0,3E0,7.3E1,3.6E1,7.5E1,1.44E2,1E0],"tree_param":{"num_deleted":"0","num_feature":"19","num_nodes":"27","size_leaf_vector":"1"}},{"base_weights":[5.239562E-4,-6.0644746E-1,8.503461E-1,-8.375266E-1,-6.861625E-2,4.2550975E-1,1.1604341E0,-8.96564E-1,-0E0,2.1228887E-2,-1.8173036E-1,-0E0,4.4009572E-1,-0E0,1.1892978E0,-5.115504E-2,-2.277054E-2,-0E0,5.218928E-3,4.33281E-3,-0E0,-1.2194475E-2,-0E0,2.2547407E-2,-0E0,-0E0,6.0567696E-2],"categories":[],"categories_nodes":[],"categories_segments":[],"categories_sizes":[],"default_left":[0,0,0,0,0,0,0,0,0,0,0,0,0,0,0,0,0,0,0,0,0,0,0,0,0,0,0],"id":11,"left_children":[1,3,5,7,9,11,13,15,17,19,21,-1,23,-1,25,-1,-1,-1,-1,-1,-1,-1,-1,-1,-1,-1,-1],"loss_changes":[3.473319E2,4.311586E1,2.4413986E1,1.7381363E1,2.2028959E0,1.2117958E0,3.4007263E-1,2.0152893E0,1.8521301E-1,3.2634768E-1,8.212035E-1,0E0,7.340622E-1,0E0,2.8778076E-1,0E0,0E0,0E0,0E0,0E0,0E0,0E0,0E0,0E0,0E0,0E0,0E0],"parents":[2147483647,0,0,1,1,2,2,3,3,4,4,5,5,6,6,7,7,8,8,9,9,10,10,12,12,14,14],"right_children":[2,4,6,8,10,12,14,16,18,20,22,-1,24,-1,26,-1,-1,-1,-1,-1,-1,-1,-1,-1,-1,-1,-1],"split_conditions":[8.618363E0,3.66E0,2.946919E1,3.3183071E3,7.5476764E2,1.0431069E-1,7.5476764E2,1.91E0,1E0,8E3,6.24E0,-0E0,8.143008E0,-0E0,1.2063715E0,-5.115504E-2,-2.277054E-2,-0E0,5.218928E-3,4.33281E-3,-0E0,-1.2194475E-2,-0E0,2.2547407E-2,-0E0,-0E0,6.0567696E-2],"split_indices":[2,2,2,5,5,4,5,2,16,1,2,0,4,0,4,0,0,0,0,0,0,0,0,0,0,0,0],"split_type":[0,0,0,0,0,0,0,0,0,0,0,0,0,0,0,0,0,0,0,0,0,0,0,0,0,0,0],"sum_hessian":[6.51E2,3.78E2,2.73E2,2.54E2,1.24E2,1.32E2,1.41E2,2.42E2,1.2E1,4.9E1,7.5E1,3E0,1.29E2,7E0,1.34E2,1.69E2,7.3E1,5E0,7E0,3.7E1,1.2E1,5.1E1,2.4E1,1.26E2,3E0,5E0,1.29E2],"tree_param":{"num_deleted":"0","num_feature":"19","num_nodes":"27","size_leaf_vector":"1"}},{"base_weights":[3.208963E-3,-7.3562986E-1,8.3684087E-1,-1.0920244E0,-2.1965842E-1,4.8217338E-1,6.742169E-2,-6.6060424E-2,-3.1864174E-2,-3.0164632E-1,-0E0,1.935359E-1,3.1210495E-2,-1.5743332E-2,-0E0,-0E0,9.819793E-3],"categories":[],"categories_nodes":[],"categories_segments":[],"categories_sizes":[],"default_left":[0,0,0,0,0,0,0,0,0,0,0,0,0,0,0,0,0],"id":12,"left_children":[1,3,5,7,9,11,-1,-1,-1,13,-1,15,-1,-1,-1,-1,-1],"loss_changes":[4.3287848E2,5.889807E1,4.476651E1,3.673767E0,2.4006786E0,3.6405602E0,0E0,0E0,0E0,4.4975376E-1,0E0,3.214526E-2,0E0,0E0,0E0,0E0,0E0],"parents":[2147483647,0,0,1,1,2,2,3,3,4,4,5,5,9,9,11,11],"right_children":[2,4,6,8,10,12,-1,-1,-1,14,-1,16,-1,-1,-1,-1,-1],"split_conditions":[4.62E1,1.4E1,2.16E2,5.4E0,2.97E1,9E1,6.742169E-2,-6.6060424E-2,-3.1864174E-2,4.021239E0,-0E0,1.1762123E-2,3.1210495E-2,-1.5743332E-2,-0E0,-0E0,9.819793E-3],"split_indices":[3,3,3,3,3,3,0,0,0,4,0,4,0,0,0,0,0],"split_type":[0,0,0,0,0,0,0,0,0,0,0,0,0,0,0,0,0],"sum_hessian":[6.82E2,3.59E2,3.23E2,2E2,1.59E2,2.08E2,1.15E2,1.13E2,8.7E1,1.06E2,5.3E1,8.8E1,1.2E2,1.01E2,5E0,2E0,8.6E1],"tree_param":{"num_deleted":"0","num_feature":"19","num_nodes":"17","size_leaf_vector":"1"}},{"base_weights":[-0E0,-6.9737804E-1,8.290364E-1,-1.0005196E0,-1.19516596E-1,4.929345E-1,6.420275E-2,-1.2467481E0,-6.02892E-1,-1.5831475E-1,-0E0,1.4732495E-1,2.9669022E-2,-6.258868E-2,-0E0,-3.0358313E-2,-0E0,-8.297905E-3,-0E0,-0E0,7.4322373E-3],"categories":[],"categories_nodes":[],"categories_segments":[],"categories_sizes":[],"default_left":[0,0,0,0,0,0,0,0,0,0,0,0,0,0,0,0,0,0,0,0,0],"id":13,"left_children":[1,3,5,7,9,11,-1,13,15,17,-1,19,-1,-1,-1,-1,-1,-1,-1,-1,-1],"loss_changes":[3.9389606E2,5.7843185E1,3.2500473E1,6.243469E0,7.5019145E-1,2.434723E0,0E0,4.020691E-2,2.3648071E-1,1.9496942E-1,0E0,5.248308E-3,0E0,0E0,0E0,0E0,0E0,0E0,0E0,0E0,0E0],"parents":[2147483647,0,0,1,1,2,2,3,3,4,4,5,5,7,7,8,8,9,9,11,11],"right_children":[2,4,6,8,10,12,-1,14,16,18,-1,20,-1,-1,-1,-1,-1,-1,-1,-1,-1],"split_conditions":[4.62E1,1.6E1,2.16E2,5.6E0,3.75E1,7.6E1,6.420275E-2,3.4203107E0,1.5927875E1,5.969026E0,-0E0,7.692308E-2,2.9669022E-2,-6.258868E-2,-0E0,-3.0358313E-2,-0E0,-8.297905E-3,-0E0,-0E0,7.4322373E-3],"split_indices":[3,3,3,3,3,3,0,4,4,4,0,0,0,0,0,0,0,0,0,0,0],"split_type":[0,0,0,0,0,0,0,0,0,0,0,0,0,0,0,0,0,0,0,0,0],"sum_hessian":[6.61E2,3.59E2,3.02E2,2.25E2,1.34E2,1.92E2,1.1E2,1.18E2,1.07E2,1.02E2,3.2E1,6E1,1.32E2,1.17E2,1E0,1.06E2,1E0,9.9E1,3E0,1E0,5.9E1],"tree_param":{"num_deleted":"0","num_feature":"19","num_nodes":"21","size_leaf_vector":"1"}},{"base_weights":[-0E0,-7.1315783E-1,7.11502E-1,-1.0892065E0,-3.285868E-1,4.2772084E-1,6.665928E-2,-5.5797875E-2,-0E0,-4.8495892E-1,-8.8519044E-2,1.4793897E-1,2.9571233E-2,-2.4668667E-2,-0E0,-5.953889E-3,-0E0,-0E0,8.892617E-3],"categories":[],"categories_nodes":[],"categories_segments":[],"categories_sizes":[],"default_left":[0,0,0,0,0,0,0,0,0,0,0,0,0,0,0,0,0,0,0],"id":14,"left_children":[1,3,5,7,9,11,-1,-1,-1,13,15,17,-1,-1,-1,-1,-1,-1,-1],"loss_changes":[3.4351852E2,3.8212723E1,4.5300232E1,6.947754E0,3.7608318E0,7.01598E0,0E0,0E0,0E0,3.2814217E-1,5.2878904E-1,3.9081645E-1,0E0,0E0,0E0,0E0,0E0,0E0,0E0],"parents":[2147483647,0,0,1,1,2,2,3,3,4,4,5,5,9,9,10,10,11,11],"right_children":[2,4,6,8,10,12,-1,-1,-1,14,16,18,-1,-1,-1,-1,-1,-1,-1],"split_conditions":[3.96E1,8.4E0,2.7E2,1.2010246E1,1.8E1,9E1,6.665928E-2,-5.5797875E-2,-0E0,2.257E1,1.726328E1,4.62E1,2.9571233E-2,-2.4668667E-2,-0E0,-5.953889E-3,-0E0,-0E0,8.892617E-3],"split_indices":[3,3,3,2,3,3,0,0,0,2,2,3,0,0,0,0,0,0,0],"split_type":[0,0,0,0,0,0,0,0,0,0,0,0,0,0,0,0,0,0,0],"sum_hessian":[6.57E2,3.28E2,3.29E2,1.5E2,1.78E2,2.43E2,8.6E1,1.48E2,2E0,8.9E1,8.9E1,1.08E2,1.35E2,8.7E1,2E0,8.2E1,7E0,2.4E1,8.4E1],"tree_param":{"num_deleted":"0","num_feature":"19","num_nodes":"19","size_leaf_vector":"1"}},{"base_weights":[6.814423E-3,-5.3961325E-1,6.1620647E-1,-6.5660006E-1,-4.7915187E-2,2.974475E-1,9.41262E-1,-6.972158E-1,7.2676255E-3,-0E0,-1.2744287E-1,4.6963716E-1,9.582994E-2,4.7401942E-2,-0E0,-4.0738408E-2,-1.8400824E-2,2.338451E-3,-0E0,3.4248475E-3,-0E0,-7.0332224E-3,-0E0,2.5216812E-2,-0E0,-0E0,8.395536E-3],"categories":[],"categories_nodes":[],"categories_segments":[],"categories_sizes":[],"default_left":[0,0,0,0,0,0,0,0,0,0,0,0,0,0,0,0,0,0,0,0,0,0,0,0,0,0,0],"id":15,"left_children":[1,3,5,7,9,11,13,15,17,19,21,23,25,-1,-1,-1,-1,-1,-1,-1,-1,-1,-1,-1,-1,-1,-1],"loss_changes":[2.298074E2,1.681327E1,2.5199425E1,1.1077156E1,6.912565E-1,3.2840233E0,1.3575745E-1,1.6134949E0,3.8368598E-2,1.5483046E-1,1.3560462E-1,1.3803234E0,1.0204408E0,0E0,0E0,0E0,0E0,0E0,0E0,0E0,0E0,0E0,0E0,0E0,0E0,0E0,0E0],"parents":[2147483647,0,0,1,1,2,2,3,3,4,4,5,5,6,6,7,7,8,8,9,9,10,10,11,11,12,12],"right_children":[2,4,6,8,10,12,14,16,18,20,22,24,26,-1,-1,-1,-1,-1,-1,-1,-1,-1,-1,-1,-1,-1,-1],"split_conditions":[6.24E0,4E0,2.946919E1,3.848451E3,7.5476764E2,2E-1,7.5E-1,1.96E0,2.9E-1,8E3,6E-1,4.021239E0,1.085E1,4.7401942E-2,-0E0,-4.0738408E-2,-1.8400824E-2,2.338451E-3,-0E0,3.4248475E-3,-0E0,-7.0332224E-3,-0E0,2.5216812E-2,-0E0,-0E0,8.395536E-3],"split_indices":[2,2,2,5,5,0,0,2,0,1,0,4,2,0,0,0,0,0,0,0,0,0,0,0,0,0,0],"split_type":[0,0,0,0,0,0,0,0,0,0,0,0,0,0,0,0,0,0,0,0,0,0,0,0,0,0,0],"sum_hessian":[6.69E2,3.49E2,3.2E2,2.71E2,7.8E1,1.79E2,1.41E2,2.62E2,9E0,3.3E1,4.5E1,7.6E1,1.03E2,1.39E2,2E0,1.71E2,9.1E1,8E0,1E0,2.3E1,1E1,4.2E1,3E0,7E1,6E0,4E1,6.3E1],"tree_param":{"num_deleted":"0","num_feature":"19","num_nodes":"27","size_leaf_vector":"1"}},{"base_weights":[-1.443465E-2,-4.6917838E-1,5.0679296E-1,-6.6211516E-1,-9.497025E-2,3.0885315E-1,1.1284347E0,-7.5930744E-1,-1.5509215E-1,-1.9965091E-1,5.3999186E-2,4.849073E-1,1.3172743E-1,6.0608692E-2,-0E0,-4.2173825E-2,-7.843225E-3,-9.184727E-3,-0E0,-1.1421145E-2,-0E0,5.6122486E-3,-0E0,2.4535177E-2,-0E0,-0E0,1.777357E-2],"categories":[],"categories_nodes":[],"categories_segments":[],"categories_sizes":[],"default_left":[0,0,0,0,0,0,0,0,0,0,0,0,0,0,0,0,0,0,0,0,0,0,0,0,0,0,0],"id":16,"left_children":[1,3,5,7,9,11,13,15,17,19,21,23,25,-1,-1,-1,-1,-1,-1,-1,-1,-1,-1,-1,-1,-1,-1],"loss_changes":[1.6004834E2,2.2010422E1,2.747313E1,5.6337585E0,3.09723E0,4.2299194E0,2.4544678E0,2.954567E0,5.282829E-1,5.3521395E-1,4.269882E-1,3.8124466E-1,4.5129375E0,0E0,0E0,0E0,0E0,0E0,0E0,0E0,0E0,0E0,0E0,0E0,0E0,0E0,0E0],"parents":[2147483647,0,0,1,1,2,2,3,3,4,4,5,5,6,6,7,7,8,8,9,9,10,10,11,11,12,12],"right_children":[2,4,6,8,10,12,14,16,18,20,22,24,26,-1,-1,-1,-1,-1,-1,-1,-1,-1,-1,-1,-1,-1,-1],"split_conditions":[7.3477924E-1,2.2619466E-1,1.8869191E4,1E0,1E0,7.9E3,1E0,1E0,8E3,6.8612385E-1,6.4339817E-1,1E0,3.6191146E0,6.0608692E-2,-0E0,-4.2173825E-2,-7.843225E-3,-9.184727E-3,-0E0,-1.1421145E-2,-0E0,5.6122486E-3,-0E0,2.4535177E-2,-0E0,-0E0,1.777357E-2],"split_indices":[4,4,5,16,16,1,16,10,1,4,4,10,4,0,0,0,0,0,0,0,0,0,0,0,0,0,0],"split_type":[0,0,0,0,0,0,0,0,0,0,0,0,0,0,0,0,0,0,0,0,0,0,0,0,0,0,0],"sum_hessian":[6.56E2,3.56E2,3E2,2.21E2,1.35E2,2.45E2,5.5E1,1.73E2,4.8E1,9.7E1,3.8E1,1E2,1.45E2,4.8E1,7E0,1.41E2,3.2E1,4.7E1,1E0,8.2E1,1.5E1,3.5E1,3E0,9.9E1,1E0,9.8E1,4.7E1],"tree_param":{"num_deleted":"0","num_feature":"19","num_nodes":"27","size_leaf_vector":"1"}},{"base_weights":[-0E0,-6.6670287E-1,6.251578E-1,-1.1028589E0,-3.3958656E-1,1.7329177E-1,8.61471E-1,-5.663952E-2,-0E0,-4.7353193E-1,-6.783404E-2,-0E0,2.1140248E-1,2.9980663E-2,5.9813756E-2,-2.4519403E-2,-0E0,-4.7714435E-3,-0E0,-0E0,1.0653488E-2],"categories":[],"categories_nodes":[],"categories_segments":[],"categories_sizes":[],"default_left":[0,0,0,0,0,0,0,0,0,0,0,0,0,0,0,0,0,0,0,0,0],"id":17,"left_children":[1,3,5,7,9,11,13,-1,-1,15,17,-1,19,-1,-1,-1,-1,-1,-1,-1,-1],"loss_changes":[2.8419836E2,3.598227E1,3.1027328E1,3.5662537E0,4.5795517E0,6.3708353E-1,3.3105164E0,0E0,0E0,1.3258E0,3.5523808E-1,0E0,3.1743526E-2,0E0,0E0,0E0,0E0,0E0,0E0,0E0,0E0],"parents":[2147483647,0,0,1,1,2,2,3,3,4,4,5,5,6,6,9,9,10,10,12,12],"right_children":[2,4,6,8,10,12,14,-1,-1,16,18,-1,20,-1,-1,-1,-1,-1,-1,-1,-1],"split_conditions":[3.75E1,6E0,9.923077E1,5.55E0,1.8E1,4.62E1,3.12E2,-5.663952E-2,-0E0,1.405E1,1.726328E1,-0E0,1.1762123E-2,2.9980663E-2,5.9813756E-2,-2.4519403E-2,-0E0,-4.7714435E-3,-0E0,-0E0,1.0653488E-2],"split_indices":[3,3,3,2,3,3,3,0,0,2,2,0,4,0,0,0,0,0,0,0,0],"split_type":[0,0,0,0,0,0,0,0,0,0,0,0,0,0,0,0,0,0,0,0,0],"sum_hessian":[6.62E2,3.19E2,3.43E2,1.2E2,1.99E2,1.31E2,2.12E2,1.16E2,4E0,1.16E2,8.3E1,3.2E1,9.9E1,1.43E2,6.9E1,1.13E2,3E0,7.6E1,7E0,1E0,9.8E1],"tree_param":{"num_deleted":"0","num_feature":"19","num_nodes":"21","size_leaf_vector":"1"}},{"base_weights":[-0E0,-5.262957E-1,5.559701E-1,-6.2176996E-1,-3.467225E-2,2.2737733E-1,4.165105E-2,-6.455556E-1,-0E0,-9.596953E-2,-0E0,3.8633806E-1,5.1577773E-2,-3.6700603E-2,-1.2489671E-2,-0E0,-6.7935656E-3,2.0961672E-2,-0E0,-0E0,5.5348384E-3],"categories":[],"categories_nodes":[],"categories_segments":[],"categories_sizes":[],"default_left":[0,0,0,0,0,0,0,0,0,0,0,0,0,0,0,0,0,0,0,0,0],"id":18,"left_children":[1,3,5,7,9,11,-1,13,-1,15,-1,17,19,-1,-1,-1,-1,-1,-1,-1,-1],"loss_changes":[2.0401147E2,1.3211922E1,2.3847488E1,5.7944794E0,5.060931E-1,2.5854073E0,0E0,3.1196365E0,0E0,4.7207904E-1,0E0,1.161685E0,5.5022085E-1,0E0,0E0,0E0,0E0,0E0,0E0,0E0,0E0],"parents":[2147483647,0,0,1,1,2,2,3,3,4,4,5,5,7,7,9,9,11,11,12,12],"right_children":[2,4,6,8,10,12,-1,14,-1,16,-1,18,20,-1,-1,-1,-1,-1,-1,-1,-1],"split_conditions":[6.24E0,4E0,2.4067268E1,3.848451E3,6E-1,2E-1,4.165105E-2,6E-1,-0E0,4.12E0,-0E0,5.025763E0,1.085E1,-3.6700603E-2,-1.2489671E-2,-0E0,-6.7935656E-3,2.0961672E-2,-0E0,-0E0,5.5348384E-3],"split_indices":[2,2,2,5,0,0,0,0,0,2,0,4,2,0,0,0,0,0,0,0,0],"split_type":[0,0,0,0,0,0,0,0,0,0,0,0,0,0,0,0,0,0,0,0,0],"sum_hessian":[6.77E2,3.46E2,3.31E2,2.79E2,6.7E1,1.68E2,1.63E2,2.72E2,7E0,5.5E1,1.2E1,6.7E1,1.01E2,2.05E2,6.7E1,7E0,4.8E1,6.2E1,5E0,4.2E1,5.9E1],"tree_param":{"num_deleted":"0","num_feature":"19","num_nodes":"21","size_leaf_vector":"1"}},{"base_weights":[1.3989433E-2,-5.886333E-1,6.027918E-1,-1.004803E0,-2.927282E-1,2.9596418E-1,4.6273436E-2,-1.0359372E0,-0E0,-4.176665E-1,-5.8531854E-2,-0E0,3.4284815E-1,-5.2012432E-2,-0E0,-2.122727E-2,-0E0,-4.1284226E-3,-0E0,-0E0,1.7229376E-2],"categories":[],"categories_nodes":[],"categories_segments":[],"categories_sizes":[],"default_left":[0,0,0,0,0,0,0,0,0,0,0,0,0,0,0,0,0,0,0,0,0],"id":19,"left_children":[1,3,5,7,9,11,-1,13,-1,15,17,-1,19,-1,-1,-1,-1,-1,-1,-1,-1],"loss_changes":[2.3993292E2,3.1209427E1,2.5409935E1,5.859329E0,3.6362E0,1.640852E0,0E0,2.7862549E-2,0E0,3.5791588E-1,2.8461668E-1,0E0,7.616043E-2,0E0,0E0,0E0,0E0,0E0,0E0,0E0,0E0],"parents":[2147483647,0,0,1,1,2,2,3,3,4,4,5,5,7,7,9,9,10,10,12,12],"right_children":[2,4,6,8,10,12,-1,14,-1,16,18,-1,20,-1,-1,-1,-1,-1,-1,-1,-1],"split_conditions":[3.9E1,6.204E0,1.62E2,1.2010246E1,1.8E1,5.2E1,4.6273436E-2,3.6756635E0,-0E0,3.413E1,1.726328E1,-0E0,1.6E3,-5.2012432E-2,-0E0,-2.122727E-2,-0E0,-4.1284226E-3,-0E0,-0E0,1.7229376E-2],"split_indices":[3,3,3,2,3,3,0,4,0,2,2,0,1,0,0,0,0,0,0,0,0],"split_type":[0,0,0,0,0,0,0,0,0,0,0,0,0,0,0,0,0,0,0,0,0],"sum_hessian":[6.56E2,3.2E2,3.36E2,1.16E2,2.04E2,1.9E2,1.46E2,1.14E2,2E0,1.14E2,9E1,3.7E1,1.53E2,1.13E2,1E0,1.12E2,2E0,8.2E1,8E0,1E0,1.52E2],"tree_param":{"num_deleted":"0","num_feature":"19","num_nodes":"21","size_leaf_vector":"1"}},{"base_weights":[-0E0,-4.3920097E-1,5.7760274E-1,-5.9029627E-1,-0E0,3.7258425E-1,5.408904E-2,-6.2703574E-1,-0E0,3.9725386E-2,-9.9427804E-2,2.6662836E-2,1.8244556E-1,-0E0,-3.1874683E-2,4.9890875E-4,-0E0,3.92381E-3,-0E0,-5.116035E-3,-0E0,-0E0,1.0793616E-2],"categories":[],"categories_nodes":[],"categories_segments":[],"categories_sizes":[],"default_left":[0,0,0,0,0,0,0,0,0,0,0,0,0,0,0,0,0,0,0,0,0,0,0],"id":20,"left_children":[1,3,5,7,9,11,-1,13,15,17,19,-1,21,-1,-1,-1,-1,-1,-1,-1,-1,-1,-1],"loss_changes":[1.7752792E2,2.4625671E1,1.9914116E1,9.08297E0,6.822708E-1,2.6889496E0,0E0,1.2776413E0,1.7921517E-3,2.359874E-1,2.3381472E-2,0E0,4.8597193E-1,0E0,0E0,0E0,0E0,0E0,0E0,0E0,0E0,0E0,0E0],"parents":[2147483647,0,0,1,1,2,2,3,3,4,4,5,5,7,7,8,8,9,9,10,10,12,12],"right_children":[2,4,6,8,10,12,-1,14,16,18,20,-1,22,-1,-1,-1,-1,-1,-1,-1,-1,-1,-1],"split_conditions":[8.618363E0,4E0,7.481E1,3.848451E3,1.4119574E3,2E-1,5.408904E-2,2.8274334E1,2.9E-1,8E3,8.3E-1,2.6662836E-2,1.2954399E1,-0E0,-3.1874683E-2,4.9890875E-4,-0E0,3.92381E-3,-0E0,-5.116035E-3,-0E0,-0E0,1.0793616E-2],"split_indices":[2,2,2,5,5,0,0,5,0,1,0,0,2,0,0,0,0,0,0,0,0,0,0],"split_type":[0,0,0,0,0,0,0,0,0,0,0,0,0,0,0,0,0,0,0,0,0,0,0],"sum_hessian":[6.8E2,3.88E2,2.92E2,2.81E2,1.07E2,2.27E2,6.5E1,2.71E2,1E1,5.9E1,4.8E1,9.9E1,1.28E2,6E0,2.65E2,8E0,2E0,4.6E1,1.3E1,4.7E1,1E0,2.9E1,9.9E1],"tree_param":{"num_deleted":"0","num_feature":"19","num_nodes":"23","size_leaf_vector":"1"}},{"base_weights":[1.4861331E-3,-4.504092E-1,4.677066E-1,-6.254435E-1,-1.8270506E-1,2.4899118E-1,8.2084996E-1,-6.479252E-1,-0E0,-2.275998E-1,-0E0,4.2081636E-1,7.288193E-2,4.124274E-2,-0E0,-3.5487093E-2,-3.1003284E-3,-0E0,-1.2427551E-2,-0E0,2.2154056E-2,-0E0,5.7205656E-3],"categories":[],"categories_nodes":[],"categories_segments":[],"categories_sizes":[],"default_left":[0,0,0,0,0,0,0,0,0,0,0,0,0,0,0,0,0,0,0,0,0,0,0],"id":21,"left_children":[1,3,5,7,9,11,13,15,-1,17,-1,19,21,-1,-1,-1,-1,-1,-1,-1,-1,-1,-1],"loss_changes":[1.4672151E2,1.1122917E1,1.948574E1,4.3229446E0,1.6557026E0,4.426692E0,1.1051178E-1,2.6553192E0,0E0,1.1195927E0,0E0,1.2150993E0,6.4881873E-1,0E0,0E0,0E0,0E0,0E0,0E0,0E0,0E0,0E0,0E0],"parents":[2147483647,0,0,1,1,2,2,3,3,4,4,5,5,6,6,7,7,9,9,11,11,12,12],"right_children":[2,4,6,8,10,12,14,16,-1,18,-1,20,22,-1,-1,-1,-1,-1,-1,-1,-1,-1,-1],"split_conditions":[6.24E0,1.96E0,4.061E1,1.7704445E0,6E-1,2E-1,7.5E-1,1E0,-0E0,1.8613936E-2,-0E0,2.256449E-2,9.923999E0,4.124274E-2,-0E0,-3.5487093E-2,-3.1003284E-3,-0E0,-1.2427551E-2,-0E0,2.2154056E-2,-0E0,5.7205656E-3],"split_indices":[2,2,2,4,0,0,0,12,0,4,0,4,2,0,0,0,0,0,0,0,0,0,0],"split_type":[0,0,0,0,0,0,0,0,0,0,0,0,0,0,0,0,0,0,0,0,0,0,0],"sum_hessian":[6.76E2,3.38E2,3.38E2,1.85E2,1.53E2,2.28E2,1.1E2,1.82E2,3E0,1.27E2,2.6E1,9.4E1,1.34E2,1.09E2,1E0,1.55E2,2.7E1,4E0,1.23E2,4E0,9E1,3.6E1,9.8E1],"tree_param":{"num_deleted":"0","num_feature":"19","num_nodes":"23","size_leaf_vector":"1"}},{"base_weights":[-1.1720872E-2,-5.7840437E-1,5.148772E-1,-9.051153E-1,-3.1889915E-1,3.1684867E-1,5.075362E-2,-4.658043E-2,-0E0,-3.4114912E-1,-0E0,3.1045219E-2,2.0945346E-2,-1.9011185E-2,-0E0,-0E0,1.578709E-3],"categories":[],"categories_nodes":[],"categories_segments":[],"categories_sizes":[],"default_left":[0,0,0,0,0,0,0,0,0,0,0,0,0,0,0,0,0],"id":22,"left_children":[1,3,5,7,9,11,-1,-1,-1,13,-1,15,-1,-1,-1,-1,-1],"loss_changes":[2.032334E2,1.9141548E1,2.4594566E1,4.7360916E0,1.9055576E0,5.5248775E0,0E0,0E0,0E0,1.5613174E0,0E0,1.1528581E-3,0E0,0E0,0E0,0E0,0E0],"parents":[2147483647,0,0,1,1,2,2,3,3,4,4,5,5,9,9,11,11],"right_children":[2,4,6,8,10,12,-1,-1,-1,14,-1,16,-1,-1,-1,-1,-1],"split_conditions":[3.257143E1,5.4E0,3E2,1.2010246E1,2.257E1,6.6E1,5.075362E-2,-4.658043E-2,-0E0,2.4E1,-0E0,1.1762123E-2,2.0945346E-2,-1.9011185E-2,-0E0,-0E0,1.578709E-3],"split_indices":[3,3,3,2,2,3,0,0,0,3,0,4,0,0,0,0,0],"split_type":[0,0,0,0,0,0,0,0,0,0,0,0,0,0,0,0,0],"sum_hessian":[6.6E2,3.22E2,3.38E2,1.23E2,1.99E2,2.61E2,7.7E1,1.21E2,2E0,1.89E2,1E1,8.5E1,1.76E2,1.61E2,2.8E1,2E0,8.3E1],"tree_param":{"num_deleted":"0","num_feature":"19","num_nodes":"17","size_leaf_vector":"1"}},{"base_weights":[-0E0,-5.551183E-1,4.9124348E-1,-8.4855974E-1,-2.9730973E-1,3.1479844E-1,5.1440068E-2,-4.3866012E-2,-0E0,-1.8617233E-2,-2.5574645E-2,3.62352E-2,2.0740198E-2,-0E0,-1.5474352E-3,-0E0,2.1666808E-3],"categories":[],"categories_nodes":[],"categories_segments":[],"categories_sizes":[],"default_left":[0,0,0,0,0,0,0,0,0,0,0,0,0,0,0,0,0],"id":23,"left_children":[1,3,5,7,9,11,-1,-1,-1,-1,13,15,-1,-1,-1,-1,-1],"loss_changes":[1.9167798E2,1.6410263E1,2.5896431E1,6.923981E-1,1.9523201E0,6.1190033E0,0E0,0E0,0E0,0E0,1.6824372E-2,2.1749258E-2,0E0,0E0,0E0,0E0,0E0],"parents":[2147483647,0,0,1,1,2,2,3,3,4,4,5,5,10,10,11,11],"right_children":[2,4,6,8,10,12,-1,-1,-1,-1,14,16,-1,-1,-1,-1,-1],"split_conditions":[3.257143E1,6E0,3.12E2,1.102699E0,1.8E1,6.6E1,5.1440068E-2,-4.3866012E-2,-0E0,-1.8617233E-2,1.95E1,3.9E1,2.0740198E-2,-0E0,-1.5474352E-3,-0E0,2.1666808E-3],"split_indices":[3,3,3,4,3,3,0,0,0,0,3,3,0,0,0,0,0],"split_type":[0,0,0,0,0,0,0,0,0,0,0,0,0,0,0,0,0],"sum_hessian":[6.84E2,3.16E2,3.68E2,1.28E2,1.88E2,2.96E2,7.2E1,1.2E2,8E0,1.3E2,5.8E1,9.5E1,2.01E2,4E0,5.4E1,2E1,7.5E1],"tree_param":{"num_deleted":"0","num_feature":"19","num_nodes":"17","size_leaf_vector":"1"}},{"base_weights":[-0E0,-5.4619026E-1,4.682135E-1,-9.66541E-1,-3.494019E-1,2.8854534E-1,4.8410468E-2,-4.9705517E-2,-0E0,-4.171477E-1,-3.2863975E-2,3.0434305E-2,1.9207418E-2,-2.1486752E-2,-0E0,-2.725883E-3,-0E0,-0E0,1.7715987E-3],"categories":[],"categories_nodes":[],"categories_segments":[],"categories_sizes":[],"default_left":[0,0,0,0,0,0,0,0,0,0,0,0,0,0,0,0,0,0,0],"id":24,"left_children":[1,3,5,7,9,11,-1,-1,-1,13,15,17,-1,-1,-1,-1,-1,-1,-1],"loss_changes":[1.7604082E2,1.618274E1,2.4430336E1,2.7261734E0,2.7379932E0,5.1143284E0,0E0,0E0,0E0,1.2120876E0,1.1001997E-1,5.6889057E-3,0E0,0E0,0E0,0E0,0E0,0E0,0E0],"parents":[2147483647,0,0,1,1,2,2,3,3,4,4,5,5,9,9,10,10,11,11],"right_children":[2,4,6,8,10,12,-1,-1,-1,14,16,18,-1,-1,-1,-1,-1,-1,-1],"split_conditions":[2.97E1,3.6E0,3.12E2,5.55E0,1.8E1,6.6E1,4.8410468E-2,-4.9705517E-2,-0E0,2.257E1,1.689E1,3.864E1,1.9207418E-2,-2.1486752E-2,-0E0,-2.725883E-3,-0E0,-0E0,1.7715987E-3],"split_indices":[3,3,3,2,3,3,0,0,0,2,2,3,0,0,0,0,0,0,0],"split_type":[0,0,0,0,0,0,0,0,0,0,0,0,0,0,0,0,0,0,0],"sum_hessian":[6.69E2,3.06E2,3.63E2,7.7E1,2.29E2,2.86E2,7.7E1,7.5E1,2E0,1.73E2,5.6E1,9.5E1,1.91E2,1.69E2,4E0,5.1E1,5E0,2.3E1,7.2E1],"tree_param":{"num_deleted":"0","num_feature":"19","num_nodes":"19","size_leaf_vector":"1"}},{"base_weights":[-0E0,-5.076865E-1,4.2828074E-1,-8.224212E-1,-2.8988257E-1,9.0525515E-2,6.29032E-1,-4.279142E-2,-0E0,-3.1221038E-1,-0E0,-0E0,6.3002706E-3,2.0996895E-2,4.5980066E-2,-1.723754E-2,-0E0],"categories":[],"categories_nodes":[],"categories_segments":[],"categories_sizes":[],"default_left":[0,0,0,0,0,0,0,0,0,0,0,0,0,0,0,0,0],"id":25,"left_children":[1,3,5,7,9,11,13,-1,-1,15,-1,-1,-1,-1,-1,-1,-1],"loss_changes":[1.5107454E2,1.3647812E1,2.1666405E1,4.194145E0,1.9592838E0,4.1074646E-1,3.2929916E0,0E0,0E0,1.1092777E0,0E0,0E0,0E0,0E0,0E0,0E0,0E0],"parents":[2147483647,0,0,1,1,2,2,3,3,4,4,5,5,6,6,9,9],"right_children":[2,4,6,8,10,12,14,-1,-1,16,-1,-1,-1,-1,-1,-1,-1],"split_conditions":[2.97E1,4.968E0,9.923077E1,5.55E0,2.257E1,4.62E1,3.3E2,-4.279142E-2,-0E0,2.4E1,-0E0,-0E0,6.3002706E-3,2.0996895E-2,4.5980066E-2,-1.723754E-2,-0E0],"split_indices":[3,3,3,2,2,3,3,0,0,3,0,0,0,0,0,0,0],"split_type":[0,0,0,0,0,0,0,0,0,0,0,0,0,0,0,0,0],"sum_hessian":[6.76E2,3.05E2,3.71E2,1.04E2,2.01E2,1.53E2,2.18E2,1.01E2,3E0,1.92E2,9E0,5.3E1,1E2,1.51E2,6.7E1,1.65E2,2.7E1],"tree_param":{"num_deleted":"0","num_feature":"19","num_nodes":"17","size_leaf_vector":"1"}},{"base_weights":[-1.0624607E-2,-3.1146786E-1,4.5833454E-1,-5.46716E-1,-8.95136E-2,2.399182E-1,6.750567E-1,-5.8769804E-1,-0E0,-1.4377081E-1,-0E0,2.4477169E-1,-0E0,7.126113E-1,-0E0,-0E0,-3.060076E-2,-8.642479E-3,-0E0,6.288441E-4,-2.6283844E-4,1.2367149E-2,-0E0,3.5818763E-2,-0E0],"categories":[],"categories_nodes":[],"categories_segments":[],"categories_sizes":[],"default_left":[0,0,0,0,0,0,0,0,0,0,0,0,0,0,0,0,0,0,0,0,0,0,0,0,0],"id":26,"left_children":[1,3,5,7,9,11,13,15,-1,17,19,21,-1,23,-1,-1,-1,-1,-1,-1,-1,-1,-1,-1,-1],"loss_changes":[9.5077896E1,1.8259483E1,6.0654755E0,6.4619904E0,1.1648049E0,2.4715424E-1,3.02845E-1,2.3714333E0,0E0,4.4564676E-1,7.4782055E-3,1.3368702E-1,0E0,3.542328E-2,0E0,0E0,0E0,0E0,0E0,0E0,0E0,0E0,0E0,0E0,0E0],"parents":[2147483647,0,0,1,1,2,2,3,3,4,4,5,5,6,6,7,7,9,9,10,10,11,11,13,13],"right_children":[2,4,6,8,10,12,14,16,-1,18,20,22,-1,24,-1,-1,-1,-1,-1,-1,-1,-1,-1,-1,-1],"split_conditions":[1.085E1,1.91E0,4.061E1,3.3183071E3,5.55E0,1E0,1E0,2.8274334E1,-0E0,1E0,5.3092914E2,8.4E3,-0E0,1E0,-0E0,-0E0,-3.060076E-2,-8.642479E-3,-0E0,6.288441E-4,-2.6283844E-4,1.2367149E-2,-0E0,3.5818763E-2,-0E0],"split_indices":[2,2,2,5,2,9,14,5,0,16,5,1,0,10,0,0,0,0,0,0,0,0,0,0,0],"split_type":[0,0,0,0,0,0,0,0,0,0,0,0,0,0,0,0,0,0,0,0,0,0,0,0,0],"sum_hessian":[6.59E2,4.1E2,2.49E2,1.81E2,2.29E2,1.46E2,1.03E2,1.74E2,7E0,1.39E2,9E1,1.44E2,2E0,9.2E1,1.1E1,8E0,1.66E2,1.08E2,3.1E1,2.4E1,6.6E1,1.43E2,1E0,9.1E1,1E0],"tree_param":{"num_deleted":"0","num_feature":"19","num_nodes":"25","size_leaf_vector":"1"}},{"base_weights":[1.549674E-2,-4.3959987E-1,4.1641915E-1,-7.0862305E-1,-2.3697016E-1,1.887387E-1,3.439283E-2,-3.6663115E-2,-0E0,-2.5188902E-1,-0E0,-0E0,2.3305672E-1,-1.4829661E-2,-0E0,-0E0,1.1722489E-2],"categories":[],"categories_nodes":[],"categories_segments":[],"categories_sizes":[],"default_left":[0,0,0,0,0,0,0,0,0,0,0,0,0,0,0,0,0],"id":27,"left_children":[1,3,5,7,9,11,-1,-1,-1,13,-1,-1,15,-1,-1,-1,-1],"loss_changes":[1.2870573E2,1.1309238E1,1.7864952E1,3.3299942E0,1.2216291E0,1.3850803E0,0E0,0E0,0E0,1.4443398E0,0E0,0E0,5.340576E-3,0E0,0E0,0E0,0E0],"parents":[2147483647,0,0,1,1,2,2,3,3,4,4,5,5,9,9,12,12],"right_children":[2,4,6,8,10,12,-1,-1,-1,14,-1,-1,16,-1,-1,-1,-1],"split_conditions":[3.6E1,6E0,1.62E2,1.2010246E1,3.587E1,5.2E1,3.439283E-2,-3.6663115E-2,-0E0,2.4E1,-0E0,-0E0,1.6E3,-1.4829661E-2,-0E0,-0E0,1.1722489E-2],"split_indices":[3,3,3,2,2,3,0,0,0,3,0,0,1,0,0,0,0],"split_type":[0,0,0,0,0,0,0,0,0,0,0,0,0,0,0,0,0],"sum_hessian":[6.86E2,3.15E2,3.71E2,1.14E2,2.01E2,2.21E2,1.5E2,1.12E2,2E0,1.96E2,5E0,5.4E1,1.67E2,1.55E2,4.1E1,2E0,1.65E2],"tree_param":{"num_deleted":"0","num_feature":"19","num_nodes":"17","size_leaf_vector":"1"}},{"base_weights":[-0E0,-4.4660312E-1,3.9342743E-1,-8.1475836E-1,-2.7817655E-1,2.4400257E-1,4.45293E-2,-4.1967917E-2,-0E0,-3.3197102E-1,-2.7142866E-2,5.545867E-2,1.7176205E-2,-1.7155034E-2,-0E0,-0E0,-1.9277051E-3,-0E0,3.3291192E-3],"categories":[],"categories_nodes":[],"categories_segments":[],"categories_sizes":[],"default_left":[0,0,0,0,0,0,0,0,0,0,0,0,0,0,0,0,0,0,0],"id":28,"left_children":[1,3,5,7,9,11,-1,-1,-1,13,15,17,-1,-1,-1,-1,-1,-1,-1],"loss_changes":[1.20497536E2,1.1925114E1,1.9640514E1,2.0497055E0,1.3823452E0,3.5564098E0,0E0,0E0,0E0,8.965492E-1,3.3154417E-2,6.800565E-2,0E0,0E0,0E0,0E0,0E0,0E0,0E0],"parents":[2147483647,0,0,1,1,2,2,3,3,4,4,5,5,9,9,10,10,11,11],"right_children":[2,4,6,8,10,12,-1,-1,-1,14,16,18,-1,-1,-1,-1,-1,-1,-1],"split_conditions":[3.257143E1,3.6E0,3.6E2,5.55E0,2.04E1,8.3E1,4.45293E-2,-4.1967917E-2,-0E0,3.413E1,1.01E0,3.9E1,1.7176205E-2,-1.7155034E-2,-0E0,-0E0,-1.9277051E-3,-0E0,3.3291192E-3],"split_indices":[3,3,3,2,3,3,0,0,0,2,2,3,0,0,0,0,0,0,0],"split_type":[0,0,0,0,0,0,0,0,0,0,0,0,0,0,0,0,0,0,0],"sum_hessian":[6.67E2,3.07E2,3.6E2,7.5E1,2.32E2,2.96E2,6.4E1,7.3E1,2E0,1.72E2,6E1,1.25E2,1.71E2,1.68E2,4E0,1.3E1,4.7E1,2.6E1,9.9E1],"tree_param":{"num_deleted":"0","num_feature":"19","num_nodes":"19","size_leaf_vector":"1"}},{"base_weights":[4.0133153E-3,-4.149129E-1,3.7973294E-1,-6.9250363E-1,-2.260496E-1,2.4545696E-1,4.119582E-2,-3.5283282E-2,-0E0,-2.4346077E-1,-0E0,-0E0,1.53215155E-2,-1.4351386E-2,-0E0],"categories":[],"categories_nodes":[],"categories_segments":[],"categories_sizes":[],"default_left":[0,0,0,0,0,0,0,0,0,0,0,0,0,0,0],"id":29,"left_children":[1,3,5,7,9,11,-1,-1,-1,13,-1,-1,-1,-1,-1],"loss_changes":[1.0843085E2,1.061837E1,1.469875E1,1.5999451E0,1.4101009E0,3.1004105E0,0E0,0E0,0E0,9.8137856E-1,0E0,0E0,0E0,0E0,0E0],"parents":[2147483647,0,0,1,1,2,2,3,3,4,4,5,5,9,9],"right_children":[2,4,6,8,10,12,-1,-1,-1,14,-1,-1,-1,-1,-1],"split_conditions":[3.257143E1,4.968E0,3.3E2,1.2010246E1,3.587E1,5.7E1,4.119582E-2,-3.5283282E-2,-0E0,2.184E1,-0E0,-0E0,1.53215155E-2,-1.4351386E-2,-0E0],"split_indices":[3,3,3,2,2,3,0,0,0,3,0,0,0,0,0],"split_type":[0,0,0,0,0,0,0,0,0,0,0,0,0,0,0],"sum_hessian":[6.7E2,3.1E2,3.6E2,1.04E2,2.06E2,2.97E2,6.3E1,1.03E2,1E0,2E2,6E0,7.7E1,2.2E2,1.53E2,4.7E1],"tree_param":{"num_deleted":"0","num_feature":"19","num_nodes":"15","size_leaf_vector":"1"}},{"base_weights":[-0E0,-4.2279226E-1,3.5096556E-1,-7.5049955E-1,-2.5732914E-1,7.801287E-2,5.104745E-1,-3.9749403E-2,-0E0,-2.7349988E-1,-0E0,-0E0,9.9378504E-2,1.7597077E-2,4.0750932E-2,-1.5655031E-2,-0E0,-0E0,5.0663133E-3],"categories":[],"categories_nodes":[],"categories_segments":[],"categories_sizes":[],"default_left":[0,0,0,0,0,0,0,0,0,0,0,0,0,0,0,0,0,0,0],"id":30,"left_children":[1,3,5,7,9,11,13,-1,-1,15,-1,-1,17,-1,-1,-1,-1,-1,-1],"loss_changes":[1.0396469E2,1.0218441E1,1.3378075E1,3.7288055E0,1.0533686E0,1.0193062E-1,2.3529968E0,0E0,0E0,8.668442E-1,0E0,0E0,2.3249507E-2,0E0,0E0,0E0,0E0,0E0,0E0],"parents":[2147483647,0,0,1,1,2,2,3,3,4,4,5,5,6,6,9,9,12,12],"right_children":[2,4,6,8,10,12,14,-1,-1,16,-1,-1,18,-1,-1,-1,-1,-1,-1],"split_conditions":[3.257143E1,3.6E0,9.923077E1,3.77E0,1.689E1,4.8E1,4.2E2,-3.9749403E-2,-0E0,2.1E1,-0E0,-0E0,1.1762123E-2,1.7597077E-2,4.0750932E-2,-1.5655031E-2,-0E0,-0E0,5.0663133E-3],"split_indices":[3,3,3,2,2,3,3,0,0,3,0,0,4,0,0,0,0,0,0],"split_type":[0,0,0,0,0,0,0,0,0,0,0,0,0,0,0,0,0,0,0],"sum_hessian":[6.81E2,3.07E2,3.74E2,8.1E1,2.26E2,1.55E2,2.19E2,7.7E1,4E0,2.13E2,1.3E1,5.3E1,1.02E2,1.69E2,5E1,1.69E2,4.4E1,2E0,1E2],"tree_param":{"num_deleted":"0","num_feature":"19","num_nodes":"19","size_leaf_vector":"1"}},{"base_weights":[6.15723E-4,-3.89267E-1,3.4131256E-1,-7.048503E-1,-2.364588E-1,1.11652896E-1,5.4808855E-1,-3.7650555E-2,-0E0,-2.522668E-1,-0E0,-0E0,1.4225979E-1,3.510924E-1,3.9344892E-2,-1.4004237E-2,-0E0,-0E0,7.2116787E-3,1.7634379E-2,-0E0],"categories":[],"categories_nodes":[],"categories_segments":[],"categories_sizes":[],"default_left":[0,0,0,0,0,0,0,0,0,0,0,0,0,0,0,0,0,0,0,0,0],"id":31,"left_children":[1,3,5,7,9,11,13,-1,-1,15,-1,-1,17,19,-1,-1,-1,-1,-1,-1,-1],"loss_changes":[9.314129E1,9.10659E0,1.422979E1,3.413723E0,1.2332525E0,5.6102276E-1,3.446312E-1,0E0,0E0,9.2535114E-1,0E0,0E0,4.5476913E-2,2.3801804E-2,0E0,0E0,0E0,0E0,0E0,0E0,0E0],"parents":[2147483647,0,0,1,1,2,2,3,3,4,4,5,5,6,6,9,9,12,12,13,13],"right_children":[2,4,6,8,10,12,14,-1,-1,16,-1,-1,18,20,-1,-1,-1,-1,-1,-1,-1],"split_conditions":[3.257143E1,3.6E0,1.305E2,3.77E0,1.452E1,4.62E1,4.2E2,-3.7650555E-2,-0E0,2.4E1,-0E0,-0E0,1.1762123E-2,1E0,3.9344892E-2,-1.4004237E-2,-0E0,-0E0,7.2116787E-3,1.7634379E-2,-0E0],"split_indices":[3,3,3,2,2,3,3,0,0,3,0,0,4,15,0,0,0,0,0,0,0],"split_type":[0,0,0,0,0,0,0,0,0,0,0,0,0,0,0,0,0,0,0,0,0],"sum_hessian":[6.83E2,3.11E2,3.72E2,7.9E1,2.32E2,1.95E2,1.77E2,7.4E1,5E0,2.22E2,1E1,5.1E1,1.44E2,1.22E2,5.5E1,1.9E2,3.2E1,2E0,1.42E2,1.21E2,1E0],"tree_param":{"num_deleted":"0","num_feature":"19","num_nodes":"21","size_leaf_vector":"1"}},{"base_weights":[6.037341E-3,-3.684781E-1,3.289467E-1,-6.022061E-1,-1.8983431E-1,6.006297E-2,4.7169945E-1,-6.262851E-1,-0E0,-2.041754E-1,-0E0,-0E0,7.9097696E-2,1.5232059E-2,3.418953E-2,-3.1588856E-2,-0E0,-1.1519372E-2,-0E0,-0E0,4.0375954E-3],"categories":[],"categories_nodes":[],"categories_segments":[],"categories_sizes":[],"default_left":[0,0,0,0,0,0,0,0,0,0,0,0,0,0,0,0,0,0,0,0,0],"id":32,"left_children":[1,3,5,7,9,11,13,15,-1,17,-1,-1,19,-1,-1,-1,-1,-1,-1,-1,-1],"loss_changes":[8.288713E1,7.882118E0,1.14902115E1,2.7060661E0,9.386196E-1,1.1387533E-1,1.1948586E0,3.200531E-3,0E0,4.5070934E-1,0E0,0E0,1.52516365E-2,0E0,0E0,0E0,0E0,0E0,0E0,0E0,0E0],"parents":[2147483647,0,0,1,1,2,2,3,3,4,4,5,5,6,6,7,7,9,9,12,12],"right_children":[2,4,6,8,10,12,14,16,-1,18,-1,-1,20,-1,-1,-1,-1,-1,-1,-1,-1],"split_conditions":[3.257143E1,4.968E0,9.923077E1,1.2010246E1,3.587E1,4.62E1,3.12E2,2.3524246E0,-0E0,2.3E1,-0E0,-0E0,1.1762123E-2,1.5232059E-2,3.418953E-2,-3.1588856E-2,-0E0,-1.1519372E-2,-0E0,-0E0,4.0375954E-3],"split_indices":[3,3,3,2,2,3,3,4,0,3,0,0,4,0,0,0,0,0,0,0,0],"split_type":[0,0,0,0,0,0,0,0,0,0,0,0,0,0,0,0,0,0,0,0,0],"sum_hessian":[6.67E2,3.01E2,3.66E2,1.08E2,1.93E2,1.44E2,2.22E2,1.06E2,2E0,1.88E2,5E0,4.7E1,9.7E1,1.51E2,7.1E1,1.04E2,2E0,1.54E2,3.4E1,2E0,9.5E1],"tree_param":{"num_deleted":"0","num_feature":"19","num_nodes":"21","size_leaf_vector":"1"}},{"base_weights":[1.2811992E-2,-2.1072342E-1,3.6054704E-1,-3.5099298E-1,-6.650712E-2,2.1169525E-1,3.9401934E-2,-3.8084143E-1,-0E0,-0E0,-1.03168346E-1,-0E0,2.1720703E-1,-0E0,-1.9786758E-2,-6.496688E-3,-0E0,1.0932255E-2,-0E0],"categories":[],"categories_nodes":[],"categories_segments":[],"categories_sizes":[],"default_left":[0,0,0,0,0,0,0,0,0,0,0,0,0,0,0,0,0,0,0],"id":33,"left_children":[1,3,5,7,9,11,-1,13,-1,-1,15,-1,17,-1,-1,-1,-1,-1,-1],"loss_changes":[5.545425E1,6.175308E0,1.1404827E1,3.3456764E0,7.2920156E-1,2.2056293E-1,0E0,7.534046E-1,0E0,0E0,2.9908288E-1,0E0,9.384632E-2,0E0,0E0,0E0,0E0,0E0,0E0],"parents":[2147483647,0,0,1,1,2,2,3,3,4,4,5,5,7,7,10,10,12,12],"right_children":[2,4,6,8,10,12,-1,14,-1,-1,16,-1,18,-1,-1,-1,-1,-1,-1],"split_conditions":[1.085E1,1.96E0,1.1309E2,3.3183071E3,5.3092914E2,2.2698007E2,3.9401934E-2,2.8274334E1,-0E0,-0E0,6.24E0,-0E0,8.4E3,-0E0,-1.9786758E-2,-6.496688E-3,-0E0,1.0932255E-2,-0E0],"split_indices":[2,2,2,5,5,5,0,5,0,0,2,0,1,0,0,0,0,0,0],"split_type":[0,0,0,0,0,0,0,0,0,0,0,0,0,0,0,0,0,0,0],"sum_hessian":[6.84E2,4.1E2,2.74E2,1.83E2,2.27E2,2.23E2,5.1E1,1.77E2,6E0,7E1,1.57E2,7E0,2.16E2,9E0,1.68E2,1.13E2,4.4E1,2.15E2,1E0],"tree_param":{"num_deleted":"0","num_feature":"19","num_nodes":"19","size_leaf_vector":"1"}},{"base_weights":[-0E0,-3.5974467E-1,3.164252E-1,-6.520176E-1,-2.1126536E-1,1.9597426E-1,3.5392E-2,-0E0,-6.775753E-1,-2.5198436E-1,-0E0,-0E0,1.2297097E-2,-3.4084406E-2,-0E0,-1.2651235E-2,-0E0,-0E0,-9.838468E-5],"categories":[],"categories_nodes":[],"categories_segments":[],"categories_sizes":[],"default_left":[0,0,0,0,0,0,0,0,0,0,0,0,0,0,0,0,0,0,0],"id":34,"left_children":[1,3,5,7,9,11,-1,-1,13,15,17,-1,-1,-1,-1,-1,-1,-1,-1],"loss_changes":[7.838857E1,8.236374E0,1.1443581E1,1.748951E0,8.889942E-1,1.9563589E0,0E0,0E0,3.2844543E-2,3.1596184E-2,1.8584722E-4,0E0,0E0,0E0,0E0,0E0,0E0,0E0,0E0],"parents":[2147483647,0,0,1,1,2,2,3,3,4,4,5,5,8,8,9,9,10,10],"right_children":[2,4,6,8,10,12,-1,-1,14,16,18,-1,-1,-1,-1,-1,-1,-1,-1],"split_conditions":[3.257143E1,3.6E0,3.6E2,1.8E3,2.04E1,5.7E1,3.5392E-2,-0E0,1.7704445E0,1.2271847E4,7.288495E-2,-0E0,1.2297097E-2,-3.4084406E-2,-0E0,-1.2651235E-2,-0E0,-0E0,-9.838468E-5],"split_indices":[3,3,3,1,3,3,0,0,4,5,4,0,0,0,0,0,0,0,0],"split_type":[0,0,0,0,0,0,0,0,0,0,0,0,0,0,0,0,0,0,0],"sum_hessian":[6.69E2,3.11E2,3.58E2,8.2E1,2.29E2,2.95E2,6.3E1,3E0,7.9E1,1.72E2,5.7E1,7.9E1,2.16E2,7.8E1,1E0,1.71E2,1E0,1.9E1,3.8E1],"tree_param":{"num_deleted":"0","num_feature":"19","num_nodes":"19","size_leaf_vector":"1"}},{"base_weights":[2.3214929E-3,-3.3608332E-1,3.1396016E-1,-6.193252E-1,-2.048717E-1,2.0455404E-1,3.5125565E-2,-3.211355E-2,-0E0,-2.1541412E-1,-0E0,5.7678007E-2,1.4260036E-2,-1.2156834E-2,-0E0,-0E0,3.237289E-3],"categories":[],"categories_nodes":[],"categories_segments":[],"categories_sizes":[],"default_left":[0,0,0,0,0,0,0,0,0,0,0,0,0,0,0,0,0],"id":35,"left_children":[1,3,5,7,9,11,-1,-1,-1,13,-1,15,-1,-1,-1,-1,-1],"loss_changes":[7.5926636E1,7.1718407E0,1.0308945E1,1.3678055E0,7.2552586E-1,1.9470634E0,0E0,0E0,0E0,5.051422E-1,0E0,3.2507837E-2,0E0,0E0,0E0,0E0,0E0],"parents":[2147483647,0,0,1,1,2,2,3,3,4,4,5,5,9,9,11,11],"right_children":[2,4,6,8,10,12,-1,-1,-1,14,-1,16,-1,-1,-1,-1,-1],"split_conditions":[3.257143E1,3.6E0,4.2E2,3.77E0,2.257E1,9.923077E1,3.5125565E-2,-3.211355E-2,-0E0,2.184E1,-0E0,3.9E1,1.4260036E-2,-1.2156834E-2,-0E0,-0E0,3.237289E-3],"split_indices":[3,3,3,2,2,3,0,0,0,3,0,3,0,0,0,0,0],"split_type":[0,0,0,0,0,0,0,0,0,0,0,0,0,0,0,0,0],"sum_hessian":[7.01E2,3.28E2,3.73E2,8E1,2.48E2,3.13E2,6E1,7.7E1,3E0,2.39E2,9E0,1.39E2,1.74E2,1.94E2,4.5E1,2.3E1,1.16E2],"tree_param":{"num_deleted":"0","num_feature":"19","num_nodes":"17","size_leaf_vector":"1"}},{"base_weights":[-0E0,-1.8066749E-1,2.856049E-1,-3.3014718E-1,-4.1714177E-2,1.7034929E-1,2.9950527E-2,-3.5407576E-1,-0E0,-7.684345E-2,-0E0,1.2120899E-2,4.818961E-2,-0E0,-1.7955972E-2,-5.0077536E-3,-0E0,2.1553647E-3,-0E0,2.4754826E-3,-0E0],"categories":[],"categories_nodes":[],"categories_segments":[],"categories_sizes":[],"default_left":[0,0,0,0,0,0,0,0,0,0,0,0,0,0,0,0,0,0,0,0,0],"id":36,"left_children":[1,3,5,7,9,11,-1,13,-1,15,17,-1,19,-1,-1,-1,-1,-1,-1,-1,-1],"loss_changes":[3.49337E1,6.7889805E0,4.488323E0,2.4020615E0,6.431565E-1,3.2297754E-1,0E0,3.8954735E-1,0E0,2.1930933E-1,1.04061365E-1,0E0,1.27669275E-2,0E0,0E0,0E0,0E0,0E0,0E0,0E0,0E0],"parents":[2147483647,0,0,1,1,2,2,3,3,4,4,5,5,7,7,9,9,10,10,12,12],"right_children":[2,4,6,8,10,12,-1,14,-1,16,18,-1,20,-1,-1,-1,-1,-1,-1,-1,-1],"split_conditions":[1.085E1,1.91E0,1.1309E2,1.7704445E0,1E0,2E-1,2.9950527E-2,2E-2,-0E0,5.7E0,1.0051526E0,1.2120899E-2,8.15E3,-0E0,-1.7955972E-2,-5.0077536E-3,-0E0,2.1553647E-3,-0E0,2.4754826E-3,-0E0],"split_indices":[2,2,2,4,16,0,0,2,0,2,4,0,1,0,0,0,0,0,0,0,0],"split_type":[0,0,0,0,0,0,0,0,0,0,0,0,0,0,0,0,0,0,0,0,0],"sum_hessian":[6.62E2,4.13E2,2.49E2,1.75E2,2.38E2,2.05E2,4.4E1,1.7E2,5E0,1.72E2,6.6E1,9.7E1,1.08E2,2E0,1.68E2,1.19E2,5.3E1,4.6E1,2E1,1.07E2,1E0],"tree_param":{"num_deleted":"0","num_feature":"19","num_nodes":"21","size_leaf_vector":"1"}},{"base_weights":[3.5329545E-3,-3.1060725E-1,2.882676E-1,-5.2613926E-1,-1.6600788E-1,1.9817786E-1,3.7349682E-2,-5.488876E-1,-0E0,-1.761996E-1,-0E0,4.5373734E-2,2.7330074E-1,-2.7581224E-2,-0E0,-1.0065815E-2,-0E0,2.8127085E-3,-0E0,1.376038E-2,-0E0],"categories":[],"categories_nodes":[],"categories_segments":[],"categories_sizes":[],"default_left":[0,0,0,0,0,0,0,0,0,0,0,0,0,0,0,0,0,0,0,0,0],"id":37,"left_children":[1,3,5,7,9,11,-1,13,-1,15,-1,17,19,-1,-1,-1,-1,-1,-1,-1,-1],"loss_changes":[6.2591286E1,5.794714E0,9.332537E0,2.1364155E0,6.8461466E-1,2.1510715E0,0E0,2.7023315E-2,0E0,3.4331465E-1,0E0,4.6411544E-2,5.98011E-2,0E0,0E0,0E0,0E0,0E0,0E0,0E0,0E0],"parents":[2147483647,0,0,1,1,2,2,3,3,4,4,5,5,7,7,9,9,11,11,12,12],"right_children":[2,4,6,8,10,12,-1,14,-1,16,-1,18,20,-1,-1,-1,-1,-1,-1,-1,-1],"split_conditions":[3.257143E1,4.608E0,1.4711E2,1.2010246E1,3.587E1,9E1,3.7349682E-2,1E0,-0E0,2.184E1,-0E0,1E0,1E0,-2.7581224E-2,-0E0,-1.0065815E-2,-0E0,2.8127085E-3,-0E0,1.376038E-2,-0E0],"split_indices":[3,3,2,2,2,3,0,7,0,3,0,8,15,0,0,0,0,0,0,0,0],"split_type":[0,0,0,0,0,0,0,0,0,0,0,0,0,0,0,0,0,0,0,0,0],"sum_hessian":[6.81E2,3.15E2,3.66E2,1.02E2,2.13E2,3.27E2,3.9E1,1E2,2E0,2.1E2,3E0,1.35E2,1.92E2,9.9E1,1E0,1.67E2,4.3E1,9.9E1,3.6E1,1.9E2,2E0],"tree_param":{"num_deleted":"0","num_feature":"19","num_nodes":"21","size_leaf_vector":"1"}},{"base_weights":[-0E0,-3.0886176E-1,2.719429E-1,-4.8093286E-1,-1.3678397E-1,1.71979E-1,3.1036958E-2,-4.893691E-1,-0E0,-1.4432478E-1,-0E0,-0E0,2.0388569E-1,-2.486558E-2,-0E0,-7.5412053E-3,-0E0,-0E0,1.0239532E-2],"categories":[],"categories_nodes":[],"categories_segments":[],"categories_sizes":[],"default_left":[0,0,0,0,0,0,0,0,0,0,0,0,0,0,0,0,0,0,0],"id":38,"left_children":[1,3,5,7,9,11,-1,13,-1,15,-1,-1,17,-1,-1,-1,-1,-1,-1],"loss_changes":[5.8218246E1,5.8767014E0,7.79994E0,9.392624E-1,3.4239078E-1,1.0692577E0,0E0,1.3137817E-1,0E0,6.491089E-2,0E0,0E0,4.9408913E-2,0E0,0E0,0E0,0E0,0E0,0E0],"parents":[2147483647,0,0,1,1,2,2,3,3,4,4,5,5,7,7,9,9,12,12],"right_children":[2,4,6,8,10,12,-1,14,-1,16,-1,-1,18,-1,-1,-1,-1,-1,-1],"split_conditions":[3.257143E1,6.409091E0,4.2E2,1.2010246E1,3.413E1,5.2E1,3.1036958E-2,1E0,-0E0,2.8E1,-0E0,-0E0,1.6E3,-2.486558E-2,-0E0,-7.5412053E-3,-0E0,-0E0,1.0239532E-2],"split_indices":[3,3,3,2,2,3,0,18,0,3,0,0,1,0,0,0,0,0,0],"split_type":[0,0,0,0,0,0,0,0,0,0,0,0,0,0,0,0,0,0,0],"sum_hessian":[6.73E2,3.15E2,3.58E2,1.34E2,1.81E2,3.01E2,5.7E1,1.33E2,1E0,1.78E2,3E0,6.4E1,2.37E2,1.29E2,4E0,1.65E2,1.3E1,1E0,2.36E2],"tree_param":{"num_deleted":"0","num_feature":"19","num_nodes":"19","size_leaf_vector":"1"}},{"base_weights":[1.6422527E-3,-2.9286432E-1,2.6317233E-1,-5.2614677E-1,-1.6050385E-1,7.897141E-2,2.1052783E-2,-5.292547E-1,-0E0,-1.0010005E-2,-1.011717E-3,-0E0,9.7149946E-2,-2.6935605E-2,-0E0,-0E0,-4.8958004E-4,5.105987E-3,-0E0],"categories":[],"categories_nodes":[],"categories_segments":[],"categories_sizes":[],"default_left":[0,0,0,0,0,0,0,0,0,0,0,0,0,0,0,0,0,0,0],"id":39,"left_children":[1,3,5,7,9,11,-1,13,-1,-1,15,-1,17,-1,-1,-1,-1,-1,-1],"loss_changes":[4.930039E1,4.769333E0,7.3170586E0,8.533478E-3,3.531313E-1,1.2056255E-1,0E0,8.089066E-3,0E0,0E0,5.672688E-3,0E0,4.1819334E-2,0E0,0E0,0E0,0E0,0E0,0E0],"parents":[2147483647,0,0,1,1,2,2,3,3,4,4,5,5,7,7,10,10,12,12],"right_children":[2,4,6,8,10,12,-1,14,-1,-1,16,-1,18,-1,-1,-1,-1,-1,-1],"split_conditions":[3.257143E1,4.044E0,1.32E2,1E0,1.6122E1,4.9E1,2.1052783E-2,2.02683E3,-0E0,-1.0010005E-2,7.288495E-2,-0E0,1E0,-2.6935605E-2,-0E0,-0E0,-4.8958004E-4,5.105987E-3,-0E0],"split_indices":[3,3,3,18,3,3,0,5,0,0,4,0,14,0,0,0,0,0,0],"split_type":[0,0,0,0,0,0,0,0,0,0,0,0,0,0,0,0,0,0,0],"sum_hessian":[6.22E2,2.83E2,3.39E2,7.8E1,2.05E2,1.78E2,1.61E2,7.7E1,1E0,1.37E2,6.8E1,5.1E1,1.27E2,7.4E1,3E0,1.8E1,5E1,1.18E2,9E0],"tree_param":{"num_deleted":"0","num_feature":"19","num_nodes":"19","size_leaf_vector":"1"}},{"base_weights":[-0E0,-2.6627293E-1,2.3124033E-1,-3.6024612E-1,-4.2662375E-2,3.9629605E-2,3.3577132E-1,-3.7642664E-1,-0E0,-5.532601E-2,-0E0,-0E0,5.198895E-2,2.1896769E-1,2.6532857E-2,-2.7030492E-2,-1.0524964E-2,-2.820014E-3,-0E0,-0E0,2.6303304E-3,1.0987051E-2,-0E0],"categories":[],"categories_nodes":[],"categories_segments":[],"categories_sizes":[],"default_left":[0,0,0,0,0,0,0,0,0,0,0,0,0,0,0,0,0,0,0,0,0,0,0],"id":40,"left_children":[1,3,5,7,9,11,13,15,-1,17,-1,-1,19,21,-1,-1,-1,-1,-1,-1,-1,-1,-1],"loss_changes":[4.252892E1,4.4299736E0,5.5810204E0,1.5814438E0,1.4278477E-1,4.5594603E-2,2.571907E-1,5.004864E-1,0E0,1.0981858E-2,0E0,0E0,4.403591E-3,1.1084557E-2,0E0,0E0,0E0,0E0,0E0,0E0,0E0,0E0,0E0],"parents":[2147483647,0,0,1,1,2,2,3,3,4,4,5,5,6,6,7,7,9,9,12,12,13,13],"right_children":[2,4,6,8,10,12,14,16,-1,18,-1,-1,20,22,-1,-1,-1,-1,-1,-1,-1,-1,-1],"split_conditions":[3.257143E1,1.38E1,9.923077E1,1.368E1,4.55E1,4.62E1,4.2E2,3.25E0,-0E0,8.3E-1,-0E0,-0E0,1.1762123E-2,1E0,2.6532857E-2,-2.7030492E-2,-1.0524964E-2,-2.820014E-3,-0E0,-0E0,2.6303304E-3,1.0987051E-2,-0E0],"split_indices":[3,3,3,2,2,3,3,3,0,0,0,0,4,12,0,0,0,0,0,0,0,0,0],"split_type":[0,0,0,0,0,0,0,0,0,0,0,0,0,0,0,0,0,0,0,0,0,0,0],"sum_hessian":[6.73E2,3.04E2,3.69E2,1.94E2,1.1E2,1.52E2,2.17E2,1.88E2,6E0,1.08E2,2E0,5.1E1,1.01E2,1.65E2,5.2E1,6.8E1,1.2E2,1.07E2,1E0,1E0,1E2,1.64E2,1E0],"tree_param":{"num_deleted":"0","num_feature":"19","num_nodes":"23","size_leaf_vector":"1"}},{"base_weights":[-0E0,-2.606363E-1,2.2771114E-1,-4.6500066E-1,-1.5087125E-1,1.2700881E-1,2.3498878E-2,-0E0,-4.8667547E-1,-9.031541E-3,-0E0,4.120059E-3,8.539479E-3,-2.464175E-2,-0E0,-0E0,-2.3469217E-4,2.6390117E-4,-0E0],"categories":[],"categories_nodes":[],"categories_segments":[],"categories_sizes":[],"default_left":[0,0,0,0,0,0,0,0,0,0,0,0,0,0,0,0,0,0,0],"id":41,"left_children":[1,3,5,7,9,11,-1,-1,13,-1,15,17,-1,-1,-1,-1,-1,-1,-1],"loss_changes":[4.0982468E1,3.2627583E0,5.6645374E0,1.1252804E0,1.9757128E-1,7.109442E-1,0E0,0E0,3.3094406E-2,0E0,1.5202194E-3,1.2005798E-3,0E0,0E0,0E0,0E0,0E0,0E0,0E0],"parents":[2147483647,0,0,1,1,2,2,3,3,4,4,5,5,8,8,10,10,11,11],"right_children":[2,4,6,8,10,12,-1,-1,14,-1,16,18,-1,-1,-1,-1,-1,-1,-1],"split_conditions":[2.88E1,3.6E0,2.82E2,1.8E3,1.6122E1,6.54E1,2.3498878E-2,-0E0,2.02683E3,-9.031541E-3,1.8E3,6.5E1,8.539479E-3,-2.464175E-2,-0E0,-0E0,-2.3469217E-4,2.6390117E-4,-0E0],"split_indices":[3,3,3,1,3,3,0,0,5,0,1,3,0,0,0,0,0,0,0],"split_type":[0,0,0,0,0,0,0,0,0,0,0,0,0,0,0,0,0,0,0],"sum_hessian":[6.73E2,3.04E2,3.69E2,7.9E1,2.25E2,2.86E2,8.3E1,3E0,7.6E1,1.6E2,6.5E1,1.08E2,1.78E2,7.4E1,2E0,6E0,5.9E1,1.05E2,3E0],"tree_param":{"num_deleted":"0","num_feature":"19","num_nodes":"19","size_leaf_vector":"1"}},{"base_weights":[8.227408E-3,-2.5783595E-1,2.3177819E-1,-3.6216894E-1,-7.533739E-2,1.5487523E-1,5.8994853E-1,-3.717114E-1,-0E0,-8.867825E-2,-0E0,5.7355005E-2,2.3773402E-1,-0E0,2.9807558E-2,-1.8763144E-2,-0E0,-0E0,-4.608202E-3,-0E0,2.9558854E-3,1.1949217E-2,-0E0],"categories":[],"categories_nodes":[],"categories_segments":[],"categories_sizes":[],"default_left":[0,0,0,0,0,0,0,0,0,0,0,0,0,0,0,0,0,0,0,0,0,0,0],"id":42,"left_children":[1,3,5,7,9,11,13,15,-1,17,-1,19,21,-1,-1,-1,-1,-1,-1,-1,-1,-1,-1],"loss_changes":[4.091282E1,3.3470097E0,5.966772E0,8.04018E-1,2.692042E-1,1.1517029E0,3.452301E-2,3.1171799E-2,0E0,3.4766078E-2,0E0,1.6186416E-2,3.467655E-2,0E0,0E0,0E0,0E0,0E0,0E0,0E0,0E0,0E0,0E0],"parents":[2147483647,0,0,1,1,2,2,3,3,4,4,5,5,6,6,7,7,9,9,11,11,12,12],"right_children":[2,4,6,8,10,12,14,16,-1,18,-1,20,22,-1,-1,-1,-1,-1,-1,-1,-1,-1,-1],"split_conditions":[2.88E1,9.9E0,1.4189774E2,1.2010246E1,3.587E1,1.26E2,7.692308E-2,1E0,-0E0,7.692308E-2,-0E0,2.97E1,1E0,-0E0,2.9807558E-2,-1.8763144E-2,-0E0,-0E0,-4.608202E-3,-0E0,2.9558854E-3,1.1949217E-2,-0E0],"split_indices":[3,3,2,2,2,3,0,18,0,0,0,3,15,0,0,0,0,0,0,0,0,0,0],"split_type":[0,0,0,0,0,0,0,0,0,0,0,0,0,0,0,0,0,0,0,0,0,0,0],"sum_hessian":[6.7E2,2.95E2,3.75E2,1.64E2,1.31E2,3.32E2,4.3E1,1.61E2,3E0,1.26E2,5E0,1.88E2,1.44E2,1E0,4.2E1,1.58E2,3E0,6E0,1.2E2,7E0,1.81E2,1.43E2,1E0],"tree_param":{"num_deleted":"0","num_feature":"19","num_nodes":"23","size_leaf_vector":"1"}},{"base_weights":[6.7071134E-4,-2.4672534E-1,2.2411843E-1,-4.6363226E-1,-1.3138826E-1,1.562079E-1,3.1016408E-2,-4.890073E-1,-0E0,-1.4441867E-1,-0E0,4.792491E-2,2.1731395E-1,-2.4833271E-2,-0E0,-8.003504E-3,-0E0,2.5722783E-3,-0E0,1.0924155E-2,-0E0],"categories":[],"categories_nodes":[],"categories_segments":[],"categories_sizes":[],"default_left":[0,0,0,0,0,0,0,0,0,0,0,0,0,0,0,0,0,0,0,0,0],"id":43,"left_children":[1,3,5,7,9,11,-1,13,-1,15,-1,17,19,-1,-1,-1,-1,-1,-1,-1,-1],"loss_changes":[3.7698696E1,4.271204E0,5.103836E0,1.2190838E0,7.158265E-1,8.193512E-1,0E0,1.558094E-1,0E0,3.179016E-1,0E0,1.5378833E-2,4.6524048E-2,0E0,0E0,0E0,0E0,0E0,0E0,0E0,0E0],"parents":[2147483647,0,0,1,1,2,2,3,3,4,4,5,5,7,7,9,9,11,11,12,12],"right_children":[2,4,6,8,10,12,-1,14,-1,16,-1,18,20,-1,-1,-1,-1,-1,-1,-1,-1],"split_conditions":[3.257143E1,3.6E0,2.1803E2,3.5E0,3.413E1,1.08E2,3.1016408E-2,1E0,-0E0,2.4E1,-0E0,1.4313882E4,1E0,-2.4833271E-2,-0E0,-8.003504E-3,-0E0,2.5722783E-3,-0E0,1.0924155E-2,-0E0],"split_indices":[3,3,2,2,2,3,0,7,0,3,0,5,15,0,0,0,0,0,0,0,0],"split_type":[0,0,0,0,0,0,0,0,0,0,0,0,0,0,0,0,0,0,0,0,0],"sum_hessian":[6.64E2,3.04E2,3.6E2,8E1,2.24E2,3.3E2,3E1,7.6E1,4E0,2.18E2,6E0,1.55E2,1.75E2,7.4E1,2E0,1.88E2,3E1,1.39E2,1.6E1,1.74E2,1E0],"tree_param":{"num_deleted":"0","num_feature":"19","num_nodes":"21","size_leaf_vector":"1"}},{"base_weights":[-0E0,-2.3469914E-1,2.1505347E-1,-3.6907542E-1,-7.8950256E-2,7.677816E-2,1.6808955E-2,-3.9527366E-1,-0E0,-8.861942E-2,-0E0,-0E0,8.347254E-2,-2.011129E-2,-0E0,-4.797834E-3,-0E0,-0E0,4.232738E-3],"categories":[],"categories_nodes":[],"categories_segments":[],"categories_sizes":[],"default_left":[0,0,0,0,0,0,0,0,0,0,0,0,0,0,0,0,0,0,0],"id":44,"left_children":[1,3,5,7,9,11,-1,13,-1,15,-1,-1,17,-1,-1,-1,-1,-1,-1],"loss_changes":[3.3549065E1,3.9773922E0,3.6228828E0,7.5623703E-1,2.5836468E-1,8.69925E-2,0E0,9.025192E-2,0E0,6.584406E-2,0E0,0E0,2.1444798E-2,0E0,0E0,0E0,0E0,0E0,0E0],"parents":[2147483647,0,0,1,1,2,2,3,3,4,4,5,5,7,7,9,9,12,12],"right_children":[2,4,6,8,10,12,-1,14,-1,16,-1,-1,18,-1,-1,-1,-1,-1,-1],"split_conditions":[3.6E1,7.2E0,1.32E2,3.5E0,4.55E1,3.9E1,1.6808955E-2,1E0,-0E0,2.88E1,-0E0,-0E0,1.1762123E-2,-2.011129E-2,-0E0,-4.797834E-3,-0E0,-0E0,4.232738E-3],"split_indices":[3,3,3,2,2,3,0,18,0,3,0,0,4,0,0,0,0,0,0],"split_type":[0,0,0,0,0,0,0,0,0,0,0,0,0,0,0,0,0,0,0],"sum_hessian":[6.46E2,3.01E2,3.45E2,1.37E2,1.64E2,1.88E2,1.57E2,1.23E2,1.4E1,1.61E2,3E0,1.8E1,1.7E2,1.19E2,4E0,1.43E2,1.8E1,2E0,1.68E2],"tree_param":{"num_deleted":"0","num_feature":"19","num_nodes":"19","size_leaf_vector":"1"}},{"base_weights":[6.2419893E-3,-2.1477032E-1,2.0440893E-1,-2.8188455E-1,-3.1227183E-2,1.3546112E-1,3.1685706E-2,-1.4794751E-2,-0E0,-4.6709716E-2,-0E0,2.6240118E-2,1.9508827E-1,-2.3911095E-3,-0E0,2.3730546E-3,-0E0,9.797728E-3,-0E0],"categories":[],"categories_nodes":[],"categories_segments":[],"categories_sizes":[],"default_left":[0,0,0,0,0,0,0,0,0,0,0,0,0,0,0,0,0,0,0],"id":45,"left_children":[1,3,5,7,9,11,-1,-1,-1,13,-1,15,17,-1,-1,-1,-1,-1,-1],"loss_changes":[3.0037996E1,2.2020597E0,6.3659573E0,1.158432E0,1.1912981E-1,1.0889921E0,0E0,0E0,0E0,8.860409E-3,0E0,2.2920683E-2,2.66428E-2,0E0,0E0,0E0,0E0,0E0,0E0],"parents":[2147483647,0,0,1,1,2,2,3,3,4,4,5,5,9,9,11,11,12,12],"right_children":[2,4,6,8,10,12,-1,-1,-1,14,-1,16,18,-1,-1,-1,-1,-1,-1],"split_conditions":[3.257143E1,1.33E1,1.6964E2,1.368E1,1.689E1,9.9E1,3.1685706E-2,-1.4794751E-2,-0E0,8.3E-1,-0E0,4.66E0,1E0,-2.3911095E-3,-0E0,2.3730546E-3,-0E0,9.797728E-3,-0E0],"split_indices":[3,3,2,2,2,3,0,0,0,0,0,2,15,0,0,0,0,0,0],"split_type":[0,0,0,0,0,0,0,0,0,0,0,0,0,0,0,0,0,0,0],"sum_hessian":[6.67E2,3.03E2,3.64E2,1.98E2,1.05E2,3.35E2,2.9E1,1.92E2,6E0,9.6E1,9E0,1.53E2,1.82E2,9.5E1,1E0,5E1,1.03E2,1.81E2,1E0],"tree_param":{"num_deleted":"0","num_feature":"19","num_nodes":"19","size_leaf_vector":"1"}},{"base_weights":[4.76071E-3,-1.0894364E-1,2.2657633E-1,-2.3186821E-1,-1.438648E-2,1.1121533E-1,5.232542E-1,-3.0041522E-1,-0E0,-3.4418583E-2,-0E0,-0E0,1.16306774E-1,-0E0,2.6705999E-2,-1.8170962E-2,-0E0,-2.183719E-3,-0E0,6.1780266E-3,-0E0],"categories":[],"categories_nodes":[],"categories_segments":[],"categories_sizes":[],"default_left":[0,0,0,0,0,0,0,0,0,0,0,0,0,0,0,0,0,0,0,0,0],"id":46,"left_children":[1,3,5,7,9,11,13,15,-1,17,-1,-1,19,-1,-1,-1,-1,-1,-1,-1,-1],"loss_changes":[1.8313435E1,3.965898E0,4.9046535E0,2.304698E0,1.8205874E-1,1.5862846E-1,7.282257E-2,7.309284E-1,0E0,6.1618432E-2,0E0,0E0,5.965042E-2,0E0,0E0,0E0,0E0,0E0,0E0,0E0,0E0],"parents":[2147483647,0,0,1,1,2,2,3,3,4,4,5,5,6,6,7,7,9,9,12,12],"right_children":[2,4,6,8,10,12,14,16,-1,18,-1,-1,20,-1,-1,-1,-1,-1,-1,-1,-1],"split_conditions":[1.298E1,1.402112E0,1.1309E2,1E0,1E0,2.2698007E2,7.692308E-2,6E-1,-0E0,6.63E0,-0E0,-0E0,1E0,-0E0,2.6705999E-2,-1.8170962E-2,-0E0,-2.183719E-3,-0E0,6.1780266E-3,-0E0],"split_indices":[2,2,2,16,16,5,0,0,0,2,0,0,14,0,0,0,0,0,0,0,0],"split_type":[0,0,0,0,0,0,0,0,0,0,0,0,0,0,0,0,0,0,0,0,0],"sum_hessian":[6.83E2,4.4E2,2.43E2,1.62E2,2.78E2,1.97E2,4.6E1,1.18E2,4.4E1,1.94E2,8.4E1,6E0,1.91E2,2E0,4.4E1,8.3E1,3.5E1,1.49E2,4.5E1,1.72E2,1.9E1],"tree_param":{"num_deleted":"0","num_feature":"19","num_nodes":"21","size_leaf_vector":"1"}},{"base_weights":[-0E0,-2.0622869E-1,1.8298648E-1,-2.5181709E-2,-1.2683596E-1,1.23994336E-1,2.756296E-2,-1.4367147E-1,-0E0,3.913103E-2,1.8983923E-1,-7.953464E-3,-0E0,2.1039133E-3,-0E0,9.60905E-3,-0E0],"categories":[],"categories_nodes":[],"categories_segments":[],"categories_sizes":[],"default_left":[0,0,0,0,0,0,0,0,0,0,0,0,0,0,0,0,0],"id":47,"left_children":[1,3,5,-1,7,9,-1,11,-1,13,15,-1,-1,-1,-1,-1,-1],"loss_changes":[2.6409641E1,3.7882576E0,4.2175016E0,0E0,1.1100249E0,7.533612E-1,0E0,1.2930441E-1,0E0,2.3080558E-2,7.195282E-2,0E0,0E0,0E0,0E0,0E0,0E0],"parents":[2147483647,0,0,1,1,2,2,4,4,5,5,7,7,9,9,10,10],"right_children":[2,4,6,-1,8,10,-1,12,-1,14,16,-1,-1,-1,-1,-1,-1],"split_conditions":[3.257143E1,2.0796E0,2.1803E2,-2.5181709E-2,3.587E1,1.26E2,2.756296E-2,2.184E1,-0E0,1E0,1E0,-7.953464E-3,-0E0,2.1039133E-3,-0E0,9.60905E-3,-0E0],"split_indices":[3,3,2,0,2,3,0,3,0,14,15,0,0,0,0,0,0],"split_type":[0,0,0,0,0,0,0,0,0,0,0,0,0,0,0,0,0],"sum_hessian":[6.82E2,3.11E2,3.71E2,4.1E1,2.7E2,3.43E2,2.8E1,2.62E2,8E0,1.9E2,1.53E2,2.17E2,4.5E1,1.76E2,1.4E1,1.51E2,2E0],"tree_param":{"num_deleted":"0","num_feature":"19","num_nodes":"17","size_leaf_vector":"1"}},{"base_weights":[1.0469173E-3,-1.9267178E-1,1.7542313E-1,-3.496185E-1,-1.0221735E-1,1.1067907E-1,2.7537301E-2,-2.0313768E-2,-0E0,-1.1274898E-1,-0E0,-0E0,1.3578895E-1,-5.6894217E-3,-0E0,7.140571E-3,-0E0],"categories":[],"categories_nodes":[],"categories_segments":[],"categories_sizes":[],"default_left":[0,0,0,0,0,0,0,0,0,0,0,0,0,0,0,0,0],"id":48,"left_children":[1,3,5,7,9,11,-1,-1,-1,13,-1,-1,15,-1,-1,-1,-1],"loss_changes":[2.2985643E1,1.7843733E0,5.147188E0,1.5007296E0,4.848349E-1,6.5991116E-1,0E0,0E0,0E0,2.7792692E-2,0E0,0E0,2.2901821E-1,0E0,0E0,0E0,0E0],"parents":[2147483647,0,0,1,1,2,2,3,3,4,4,5,5,9,9,12,12],"right_children":[2,4,6,8,10,12,-1,-1,-1,14,-1,-1,16,-1,-1,-1,-1],"split_conditions":[2.88E1,3.6E0,2.1803E2,2.14E0,3.587E1,5.2E1,2.7537301E-2,-2.0313768E-2,-0E0,1E0,-0E0,-0E0,1E0,-5.6894217E-3,-0E0,7.140571E-3,-0E0],"split_indices":[3,3,2,2,2,3,0,0,0,7,0,0,14,0,0,0,0],"split_type":[0,0,0,0,0,0,0,0,0,0,0,0,0,0,0,0,0],"sum_hessian":[6.63E2,3E2,3.63E2,7.9E1,2.21E2,3.32E2,3.1E1,6.5E1,1.4E1,2.18E2,3E0,7.9E1,2.53E2,2.16E2,2E0,2.39E2,1.4E1],"tree_param":{"num_deleted":"0","num_feature":"19","num_nodes":"17","size_leaf_vector":"1"}},{"base_weights":[-0E0,-1.8893875E-1,1.6922908E-1,-2.5722033E-1,-1.3815104E-2,8.2710825E-2,1.9333357E-2,-2.692215E-1,-0E0,-2.326193E-2,-0E0,-0E0,9.6246436E-2,-1.35327345E-2,-0E0,-0E0,-1.5057229E-3,-0E0,4.862782E-3],"categories":[],"categories_nodes":[],"categories_segments":[],"categories_sizes":[],"default_left":[0,0,0,0,0,0,0,0,0,0,0,0,0,0,0,0,0,0,0],"id":49,"left_children":[1,3,5,7,9,11,-1,13,-1,15,-1,-1,17,-1,-1,-1,-1,-1,-1],"loss_changes":[2.2248257E1,2.4835892E0,4.3503046E0,9.769983E-1,3.9485056E-2,1.982503E-1,0E0,1.3653755E-2,0E0,1.0687694E-2,0E0,0E0,2.7950764E-2,0E0,0E0,0E0,0E0,0E0,0E0],"parents":[2147483647,0,0,1,1,2,2,3,3,4,4,5,5,7,7,9,9,12,12],"right_children":[2,4,6,8,10,12,-1,14,-1,16,-1,-1,18,-1,-1,-1,-1,-1,-1],"split_conditions":[3.257143E1,1.3E1,3E2,1.2010246E1,1.726328E1,4.62E1,1.9333357E-2,1E0,-0E0,1.84E0,-0E0,-0E0,1.1762123E-2,-1.35327345E-2,-0E0,-0E0,-1.5057229E-3,-0E0,4.862782E-3],"split_indices":[3,3,3,2,2,3,0,7,0,2,0,0,4,0,0,0,0,0,0],"split_type":[0,0,0,0,0,0,0,0,0,0,0,0,0,0,0,0,0,0,0],"sum_hessian":[6.77E2,3.14E2,3.63E2,2.02E2,1.12E2,2.86E2,7.7E1,1.97E2,5E0,1.06E2,6E0,5.6E1,2.3E2,1.95E2,2E0,3.5E1,7.1E1,2E0,2.28E2],"tree_param":{"num_deleted":"0","num_feature":"19","num_nodes":"19","size_leaf_vector":"1"}},{"base_weights":[-0E0,-1.7720957E-1,1.649417E-1,-2.1444676E-2,-1.09659694E-1,4.6388183E-2,2.5916892E-1,-1.2332962E-1,-0E0,-0E0,5.310566E-2,1.3119346E-2,-0E0,-7.2706672E-3,-0E0,2.7861565E-3,-0E0],"categories":[],"categories_nodes":[],"categories_segments":[],"categories_sizes":[],"default_left":[0,0,0,0,0,0,0,0,0,0,0,0,0,0,0,0,0],"id":50,"left_children":[1,3,5,-1,7,9,11,13,-1,-1,15,-1,-1,-1,-1,-1,-1],"loss_changes":[2.015512E1,2.5493202E0,2.2953424E0,0E0,6.930113E-1,3.525576E-2,8.045769E-2,4.234743E-1,0E0,0E0,1.1136383E-2,0E0,0E0,0E0,0E0,0E0,0E0],"parents":[2147483647,0,0,1,1,2,2,4,4,5,5,6,6,7,7,10,10],"right_children":[2,4,6,-1,8,10,12,14,-1,-1,16,-1,-1,-1,-1,-1,-1],"split_conditions":[3.6E1,2.0796E0,1.305E2,-2.1444676E-2,1.689E1,4.464E1,1E0,2.04E1,-0E0,-0E0,1E0,1.3119346E-2,-0E0,-7.2706672E-3,-0E0,2.7861565E-3,-0E0],"split_indices":[3,3,3,0,2,3,14,3,0,0,14,0,0,0,0,0,0],"split_type":[0,0,0,0,0,0,0,0,0,0,0,0,0,0,0,0,0],"sum_hessian":[6.69E2,3.26E2,3.43E2,4.2E1,2.84E2,1.82E2,1.61E2,2.68E2,1.6E1,3.3E1,1.49E2,1.58E2,3E0,2.1E2,5.8E1,1.38E2,1.1E1],"tree_param":{"num_deleted":"0","num_feature":"19","num_nodes":"17","size_leaf_vector":"1"}},{"base_weights":[-0E0,-1.7274348E-1,1.5105236E-1,-3.5536006E-1,-8.846403E-2,1.5758477E-2,2.1364987E-1,-3.9327124E-1,-0E0,-1.00240305E-1,-0E0,2.389879E-2,-0E0,2.2304852E-1,-0E0,-1.9895269E-2,-0E0,-5.1460885E-3,-0E0,-0E0,1.2388823E-3,1.1182762E-2,-0E0],"categories":[],"categories_nodes":[],"categories_segments":[],"categories_sizes":[],"default_left":[0,0,0,0,0,0,0,0,0,0,0,0,0,0,0,0,0,0,0,0,0,0,0],"id":51,"left_children":[1,3,5,7,9,11,13,15,-1,17,-1,19,-1,21,-1,-1,-1,-1,-1,-1,-1,-1,-1],"loss_changes":[1.8128021E1,2.3915787E0,2.0036573E0,8.501768E-1,4.5729947E-1,2.8333712E-2,2.0185089E-1,9.832287E-2,0E0,3.5954237E-2,0E0,3.77734E-3,0E0,8.520126E-3,0E0,0E0,0E0,0E0,0E0,0E0,0E0,0E0,0E0],"parents":[2147483647,0,0,1,1,2,2,3,3,4,4,5,5,6,6,7,7,9,9,11,11,13,13],"right_children":[2,4,6,8,10,12,14,16,-1,18,-1,20,-1,22,-1,-1,-1,-1,-1,-1,-1,-1,-1],"split_conditions":[3.257143E1,3.25E0,9.923077E1,2.14E0,2.257E1,1E0,1E0,2.02683E3,-0E0,2.8666666E1,-0E0,1.1762123E-2,-0E0,1E0,-0E0,-1.9895269E-2,-0E0,-5.1460885E-3,-0E0,-0E0,1.2388823E-3,1.1182762E-2,-0E0],"split_indices":[3,3,3,2,2,8,14,5,0,3,0,4,0,7,0,0,0,0,0,0,0,0,0],"split_type":[0,0,0,0,0,0,0,0,0,0,0,0,0,0,0,0,0,0,0,0,0,0,0],"sum_hessian":[6.76E2,3.1E2,3.66E2,6.9E1,2.41E2,1.45E2,2.21E2,6E1,9E0,2.31E2,1E1,1.07E2,3.8E1,2.06E2,1.5E1,5.9E1,1E0,2.22E2,9E0,2E0,1.05E2,2.05E2,1E0],"tree_param":{"num_deleted":"0","num_feature":"19","num_nodes":"23","size_leaf_vector":"1"}},{"base_weights":[-0E0,-9.75954E-2,1.6331661E-1,-2.4502441E-1,-2.93088E-2,6.113718E-2,3.6779517E-1,-2.6995966E-1,-0E0,-5.6995437E-2,-0E0,-0E0,6.301887E-2,1.853775E-2,-0E0,-0E0,-1.4357549E-2,-3.3045446E-3,-0E0,5.0615653E-4,-0E0,3.2215104E-3,-0E0],"categories":[],"categories_nodes":[],"categories_segments":[],"categories_sizes":[],"default_left":[0,0,0,0,0,0,0,0,0,0,0,0,0,0,0,0,0,0,0,0,0,0,0],"id":52,"left_children":[1,3,5,7,9,11,13,15,-1,17,19,-1,21,-1,-1,-1,-1,-1,-1,-1,-1,-1,-1],"loss_changes":[1.1196247E1,2.835176E0,3.229937E0,1.1210251E0,4.7122195E-1,2.0560503E-2,1.7745018E-2,5.204773E-1,0E0,8.38902E-2,8.403177E-3,0E0,1.9369602E-2,0E0,0E0,0E0,0E0,0E0,0E0,0E0,0E0,0E0,0E0],"parents":[2147483647,0,0,1,1,2,2,3,3,4,4,5,5,6,6,7,7,9,9,10,10,12,12],"right_children":[2,4,6,8,10,12,14,16,-1,18,20,-1,22,-1,-1,-1,-1,-1,-1,-1,-1,-1,-1],"split_conditions":[1.15E1,8.4E-1,7.481E1,6.7858404E-1,1E0,2.2698007E2,6.7E-1,2.8274334E1,-0E0,6E-1,2.02683E3,-0E0,1E0,1.853775E-2,-0E0,-0E0,-1.4357549E-2,-3.3045446E-3,-0E0,5.0615653E-4,-0E0,3.2215104E-3,-0E0],"split_indices":[2,2,2,4,16,5,0,5,0,0,5,0,12,0,0,0,0,0,0,0,0,0,0],"split_type":[0,0,0,0,0,0,0,0,0,0,0,0,0,0,0,0,0,0,0,0,0,0,0],"sum_hessian":[6.73E2,4.15E2,2.58E2,1E2,3.15E2,1.97E2,6.1E1,9.6E1,4E0,2.21E2,9.4E1,7E0,1.9E2,6E1,1E0,6E0,9E1,1.81E2,4E1,7.2E1,2.2E1,1.86E2,4E0],"tree_param":{"num_deleted":"0","num_feature":"19","num_nodes":"23","size_leaf_vector":"1"}},{"base_weights":[-0E0,-3.6750965E-2,3.474646E-1,-1.6525897E-1,2.820246E-3,3.5147873E-1,-0E0,-2.0970583E-1,-0E0,-1.1401194E-2,5.3122498E-2,-0E0,3.5422558E-1,-1.3156255E-2,-0E0,-0E0,-1.1983736E-3,-0E0,2.9217978E-3,1.7845737E-2,-0E0],"categories":[],"categories_nodes":[],"categories_segments":[],"categories_sizes":[],"default_left":[0,0,0,0,0,0,0,0,0,0,0,0,0,0,0,0,0,0,0,0,0],"id":53,"left_children":[1,3,5,7,9,11,-1,13,-1,15,17,-1,19,-1,-1,-1,-1,-1,-1,-1,-1],"loss_changes":[9.881461E0,3.929008E0,8.688545E-2,1.096847E0,5.351491E-1,1.7971992E-2,0E0,1.0053668E0,0E0,9.515028E-2,8.1608176E-2,0E0,1.2213707E-2,0E0,0E0,0E0,0E0,0E0,0E0,0E0,0E0],"parents":[2147483647,0,0,1,1,2,2,3,3,4,4,5,5,7,7,9,9,10,10,12,12],"right_children":[2,4,6,8,10,12,-1,14,-1,16,18,-1,20,-1,-1,-1,-1,-1,-1,-1,-1],"split_conditions":[7.481E1,1.402112E0,1E0,1E0,1.298E1,7.692308E-2,-0E0,6E-1,-0E0,3.8013272E2,2.2698007E2,-0E0,6E-1,-1.3156255E-2,-0E0,-0E0,-1.1983736E-3,-0E0,2.9217978E-3,1.7845737E-2,-0E0],"split_indices":[2,2,12,16,2,0,0,0,0,5,5,0,0,0,0,0,0,0,0,0,0],"split_type":[0,0,0,0,0,0,0,0,0,0,0,0,0,0,0,0,0,0,0,0,0],"sum_hessian":[6.67E2,6.02E2,6.5E1,1.64E2,4.38E2,6.4E1,1E0,1.23E2,4.1E1,2.7E2,1.68E2,1E0,6.3E1,8.9E1,3.4E1,5.1E1,2.19E2,7E0,1.61E2,6.2E1,1E0],"tree_param":{"num_deleted":"0","num_feature":"19","num_nodes":"21","size_leaf_vector":"1"}},{"base_weights":[-0E0,-1.5523456E-1,1.4200522E-1,-2.405239E-1,-5.0236825E-2,7.493597E-2,1.8851906E-2,-1.2203134E-2,-0E0,-5.2313667E-2,-0E0,-0E0,8.5098796E-2,-2.6296095E-3,-0E0,-0E0,4.296665E-3],"categories":[],"categories_nodes":[],"categories_segments":[],"categories_sizes":[],"default_left":[0,0,0,0,0,0,0,0,0,0,0,0,0,0,0,0,0],"id":54,"left_children":[1,3,5,7,9,11,-1,-1,-1,13,-1,-1,15,-1,-1,-1,-1],"loss_changes":[1.5180883E1,1.2641592E0,3.3531342E0,7.1665764E-2,1.1182368E-2,1.6560102E-1,0E0,0E0,0E0,2.2304654E-3,0E0,0E0,2.3909926E-2,0E0,0E0,0E0,0E0],"parents":[2147483647,0,0,1,1,2,2,3,3,4,4,5,5,9,9,12,12],"right_children":[2,4,6,8,10,12,-1,-1,-1,14,-1,-1,16,-1,-1,-1,-1],"split_conditions":[3.257143E1,7.2E0,4.2E2,1E0,1E0,4.62E1,1.8851906E-2,-1.2203134E-2,-0E0,1.7671459E4,-0E0,-0E0,1.1762123E-2,-2.6296095E-3,-0E0,-0E0,4.296665E-3],"split_indices":[3,3,3,18,9,3,0,0,0,5,0,0,4,0,0,0,0],"split_type":[0,0,0,0,0,0,0,0,0,0,0,0,0,0,0,0,0],"sum_hessian":[6.71E2,3.07E2,3.64E2,1.36E2,1.71E2,3.1E2,5.4E1,1.33E2,3E0,1.61E2,1E1,4.9E1,2.61E2,1.6E2,1E0,2E0,2.59E2],"tree_param":{"num_deleted":"0","num_feature":"19","num_nodes":"17","size_leaf_vector":"1"}},{"base_weights":[-0E0,-1.6276035E-1,1.4557649E-1,-1.9834708E-2,-9.056049E-2,9.348192E-2,2.3563884E-2,-1.025847E-1,-0E0,1.568193E-3,1.2402163E-1,-5.771655E-3,-0E0,1.0800764E-3,-0E0,6.288659E-3,-0E0],"categories":[],"categories_nodes":[],"categories_segments":[],"categories_sizes":[],"default_left":[0,0,0,0,0,0,0,0,0,0,0,0,0,0,0,0,0],"id":55,"left_children":[1,3,5,-1,7,9,-1,11,-1,13,15,-1,-1,-1,-1,-1,-1],"loss_changes":[1.6291838E1,2.524825E0,3.0983667E0,0E0,5.7443476E-1,3.497553E-1,0E0,1.4269662E-1,0E0,1.9725543E-2,6.5056086E-2,0E0,0E0,0E0,0E0,0E0,0E0],"parents":[2147483647,0,0,1,1,2,2,4,4,5,5,7,7,9,9,10,10],"right_children":[2,4,6,-1,8,10,-1,12,-1,14,16,-1,-1,-1,-1,-1,-1],"split_conditions":[3.257143E1,2.0796E0,2.1803E2,-1.9834708E-2,4.55E1,8.3E1,2.3563884E-2,2.184E1,-0E0,3.752129E0,1E0,-5.771655E-3,-0E0,1.0800764E-3,-0E0,6.288659E-3,-0E0],"split_indices":[3,3,2,0,2,3,0,3,0,2,15,0,0,0,0,0,0],"split_type":[0,0,0,0,0,0,0,0,0,0,0,0,0,0,0,0,0],"sum_hessian":[6.7E2,3.05E2,3.65E2,4.5E1,2.6E2,3.39E2,2.6E1,2.55E2,5E0,1.28E2,2.11E2,2.1E2,4.5E1,3.3E1,9.5E1,2.09E2,2E0],"tree_param":{"num_deleted":"0","num_feature":"19","num_nodes":"17","size_leaf_vector":"1"}},{"base_weights":[5.5771656E-3,-1.4890939E-1,1.3237824E-1,-1.9026977E-1,-0E0,8.501104E-2,2.1945206E-2,-1.967639E-1,-0E0,-0E0,-4.5771878E-5,-0E0,1.08874075E-1,-9.937111E-3,-0E0,5.49865E-3,-0E0],"categories":[],"categories_nodes":[],"categories_segments":[],"categories_sizes":[],"default_left":[0,0,0,0,0,0,0,0,0,0,0,0,0,0,0,0,0],"id":56,"left_children":[1,3,5,7,9,11,-1,13,-1,-1,-1,-1,15,-1,-1,-1,-1],"loss_changes":[1.3023657E1,8.3449125E-1,2.5972257E0,3.4028578E-1,5.782378E-5,4.2098284E-1,0E0,3.2515526E-2,0E0,0E0,0E0,0E0,2.504468E-2,0E0,0E0,0E0,0E0],"parents":[2147483647,0,0,1,1,2,2,3,3,4,4,5,5,7,7,12,12],"right_children":[2,4,6,8,10,12,-1,14,-1,-1,-1,-1,16,-1,-1,-1,-1],"split_conditions":[2.8666666E1,1.33E1,2.1803E2,1.033E1,1.84E0,6.54E1,2.1945206E-2,1E0,-0E0,-0E0,-4.5771878E-5,-0E0,1E0,-9.937111E-3,-0E0,5.49865E-3,-0E0],"split_indices":[3,3,2,2,2,3,0,18,0,0,0,0,12,0,0,0,0],"split_type":[0,0,0,0,0,0,0,0,0,0,0,0,0,0,0,0,0],"sum_hessian":[6.49E2,2.74E2,3.75E2,1.87E2,8.7E1,3.5E2,2.5E1,1.83E2,4E0,2.8E1,5.9E1,1.05E2,2.45E2,1.8E2,3E0,2.42E2,3E0],"tree_param":{"num_deleted":"0","num_feature":"19","num_nodes":"17","size_leaf_vector":"1"}},{"base_weights":[3.476302E-4,-1.33701E-1,1.2768449E-1,-1.5967099E-2,-8.009908E-2,6.822028E-2,1.5767293E-2,-9.204286E-2,-0E0,-0E0,4.0757502E-3,-5.372331E-3,-0E0],"categories":[],"categories_nodes":[],"categories_segments":[],"categories_sizes":[],"default_left":[0,0,0,0,0,0,0,0,0,0,0,0,0],"id":57,"left_children":[1,3,5,-1,7,9,-1,11,-1,-1,-1,-1,-1],"loss_changes":[1.1781918E1,9.1133165E-1,2.040556E0,0E0,2.5581145E-1,1.1940682E-1,0E0,7.711434E-2,0E0,0E0,0E0,0E0,0E0],"parents":[2147483647,0,0,1,1,2,2,4,4,5,5,7,7],"right_children":[2,4,6,-1,8,10,-1,12,-1,-1,-1,-1,-1],"split_conditions":[3.257143E1,2.0796E0,4.2E2,-1.5967099E-2,1.0858129E0,5.7E1,1.5767293E-2,1.6E1,-0E0,-0E0,4.0757502E-3,-5.372331E-3,-0E0],"split_indices":[3,3,3,0,4,3,0,3,0,0,0,0,0],"split_type":[0,0,0,0,0,0,0,0,0,0,0,0,0],"sum_hessian":[6.72E2,3.08E2,3.64E2,3.7E1,2.71E2,3.07E2,5.7E1,2.33E2,3.8E1,7.7E1,2.3E2,1.75E2,5.8E1],"tree_param":{"num_deleted":"0","num_feature":"19","num_nodes":"13","size_leaf_vector":"1"}},{"base_weights":[-0E0,-7.2727814E-2,1.2605286E-1,-1.5601376E-1,-9.376043E-4,4.8065074E-2,2.933944E-1,-1.810905E-1,-0E0,-1.3448372E-2,-0E0,-0E0,5.2974224E-2,-0E0,1.4988536E-2,-1.127636E-2,-0E0,-0E0,-1.0509071E-3,3.0515802E-3,-0E0],"categories":[],"categories_nodes":[],"categories_segments":[],"categories_sizes":[],"default_left":[0,0,0,0,0,0,0,0,0,0,0,0,0,0,0,0,0,0,0,0,0],"id":58,"left_children":[1,3,5,7,9,11,13,15,-1,17,-1,-1,19,-1,-1,-1,-1,-1,-1,-1,-1],"loss_changes":[6.0772085E0,1.8266542E0,1.2446733E0,6.500406E-1,3.5023935E-2,7.6583415E-2,2.0732403E-2,7.561245E-1,0E0,3.4089226E-2,0E0,0E0,4.1405976E-2,0E0,0E0,0E0,0E0,0E0,0E0,0E0,0E0],"parents":[2147483647,0,0,1,1,2,2,3,3,4,4,5,5,6,6,7,7,9,9,12,12],"right_children":[2,4,6,8,10,12,14,16,-1,18,-1,-1,20,-1,-1,-1,-1,-1,-1,-1,-1],"split_conditions":[1.298E1,1.402112E0,1.1309E2,1E0,1E0,2.2698007E2,7.692308E-2,1E0,-0E0,2.31E0,-0E0,-0E0,4E-1,-0E0,1.4988536E-2,-1.127636E-2,-0E0,-0E0,-1.0509071E-3,3.0515802E-3,-0E0],"split_indices":[2,2,2,12,16,5,0,16,0,2,0,0,0,0,0,0,0,0,0,0,0],"split_type":[0,0,0,0,0,0,0,0,0,0,0,0,0,0,0,0,0,0,0,0,0],"sum_hessian":[6.54E2,4.27E2,2.27E2,1.6E2,2.67E2,1.84E2,4.3E1,1.36E2,2.4E1,1.85E2,8.2E1,7E0,1.77E2,2E0,4.1E1,9.9E1,3.7E1,3.8E1,1.47E2,1.42E2,3.5E1],"tree_param":{"num_deleted":"0","num_feature":"19","num_nodes":"21","size_leaf_vector":"1"}},{"base_weights":[6.0542813E-3,-1.2325241E-1,1.3125914E-1,-1.891342E-1,-2.0839112E-2,8.169011E-2,4.4234097E-1,-1.9987305E-1,-0E0,-2.9659629E-2,-0E0,-0E0,8.990981E-2,-0E0,2.2868538E-2,-1.015529E-2,-0E0,-0E0,-2.319943E-3,4.5506908E-3,-0E0],"categories":[],"categories_nodes":[],"categories_segments":[],"categories_sizes":[],"default_left":[0,0,0,0,0,0,0,0,0,0,0,0,0,0,0,0,0,0,0,0,0],"id":59,"left_children":[1,3,5,7,9,11,13,15,-1,17,-1,-1,19,-1,-1,-1,-1,-1,-1,-1,-1],"loss_changes":[1.1275655E1,1.0833087E0,2.754745E0,6.093869E-1,6.9987506E-2,1.4992428E-1,5.4911137E-2,4.7338486E-2,0E0,5.770503E-2,0E0,0E0,4.43542E-2,0E0,0E0,0E0,0E0,0E0,0E0,0E0,0E0],"parents":[2147483647,0,0,1,1,2,2,3,3,4,4,5,5,6,6,7,7,9,9,12,12],"right_children":[2,4,6,8,10,12,14,16,-1,18,-1,-1,20,-1,-1,-1,-1,-1,-1,-1,-1],"split_conditions":[3.6E1,8.4E0,2.6937E2,1.2010246E1,3.587E1,4.62E1,1.01787604E3,1E0,-0E0,2.37E0,-0E0,-0E0,1E0,-0E0,2.2868538E-2,-1.015529E-2,-0E0,-0E0,-2.319943E-3,4.5506908E-3,-0E0],"split_indices":[3,3,2,2,2,3,5,18,0,2,0,0,15,0,0,0,0,0,0,0,0],"split_type":[0,0,0,0,0,0,0,0,0,0,0,0,0,0,0,0,0,0,0,0,0],"sum_hessian":[6.74E2,3.12E2,3.62E2,1.55E2,1.57E2,3.37E2,2.5E1,1.53E2,2E0,1.52E2,5E0,4.2E1,2.95E2,2E0,2.3E1,1.49E2,4E0,6.9E1,8.3E1,2.93E2,2E0],"tree_param":{"num_deleted":"0","num_feature":"19","num_nodes":"21","size_leaf_vector":"1"}},{"base_weights":[1.3224756E-3,-1.1349102E-1,1.255493E-1,-3.039927E-1,-6.604752E-2,7.897212E-2,3.913003E-1,-1.540789E-2,-0E0,-7.893747E-2,-0E0,-0E0,9.6953765E-2,-0E0,2.0161835E-2,-4.240613E-3,-0E0,4.9228184E-3,-0E0],"categories":[],"categories_nodes":[],"categories_segments":[],"categories_sizes":[],"default_left":[0,0,0,0,0,0,0,0,0,0,0,0,0,0,0,0,0,0,0],"id":60,"left_children":[1,3,5,7,9,11,13,-1,-1,15,-1,-1,17,-1,-1,-1,-1,-1,-1],"loss_changes":[1.0101243E1,1.067152E0,1.7832971E0,1.9774437E-2,5.357256E-1,1.165843E-1,6.738186E-3,0E0,0E0,1.4042866E-1,0E0,0E0,4.9320698E-2,0E0,0E0,0E0,0E0,0E0,0E0],"parents":[2147483647,0,0,1,1,2,2,3,3,4,4,5,5,6,6,9,9,12,12],"right_children":[2,4,6,8,10,12,14,-1,-1,16,-1,-1,18,-1,-1,-1,-1,-1,-1],"split_conditions":[3.9E1,2.0454545E0,2.6937E2,2.14E0,3.587E1,9E1,1.2723451E0,-1.540789E-2,-0E0,3.257143E1,-0E0,-0E0,1E0,-0E0,2.0161835E-2,-4.240613E-3,-0E0,4.9228184E-3,-0E0],"split_indices":[3,3,2,2,2,3,4,0,0,3,0,0,15,0,0,0,0,0,0],"split_type":[0,0,0,0,0,0,0,0,0,0,0,0,0,0,0,0,0,0,0],"sum_hessian":[6.84E2,3.35E2,3.49E2,3.5E1,3E2,3.24E2,2.5E1,3.4E1,1E0,2.93E2,7E0,1E2,2.24E2,2E0,2.3E1,2.72E2,2.1E1,2.22E2,2E0],"tree_param":{"num_deleted":"0","num_feature":"19","num_nodes":"19","size_leaf_vector":"1"}},{"base_weights":[-0E0,-2.2043705E-2,2.7287284E-1,-1.3235253E-1,-0E0,1.5880985E-2,-0E0,-1.5619779E-1,-0E0,-2.7153669E-2,4.158579E-2,-0E0,-8.083603E-3,-2.276583E-3,-0E0,3.6736687E-3,-0E0],"categories":[],"categories_nodes":[],"categories_segments":[],"categories_sizes":[],"default_left":[0,0,0,0,0,0,0,0,0,0,0,0,0,0,0,0,0],"id":61,"left_children":[1,3,5,7,9,-1,-1,11,-1,13,15,-1,-1,-1,-1,-1,-1],"loss_changes":[4.779053E0,1.3876898E0,5.7653856E-1,2.0385659E-1,6.18229E-1,0E0,0E0,5.7314634E-2,0E0,2.9638296E-1,2.1403217E-1,0E0,0E0,0E0,0E0,0E0,0E0],"parents":[2147483647,0,0,1,1,2,2,3,3,4,4,7,7,9,9,10,10],"right_children":[2,4,6,8,10,-1,-1,12,-1,14,16,-1,-1,-1,-1,-1,-1],"split_conditions":[1.20762825E1,3.6191147E-2,1E0,1E0,1E0,1.5880985E-2,-0E0,2.8274334E1,-0E0,1.7704445E0,7.85E3,-0E0,-8.083603E-3,-2.276583E-3,-0E0,3.6736687E-3,-0E0],"split_indices":[4,4,16,10,16,0,0,5,0,4,1,0,0,0,0,0,0],"split_type":[0,0,0,0,0,0,0,0,0,0,0,0,0,0,0,0,0],"sum_hessian":[6.81E2,6.31E2,5E1,8.7E1,5.44E2,4E1,1E1,6.8E1,1.9E1,3.5E2,1.94E2,3E0,6.5E1,2.61E2,8.9E1,9.5E1,9.9E1],"tree_param":{"num_deleted":"0","num_feature":"19","num_nodes":"17","size_leaf_vector":"1"}},{"base_weights":[-0E0,-1.2521887E-1,1.0891711E-1,-2.6244855E-1,-5.101482E-2,5.4768074E-2,1.3125271E-2,-2.6497716E-1,-0E0,-5.1553443E-2,-0E0,5.9191916E-2,-0E0,-1.33552E-2,-0E0,-0E0,-2.6159587E-3,3.0070108E-3,-0E0],"categories":[],"categories_nodes":[],"categories_segments":[],"categories_sizes":[],"default_left":[0,0,0,0,0,0,0,0,0,0,0,0,0,0,0,0,0,0,0],"id":62,"left_children":[1,3,5,7,9,11,-1,13,-1,15,-1,17,-1,-1,-1,-1,-1,-1,-1],"loss_changes":[9.497073E0,1.6082697E0,1.3553438E0,4.714918E-2,1.0987997E-2,8.321047E-2,0E0,2.7109623E-2,0E0,8.617163E-3,0E0,7.499218E-3,0E0,0E0,0E0,0E0,0E0,0E0,0E0],"parents":[2147483647,0,0,1,1,2,2,3,3,4,4,5,5,7,7,9,9,11,11],"right_children":[2,4,6,8,10,12,-1,14,-1,16,-1,18,-1,-1,-1,-1,-1,-1,-1],"split_conditions":[2.97E1,3.6E0,3.6E2,1E0,8.3E-1,1E0,1.3125271E-2,1E0,-0E0,2.256292E-3,-0E0,1E0,-0E0,-1.33552E-2,-0E0,-0E0,-2.6159587E-3,3.0070108E-3,-0E0],"split_indices":[3,3,3,18,0,14,0,7,0,4,0,7,0,0,0,0,0,0,0],"split_type":[0,0,0,0,0,0,0,0,0,0,0,0,0,0,0,0,0,0,0],"sum_hessian":[6.76E2,3.15E2,3.61E2,7.8E1,2.37E2,3.01E2,6E1,7.7E1,1E0,2.36E2,1E0,2.8E2,2.1E1,7.6E1,1E0,4E0,2.32E2,2.73E2,7E0],"tree_param":{"num_deleted":"0","num_feature":"19","num_nodes":"19","size_leaf_vector":"1"}},{"base_weights":[5.731356E-3,-1.3278609E-2,3.0480054E-1,-9.765317E-2,6.375076E-3,1.5585366E-2,-0E0,-1.1446634E-1,-0E0,-0E0,3.3804666E-2,-6.872213E-3,-0E0,-5.3194363E-4,-0E0,-0E0,1.905711E-3],"categories":[],"categories_nodes":[],"categories_segments":[],"categories_sizes":[],"default_left":[0,0,0,0,0,0,0,0,0,0,0,0,0,0,0,0,0],"id":63,"left_children":[1,3,5,7,9,-1,-1,11,-1,13,15,-1,-1,-1,-1,-1,-1],"loss_changes":[5.2901754E0,1.4924024E0,4.412937E-2,5.1340723E-1,2.1308105E-1,0E0,0E0,4.5386767E-1,0E0,2.1618448E-2,5.2748576E-2,0E0,0E0,0E0,0E0,0E0,0E0],"parents":[2147483647,0,0,1,1,2,2,3,3,4,4,7,7,9,9,10,10],"right_children":[2,4,6,8,10,-1,-1,12,-1,14,16,-1,-1,-1,-1,-1,-1],"split_conditions":[1.1309E2,1.402112E0,8.15E3,3.3183071E3,1.2954399E1,1.5585366E-2,-0E0,1E0,-0E0,1E0,2.2698007E2,-6.872213E-3,-0E0,-5.3194363E-4,-0E0,-0E0,1.905711E-3],"split_indices":[2,2,1,5,2,0,0,12,0,16,5,0,0,0,0,0,0],"split_type":[0,0,0,0,0,0,0,0,0,0,0,0,0,0,0,0,0],"sum_hessian":[6.57E2,6.11E2,4.6E1,1.56E2,4.55E2,4.4E1,2E0,1.5E2,6E0,2.62E2,1.93E2,1.25E2,2.5E1,1.81E2,8.1E1,7E0,1.86E2],"tree_param":{"num_deleted":"0","num_feature":"19","num_nodes":"17","size_leaf_vector":"1"}},{"base_weights":[1.2418809E-3,-1.0618841E-1,1.0821889E-1,-1.3971445E-2,-5.5311948E-2,5.719138E-2,1.3376248E-2,-0E0,-6.243254E-2,-0E0,6.1503608E-2,-3.5222478E-3,-0E0,-0E0,3.1121832E-3],"categories":[],"categories_nodes":[],"categories_segments":[],"categories_sizes":[],"default_left":[0,0,0,0,0,0,0,0,0,0,0,0,0,0,0],"id":64,"left_children":[1,3,5,-1,7,9,-1,-1,11,-1,13,-1,-1,-1,-1],"loss_changes":[8.031957E0,1.0362437E0,1.2555308E0,0E0,1.3844198E-1,5.7361484E-2,0E0,0E0,2.8689504E-2,0E0,1.5026808E-2,0E0,0E0,0E0,0E0],"parents":[2147483647,0,0,1,1,2,2,4,4,5,5,8,8,10,10],"right_children":[2,4,6,-1,8,10,-1,-1,12,-1,14,-1,-1,-1,-1],"split_conditions":[3.257143E1,2.0796E0,4.2E2,-1.3971445E-2,1.8E3,3.9E1,1.3376248E-2,-0E0,2.04E1,-0E0,1.1938052E-2,-3.5222478E-3,-0E0,-0E0,3.1121832E-3],"split_indices":[3,3,3,0,1,3,0,0,3,0,4,0,0,0,0],"split_type":[0,0,0,0,0,0,0,0,0,0,0,0,0,0,0],"sum_hessian":[6.78E2,3.15E2,3.63E2,3.9E1,2.76E2,3.09E2,5.4E1,2.6E1,2.5E2,2.8E1,2.81E2,2E2,5E1,3E0,2.78E2],"tree_param":{"num_deleted":"0","num_feature":"19","num_nodes":"15","size_leaf_vector":"1"}},{"base_weights":[-0E0,-2.8221784E-2,1.7863563E-1,-1.1823213E-1,-0E0,7.079812E-4,2.7056137E-1,-1.391874E-1,-0E0,-2.0493284E-2,1.611583E-2,-0E0,1.3821194E-2,-9.657833E-3,-0E0,-0E0,-1.4621014E-3,1.5253358E-3,-0E0],"categories":[],"categories_nodes":[],"categories_segments":[],"categories_sizes":[],"default_left":[0,0,0,0,0,0,0,0,0,0,0,0,0,0,0,0,0,0,0],"id":65,"left_children":[1,3,5,7,9,-1,11,13,-1,15,17,-1,-1,-1,-1,-1,-1,-1,-1],"loss_changes":[4.188334E0,1.0968671E0,3.0707526E-1,5.0190103E-1,1.7162022E-1,0E0,2.3548126E-2,3.342557E-1,0E0,8.131536E-2,9.5684625E-2,0E0,0E0,0E0,0E0,0E0,0E0,0E0,0E0],"parents":[2147483647,0,0,1,1,2,2,3,3,4,4,6,6,7,7,9,9,10,10],"right_children":[2,4,6,8,10,-1,12,14,-1,16,18,-1,-1,-1,-1,-1,-1,-1,-1],"split_conditions":[4.205E1,8.4E-1,1.0453E2,6.7858404E-1,1E0,7.079812E-4,7.692308E-2,6E-1,-0E0,2E-1,2.4121542E0,-0E0,1.3821194E-2,-9.657833E-3,-0E0,-0E0,-1.4621014E-3,1.5253358E-3,-0E0],"split_indices":[2,2,2,4,16,0,0,0,0,0,4,0,0,0,0,0,0,0,0],"split_type":[0,0,0,0,0,0,0,0,0,0,0,0,0,0,0,0,0,0,0],"sum_hessian":[6.68E2,5.61E2,1.07E2,1.01E2,4.6E2,6.2E1,4.5E1,9.6E1,5E0,2.83E2,1.77E2,2E0,4.3E1,5.4E1,4.2E1,5.4E1,2.29E2,1.45E2,3.2E1],"tree_param":{"num_deleted":"0","num_feature":"19","num_nodes":"19","size_leaf_vector":"1"}},{"base_weights":[-0E0,-1.011454E-1,8.894424E-2,-1.14434235E-1,-0E0,-0E0,1.2654078E-1,-2.4381311E-1,-5.9172604E-2,9.2072645E-4,-0E0,1.3133857E-1,-0E0,-1.3775142E-2,-0E0,-0E0,-3.0690962E-3,6.7255967E-3,-0E0],"categories":[],"categories_nodes":[],"categories_segments":[],"categories_sizes":[],"default_left":[0,0,0,0,0,0,0,0,0,0,0,0,0,0,0,0,0,0,0],"id":66,"left_children":[1,3,5,7,-1,9,11,13,15,-1,-1,17,-1,-1,-1,-1,-1,-1,-1],"loss_changes":[6.2692914E0,8.021519E-1,7.015569E-1,5.214555E-1,0E0,1.7632935E-2,5.0493956E-2,9.305382E-2,3.3741653E-2,0E0,0E0,4.254055E-2,0E0,0E0,0E0,0E0,0E0,0E0,0E0],"parents":[2147483647,0,0,1,1,2,2,3,3,5,5,6,6,7,7,8,8,11,11],"right_children":[2,4,6,8,-1,10,12,14,16,-1,-1,18,-1,-1,-1,-1,-1,-1,-1],"split_conditions":[3.257143E1,3.587E1,9.923077E1,2.796E0,-0E0,4.12E0,1E0,1.402112E0,7.692308E-2,9.2072645E-4,-0E0,8.15E3,-0E0,-1.3775142E-2,-0E0,-0E0,-3.0690962E-3,6.7255967E-3,-0E0],"split_indices":[3,2,3,3,0,2,14,2,0,0,0,1,0,0,0,0,0,0,0],"split_type":[0,0,0,0,0,0,0,0,0,0,0,0,0,0,0,0,0,0,0],"sum_hessian":[6.81E2,3.02E2,3.79E2,2.95E2,7E0,1.53E2,2.26E2,5.1E1,2.44E2,4.2E1,1.11E2,2.12E2,1.4E1,3.9E1,1.2E1,9E0,2.35E2,2.04E2,8E0],"tree_param":{"num_deleted":"0","num_feature":"19","num_nodes":"19","size_leaf_vector":"1"}},{"base_weights":[-0E0,-1.309572E-1,7.823318E-2,-1.4144063E-1,-0E0,4.0475313E-2,3.5133943E-1,-2.659098E-1,-6.7064345E-2,-0E0,5.6975447E-2,-0E0,1.7836982E-2,-1.3701724E-2,-0E0,-3.4461163E-3,-0E0,2.8950016E-3,-0E0],"categories":[],"categories_nodes":[],"categories_segments":[],"categories_sizes":[],"default_left":[0,0,0,0,0,0,0,0,0,0,0,0,0,0,0,0,0,0,0],"id":67,"left_children":[1,3,5,7,-1,9,11,13,15,-1,17,-1,-1,-1,-1,-1,-1,-1,-1],"loss_changes":[7.026915E0,6.0532093E-1,2.6009517E0,3.9712667E-1,0E0,3.570903E-1,1.8040657E-2,1.21797085E-1,5.2528977E-3,0E0,2.7920127E-2,0E0,0E0,0E0,0E0,0E0,0E0,0E0,0E0],"parents":[2147483647,0,0,1,1,2,2,3,3,5,5,6,6,7,7,8,8,10,10],"right_children":[2,4,6,8,-1,10,12,14,16,-1,18,-1,-1,-1,-1,-1,-1,-1,-1],"split_conditions":[1.6E1,1.368E1,1.6964E2,2.592E0,-0E0,3.9E1,1.6E3,3.5E0,1E0,-0E0,1E0,-0E0,1.7836982E-2,-1.3701724E-2,-0E0,-3.4461163E-3,-0E0,2.8950016E-3,-0E0],"split_indices":[3,2,2,3,0,3,1,2,9,0,15,0,0,0,0,0,0,0,0],"split_type":[0,0,0,0,0,0,0,0,0,0,0,0,0,0,0,0,0,0,0],"sum_hessian":[6.83E2,2.37E2,4.46E2,2.32E2,5E0,4.18E2,2.8E1,5.2E1,1.8E2,1.02E2,3.16E2,1E0,2.7E1,5E1,2E0,1.71E2,9E0,3.14E2,2E0],"tree_param":{"num_deleted":"0","num_feature":"19","num_nodes":"19","size_leaf_vector":"1"}},{"base_weights":[-0E0,-9.529907E-2,9.566619E-2,-1.2903136E-1,-0E0,5.428443E-2,1.8336227E-2,-1.381475E-1,-0E0,1.3108055E-5,8.384352E-2,-6.956361E-3,-0E0,1.6143293E-3,-0E0,4.7026644E-3,-0E0],"categories":[],"categories_nodes":[],"categories_segments":[],"categories_sizes":[],"default_left":[0,0,0,0,0,0,0,0,0,0,0,0,0,0,0,0,0],"id":68,"left_children":[1,3,5,7,-1,9,-1,11,-1,13,15,-1,-1,-1,-1,-1,-1],"loss_changes":[6.24691E0,6.3399196E-1,1.8236897E0,3.9941168E-1,0E0,1.3736701E-1,0E0,1.6975164E-2,0E0,5.7333257E-2,1.758424E-1,0E0,0E0,0E0,0E0,0E0,0E0],"parents":[2147483647,0,0,1,1,2,2,3,3,5,5,7,7,9,9,10,10],"right_children":[2,4,6,8,-1,10,-1,12,-1,14,16,-1,-1,-1,-1,-1,-1],"split_conditions":[3.257143E1,1.33E1,2.4937E2,1.368E1,-0E0,1.26E2,1.8336227E-2,1E0,-0E0,4.14E0,3.1415926E4,-6.956361E-3,-0E0,1.6143293E-3,-0E0,4.7026644E-3,-0E0],"split_indices":[3,3,2,2,0,3,0,18,0,2,5,0,0,0,0,0,0],"split_type":[0,0,0,0,0,0,0,0,0,0,0,0,0,0,0,0,0],"sum_hessian":[6.65E2,3.07E2,3.58E2,2.01E2,1.06E2,3.37E2,2.1E1,1.95E2,6E0,1.82E2,1.55E2,1.93E2,2E0,4.5E1,1.37E2,1.41E2,1.4E1],"tree_param":{"num_deleted":"0","num_feature":"19","num_nodes":"17","size_leaf_vector":"1"}},{"base_weights":[4.124876E-3,-8.342452E-2,8.9014895E-2,-9.4614826E-2,-0E0,4.955656E-2,1.4351997E-2,-1.2579115E-1,-0E0,-0E0,5.707999E-2,-6.34871E-3,-0E0,-0E0,-7.321024E-4,3.011685E-3,-0E0],"categories":[],"categories_nodes":[],"categories_segments":[],"categories_sizes":[],"default_left":[0,0,0,0,0,0,0,0,0,0,0,0,0,0,0,0,0],"id":69,"left_children":[1,3,5,7,-1,9,-1,11,13,-1,15,-1,-1,-1,-1,-1,-1],"loss_changes":[5.0816994E0,5.648885E-1,1.0971081E0,3.9102364E-1,0E0,4.5457006E-2,0E0,9.943962E-3,1.6293606E-2,0E0,3.2438993E-2,0E0,0E0,0E0,0E0,0E0,0E0],"parents":[2147483647,0,0,1,1,2,2,3,3,5,5,7,7,8,8,10,10],"right_children":[2,4,6,8,-1,10,-1,12,14,-1,16,-1,-1,-1,-1,-1,-1],"split_conditions":[3.257143E1,3.587E1,5.79E2,1.3E1,-0E0,5.2E1,1.4351997E-2,1E0,2.31E0,-0E0,1E0,-6.34871E-3,-0E0,-0E0,-7.321024E-4,3.011685E-3,-0E0],"split_indices":[3,2,3,3,0,3,0,7,2,0,14,0,0,0,0,0,0],"split_type":[0,0,0,0,0,0,0,0,0,0,0,0,0,0,0,0,0],"sum_hessian":[6.6E2,2.96E2,3.64E2,2.91E2,5E0,3.35E2,2.9E1,1.85E2,1.06E2,7.1E1,2.64E2,1.82E2,3E0,4E1,6.6E1,2.45E2,1.9E1],"tree_param":{"num_deleted":"0","num_feature":"19","num_nodes":"17","size_leaf_vector":"1"}},{"base_weights":[-0E0,-1.1208852E-1,6.224019E-2,-1.7504115E-1,-1.2303807E-2,2.3155643E-2,1.0338337E-2,-2.2665681E-1,-0E0,-0E0,-2.6176983E-2,7.279346E-2,-0E0,-1.1419947E-2,-0E0,-0E0,-1.5229922E-3,-0E0,3.749498E-3,-8.41177E-5,1.1466923E-3],"categories":[],"categories_nodes":[],"categories_segments":[],"categories_sizes":[],"default_left":[0,0,0,0,0,0,0,0,0,0,0,0,0,0,0,0,0,0,0,0,0],"id":70,"left_children":[1,3,5,7,9,11,-1,13,-1,-1,15,17,19,-1,-1,-1,-1,-1,-1,-1,-1],"loss_changes":[4.714156E0,5.1165915E-1,1.3896396E0,3.7001133E-1,6.2930726E-2,1.9407703E-1,0E0,6.498337E-3,0E0,0E0,2.0072646E-2,8.1242025E-3,9.042336E-2,0E0,0E0,0E0,0E0,0E0,0E0,0E0,0E0],"parents":[2147483647,0,0,1,1,2,2,3,3,4,4,5,5,7,7,10,10,11,11,12,12],"right_children":[2,4,6,8,10,12,-1,14,-1,-1,16,18,20,-1,-1,-1,-1,-1,-1,-1,-1],"split_conditions":[1.6122E1,1.1E0,3.9E2,7.2E0,1.8E3,3.01E0,1.0338337E-2,1.01E0,-0E0,-0E0,7.0572734E-2,6.5596453E-3,9.072E1,-1.1419947E-2,-0E0,-0E0,-1.5229922E-3,-0E0,3.749498E-3,-8.41177E-5,1.1466923E-3],"split_indices":[3,2,3,3,1,2,0,2,0,0,4,4,3,0,0,0,0,0,0,0,0],"split_type":[0,0,0,0,0,0,0,0,0,0,0,0,0,0,0,0,0,0,0,0,0],"sum_hessian":[6.72E2,2.24E2,4.48E2,1.02E2,1.22E2,3.89E2,5.9E1,6.4E1,3.8E1,1.1E1,1.11E2,6.7E1,3.22E2,6.3E1,1E0,1E1,1.01E2,3E0,6.4E1,1.61E2,1.61E2],"tree_param":{"num_deleted":"0","num_feature":"19","num_nodes":"21","size_leaf_vector":"1"}},{"base_weights":[-0E0,-8.277772E-2,7.902837E-2,-1.1086174E-2,-3.7952937E-2,-0E0,1.12674624E-1,-0E0,-4.6289027E-2,1.1887433E-1,-0E0,-2.3394777E-3,-0E0,6.112188E-3,-0E0],"categories":[],"categories_nodes":[],"categories_segments":[],"categories_sizes":[],"default_left":[0,0,0,0,0,0,0,0,0,0,0,0,0,0,0],"id":71,"left_children":[1,3,5,-1,7,-1,9,-1,11,13,-1,-1,-1,-1,-1],"loss_changes":[4.5440235E0,6.416371E-1,5.1403785E-1,0E0,1.4871672E-1,0E0,1.0815787E-1,0E0,9.970188E-3,6.438112E-2,0E0,0E0,0E0,0E0,0E0],"parents":[2147483647,0,0,1,1,2,2,4,4,6,6,8,8,9,9],"right_children":[2,4,6,-1,8,-1,10,-1,12,14,-1,-1,-1,-1,-1],"split_conditions":[3.6E1,2.0796E0,9.923077E1,-1.1086174E-2,1.8E3,-0E0,1E0,-0E0,8.3E-1,8.15E3,-0E0,-2.3394777E-3,-0E0,6.112188E-3,-0E0],"split_indices":[3,3,3,0,1,0,14,0,0,1,0,0,0,0,0],"split_type":[0,0,0,0,0,0,0,0,0,0,0,0,0,0,0],"sum_hessian":[6.76E2,3.15E2,3.61E2,4E1,2.75E2,1.48E2,2.13E2,2.4E1,2.51E2,1.98E2,1.5E1,2.5E2,1E0,1.91E2,7E0],"tree_param":{"num_deleted":"0","num_feature":"19","num_nodes":"15","size_leaf_vector":"1"}},{"base_weights":[-0E0,-9.0718925E-2,7.275651E-2,-9.9624194E-2,-0E0,3.1569395E-2,1.7837335E-1,-2.1746787E-1,-4.8239198E-2,7.689013E-2,-0E0,1.875389E-1,-0E0,-1.2327394E-2,-0E0,-2.4329654E-3,-0E0,4.0185163E-3,-0E0,-0E0,1.6263763E-4,-0E0,9.490994E-3],"categories":[],"categories_nodes":[],"categories_segments":[],"categories_sizes":[],"default_left":[0,0,0,0,0,0,0,0,0,0,0,0,0,0,0,0,0,0,0,0,0,0,0],"id":72,"left_children":[1,3,5,7,-1,9,11,13,15,17,19,21,-1,-1,-1,-1,-1,-1,-1,-1,-1,-1,-1],"loss_changes":[4.5034227E0,4.6906257E-1,5.2524483E-1,3.8923407E-1,0E0,2.1124217E-1,2.0386219E-2,1.8826342E-1,5.522907E-3,2.9331207E-2,1.5976403E-3,1.8195152E-2,0E0,0E0,0E0,0E0,0E0,0E0,0E0,0E0,0E0,0E0,0E0],"parents":[2147483647,0,0,1,1,2,2,3,3,5,5,6,6,7,7,8,8,9,9,10,10,11,11],"right_children":[2,4,6,8,-1,10,12,14,16,18,20,22,-1,-1,-1,-1,-1,-1,-1,-1,-1,-1,-1],"split_conditions":[2.8666666E1,3.587E1,3.6E2,2.592E0,-0E0,5.57E0,3.3E-1,1.402112E0,1E0,1.2271847E4,9.072E1,1.4119574E3,-0E0,-1.2327394E-2,-0E0,-2.4329654E-3,-0E0,4.0185163E-3,-0E0,-0E0,1.6263763E-4,-0E0,9.490994E-3],"split_indices":[3,2,3,3,0,2,0,2,18,5,3,5,0,0,0,0,0,0,0,0,0,0,0],"split_type":[0,0,0,0,0,0,0,0,0,0,0,0,0,0,0,0,0,0,0,0,0,0,0],"sum_hessian":[6.61E2,2.96E2,3.65E2,2.91E2,5E0,3.06E2,5.9E1,4.9E1,2.42E2,7.9E1,2.27E2,5.3E1,6E0,3.9E1,1E1,2.4E2,2E0,7.6E1,3E0,8.6E1,1.41E2,1E0,5.2E1],"tree_param":{"num_deleted":"0","num_feature":"19","num_nodes":"23","size_leaf_vector":"1"}},{"base_weights":[1.2378619E-3,-9.652666E-3,1.4348942E-2,-9.089828E-2,-0E0,-1.06515735E-1,-0E0,-2.6673207E-4,2.3829844E-2,-6.6301087E-3,-0E0,-4.5935978E-4,-0E0,1.5258183E-3,-0E0],"categories":[],"categories_nodes":[],"categories_segments":[],"categories_sizes":[],"default_left":[0,0,0,0,0,0,0,0,0,0,0,0,0,0,0],"id":73,"left_children":[1,3,-1,5,7,9,-1,11,13,-1,-1,-1,-1,-1,-1],"loss_changes":[3.517956E0,9.562833E-1,0E0,2.8845692E-1,1.2041004E-1,2.7775574E-1,0E0,2.3272248E-2,4.4444367E-2,0E0,0E0,0E0,0E0,0E0,0E0],"parents":[2147483647,0,0,1,1,3,3,4,4,5,5,7,7,8,8],"right_children":[2,4,-1,6,8,10,-1,12,14,-1,-1,-1,-1,-1,-1],"split_conditions":[1.6964E2,9.4E-1,1.4348942E-2,4.0715042E-1,1E0,1E0,-0E0,4.061E1,3.7699113E0,-6.6301087E-3,-0E0,-4.5935978E-4,-0E0,1.5258183E-3,-0E0],"split_indices":[2,2,0,4,16,12,0,2,4,0,0,0,0,0,0],"split_type":[0,0,0,0,0,0,0,0,0,0,0,0,0,0,0],"sum_hessian":[6.66E2,6.34E2,3.2E1,1.13E2,5.21E2,1.05E2,8E0,3.19E2,2.02E2,8E1,2.5E1,2.66E2,5.3E1,1.67E2,3.5E1],"tree_param":{"num_deleted":"0","num_feature":"19","num_nodes":"15","size_leaf_vector":"1"}},{"base_weights":[1.0023109E-2,-4.9269386E-3,2.6095906E-1,-3.0331526E-2,1.8511768E-2,1.3334631E-2,-0E0,-8.1171066E-2,-0E0,-0E0,2.0926055E-2,-5.201358E-3,-0E0,1.6404365E-3,-0E0],"categories":[],"categories_nodes":[],"categories_segments":[],"categories_sizes":[],"default_left":[0,0,0,0,0,0,0,0,0,0,0,0,0,0,0],"id":74,"left_children":[1,3,5,7,9,-1,-1,11,-1,-1,13,-1,-1,-1,-1],"loss_changes":[3.8290348E0,4.3925217E-1,3.0192852E-2,4.5482087E-1,2.0680778E-2,0E0,0E0,2.195183E-1,0E0,0E0,2.6099123E-2,0E0,0E0,0E0,0E0],"parents":[2147483647,0,0,1,1,2,2,3,3,4,4,7,7,10,10],"right_children":[2,4,6,8,10,-1,-1,12,-1,-1,14,-1,-1,-1,-1],"split_conditions":[1.1309E2,1E0,8.15E3,1.402112E0,1.1762123E-2,1.3334631E-2,-0E0,1E0,-0E0,-0E0,7.85E3,-5.201358E-3,-0E0,1.6404365E-3,-0E0],"split_indices":[2,16,1,2,4,0,0,12,0,0,1,0,0,0,0],"split_type":[0,0,0,0,0,0,0,0,0,0,0,0,0,0,0],"sum_hessian":[6.66E2,6.19E2,4.7E1,3.98E2,2.21E2,4.5E1,2E0,1.16E2,2.82E2,3E0,2.18E2,8.7E1,2.9E1,1.07E2,1.11E2],"tree_param":{"num_deleted":"0","num_feature":"19","num_nodes":"15","size_leaf_vector":"1"}},{"base_weights":[-0E0,-1.4569059E-2,2.4797095E-1,-1.0303565E-1,-0E0,-0E0,2.537583E-1,-1.2211571E-1,-0E0,-6.0062334E-3,1.9401368E-2,-0E0,1.2826447E-2,-0E0,-6.4614466E-3,-7.383696E-4,-0E0,1.2340778E-3,-0E0],"categories":[],"categories_nodes":[],"categories_segments":[],"categories_sizes":[],"default_left":[0,0,0,0,0,0,0,0,0,0,0,0,0,0,0,0,0,0,0],"id":75,"left_children":[1,3,5,7,9,-1,11,13,-1,15,17,-1,-1,-1,-1,-1,-1,-1,-1],"loss_changes":[3.3366997E0,1.0710223E0,2.2205353E-2,4.1517174E-1,9.480813E-2,0E0,4.8832893E-3,7.797694E-2,0E0,3.778377E-2,3.3918776E-2,0E0,0E0,0E0,0E0,0E0,0E0,0E0,0E0],"parents":[2147483647,0,0,1,1,2,2,3,3,4,4,6,6,7,7,9,9,10,10],"right_children":[2,4,6,8,10,-1,12,14,-1,16,18,-1,-1,-1,-1,-1,-1,-1,-1],"split_conditions":[1.1309E2,8.4E-1,7.692308E-2,6.7858404E-1,1E0,-0E0,1.6E3,2.8274334E1,-0E0,1.085E1,3.7699113E0,-0E0,1.2826447E-2,-0E0,-6.4614466E-3,-7.383696E-4,-0E0,1.2340778E-3,-0E0],"split_indices":[2,2,0,4,16,0,1,5,0,2,4,0,0,0,0,0,0,0,0],"split_type":[0,0,0,0,0,0,0,0,0,0,0,0,0,0,0,0,0,0,0],"sum_hessian":[6.88E2,6.46E2,4.2E1,1.04E2,